9.080156683921813965e-02
2.017946913838386536e-02
-4.994076490402221680e-02
-2.804667875170707703e-02
9.335928410291671753e-02
1.008259207010269165e-01
9.929565340280532837e-02
9.398054331541061401e-02
-2.197227254509925842e-02
1.232624873518943787e-01
6.023197993636131287e-02
3.200559690594673157e-02
-6.273262202739715576e-02
-4.977541044354438782e-02
-2.842553704977035522e-02
1.171580851078033447e-01
8.726406842470169067e-02
-4.590936377644538879e-02
8.866148442029953003e-02
-5.285082384943962097e-02
2.066432535648345947e-01
7.976616173982620239e-02
4.485117271542549133e-02
1.273322552442550659e-01
-4.466807842254638672e-02
1.240626573562622070e-01
1.046835095621645451e-03
2.077781828120350838e-03
3.188871964812278748e-02
9.257578849792480469e-02
8.596400916576385498e-02
1.161371394991874695e-01
-2.999892458319664001e-03
-1.853445917367935181e-02
-1.122613027691841125e-01
-4.264184460043907166e-02
4.876025766134262085e-02
1.357489265501499176e-02
4.802004247903823853e-02
5.770067498087882996e-02
-2.315827831625938416e-02
2.166619598865509033e-01
1.982772499322891235e-01
6.830524653196334839e-02
-2.869249880313873291e-02
8.921153843402862549e-02
1.993052363395690918e-01
1.066379323601722717e-01
4.532611742615699768e-02
-6.188907101750373840e-02
-8.632065728306770325e-03
-8.954379707574844360e-02
1.190631240606307983e-01
2.897190749645233154e-01
2.200334668159484863e-01
-5.528836697340011597e-02
-1.084732264280319214e-01
-1.516117900609970093e-01
-1.904118806123733521e-01
-1.043142974376678467e-01
6.538497656583786011e-02
4.679998382925987244e-02
-5.244126915931701660e-02
-1.751201450824737549e-01
-3.269622102379798889e-02
-5.836131051182746887e-02
1.257132887840270996e-01
-2.860953100025653839e-02
-1.822150498628616333e-01
5.040550604462623596e-02
-2.042648047208786011e-01
1.869022697210311890e-01
9.010610729455947876e-02
-1.859447956085205078e-01
5.588224902749061584e-02
1.885473728179931641e-02
-7.197189331054687500e-02
-3.592367470264434814e-02
-9.718130528926849365e-02
-3.563020750880241394e-02
9.798753261566162109e-02
2.987143350765109062e-03
8.259676396846771240e-03
9.213856421411037445e-03
5.103454738855361938e-02
-1.158486586064100266e-02
-8.700930513441562653e-03
9.207670227624475956e-04
-2.200644230470061302e-03
3.804613277316093445e-02
-6.628023087978363037e-02
7.541164755821228027e-02
-6.360835582017898560e-02
-5.614774767309427261e-03
-4.540657624602317810e-02
7.205237448215484619e-02
1.380197703838348389e-01
1.829536557197570801e-01
3.770694136619567871e-02
1.186126768589019775e-01
1.078584715723991394e-01
2.358830273151397705e-01
1.946430504322052002e-01
8.247235417366027832e-02
1.768205910921096802e-01
1.548350304365158081e-01
2.586711347103118896e-01
6.610241532325744629e-02
7.206428796052932739e-02
1.440638005733489990e-01
1.171912774443626404e-01
1.809710711240768433e-01
6.997002661228179932e-02
7.597515732049942017e-02
1.196068078279495239e-01
2.427272647619247437e-01
3.060521483421325684e-01
1.367773711681365967e-01
-5.068115517497062683e-02
7.498849928379058838e-02
2.498493194580078125e-01
3.352437913417816162e-01
1.320785284042358398e-01
1.776830868038814515e-05
1.539011001586914062e-01
5.334802716970443726e-02
-4.088253527879714966e-02
-1.753447763621807098e-02
1.082068160176277161e-01
6.974487751722335815e-02
-3.358208760619163513e-02
-9.079865366220474243e-02
-6.075749173760414124e-02
-6.858865916728973389e-02
-6.517135351896286011e-02
-7.235061377286911011e-03
1.899874769151210785e-02
-2.804383635520935059e-02
-6.437700986862182617e-02
4.144443571567535400e-02
-1.284963339567184448e-01
-1.085309237241744995e-01
-1.015321444720029831e-02
-7.604219019412994385e-02
-8.731494657695293427e-03
-1.032963991165161133e-01
-6.625971198081970215e-02
-6.378991156816482544e-02
-2.235385123640298843e-03
1.327999588102102280e-02
8.273211121559143066e-02
-3.142288420349359512e-03
-4.105144739151000977e-02
-6.083730980753898621e-02
9.363137185573577881e-02
-3.346130251884460449e-02
-4.542751237750053406e-03
-5.883203819394111633e-02
-3.692778572440147400e-02
6.122186407446861267e-02
-5.517892912030220032e-02
-9.291283041238784790e-02
5.330978310666978359e-04
-4.855493083596229553e-02
9.656458348035812378e-02
-7.682088762521743774e-02
3.145228326320648193e-02
3.605645895004272461e-02
-5.292092449963092804e-03
1.060271412134170532e-01
-6.610840559005737305e-02
7.126279175281524658e-02
3.634081035852432251e-02
3.288954496383666992e-02
6.404383480548858643e-02
2.736708894371986389e-02
9.735192358493804932e-02
1.779630035161972046e-02
-7.137200236320495605e-02
-6.079005450010299683e-02
-1.202687174081802368e-01
-2.879960648715496063e-02
2.654653228819370270e-02
5.386558920145034790e-02
-7.529885321855545044e-02
-2.041213586926460266e-02
8.695615082979202271e-02
-7.461337745189666748e-02
8.298879116773605347e-02
-4.018350690603256226e-02
1.307316720485687256e-01
-3.929991647601127625e-02
-1.114062070846557617e-01
7.858636230230331421e-02
-5.887177959084510803e-02
7.787644863128662109e-02
1.939309202134609222e-02
-7.085660845041275024e-02
3.553358092904090881e-02
7.561289519071578979e-02
1.253561526536941528e-01
2.669765055179595947e-01
-1.455496549606323242e-01
-1.372401118278503418e-01
-1.490760594606399536e-01
-1.966604590415954590e-02
1.978460848331451416e-01
9.329971671104431152e-02
-7.514604832977056503e-03
-8.836548030376434326e-02
-6.074306741356849670e-02
6.563267856836318970e-02
-2.752703800797462463e-02
-7.890614122152328491e-02
-9.382633119821548462e-02
-5.574981868267059326e-02
-5.726543441414833069e-02
-4.648480936884880066e-02
-2.567829191684722900e-02
1.554940789937973022e-01
2.258518524467945099e-02
-1.477012187242507935e-01
-1.740026772022247314e-01
-3.198397532105445862e-02
3.278914391994476318e-01
3.423003852367401123e-02
-1.349690929055213928e-02
-2.451653964817523956e-02
-9.343763440847396851e-02
-1.089462544769048691e-02
5.541318561881780624e-03
-2.402745001018047333e-02
7.011257112026214600e-02
-8.605275303125381470e-02
-7.004591077566146851e-02
2.272192388772964478e-02
-8.968207240104675293e-02
-8.227998763322830200e-02
1.265984773635864258e-01
1.370127946138381958e-01
1.401076558977365494e-02
-1.899301819503307343e-02
-2.691446279641240835e-04
6.312138587236404419e-02
1.482956856489181519e-01
-8.132151514291763306e-02
-7.920408993959426880e-02
2.775534987449645996e-02
9.828247874975204468e-02
1.543525457382202148e-01
5.813603475689888000e-02
1.985444873571395874e-02
-7.709418982267379761e-02
-6.874367594718933105e-02
-1.342147290706634521e-01
-1.345116086304187775e-02
-6.338206678628921509e-02
1.442789938300848007e-02
5.854667350649833679e-02
-3.175544738769531250e-02
7.362566143274307251e-02
-1.091472432017326355e-01
-1.508608460426330566e-01
1.535132080316543579e-01
-7.916057854890823364e-02
1.584634557366371155e-02
-4.427400976419448853e-02
-5.774393677711486816e-02
1.117648556828498840e-01
-4.841267317533493042e-02
9.844770282506942749e-02
-1.199846155941486359e-02
2.456735260784626007e-02
1.642548888921737671e-01
1.139787212014198303e-01
7.109002023935317993e-02
2.917917212471365929e-03
-2.667343616485595703e-02
1.030135229229927063e-01
7.890129834413528442e-02
-6.481839716434478760e-02
8.293060213327407837e-02
-2.761188149452209473e-02
3.653808310627937317e-02
-1.172835193574428558e-02
4.391208663582801819e-02
7.776281237602233887e-02
1.119031980633735657e-01
7.961373031139373779e-02
1.177212893962860107e-01
9.571138769388198853e-03
2.325551025569438934e-02
9.576967358589172363e-02
7.674250751733779907e-02
7.452238351106643677e-02
8.376893401145935059e-02
-2.372093871235847473e-02
1.167418584227561951e-01
-4.174360632896423340e-02
-3.707413375377655029e-02
-4.542275518178939819e-02
-9.046317636966705322e-02
6.266789883375167847e-02
-7.403622567653656006e-02
-5.917304381728172302e-02
-8.557568490505218506e-02
-8.462040126323699951e-02
-2.267567254602909088e-02
-6.528001278638839722e-02
-2.806574292480945587e-02
1.983095332980155945e-02
7.465664297342300415e-02
-7.467504590749740601e-02
5.997952818870544434e-02
5.509924143552780151e-02
6.343526393175125122e-02
-5.694053694605827332e-02
-6.605418771505355835e-02
-7.440288364887237549e-02
4.670049250125885010e-02
-3.979124873876571655e-02
2.374579012393951416e-02
1.523362472653388977e-02
-7.767064124345779419e-02
5.038188397884368896e-02
-9.504650719463825226e-03
-2.723492123186588287e-02
2.799007110297679901e-02
1.578070670366287231e-01
5.634514242410659790e-02
-7.174032926559448242e-02
-1.484660431742668152e-02
-3.456393629312515259e-02
7.105737179517745972e-02
1.246178639121353626e-03
-1.563136116601526737e-03
-1.785994321107864380e-02
-5.133378133177757263e-02
6.428105384111404419e-02
-6.160401925444602966e-02
1.713055185973644257e-02
5.093402415513992310e-02
1.047824881970882416e-02
-3.570802882313728333e-02
4.744557291269302368e-02
-3.655184805393218994e-02
-7.426572591066360474e-02
2.111224830150604248e-02
-3.201558068394660950e-02
-9.370416402816772461e-02
-8.606766909360885620e-02
1.998930871486663818e-01
2.439837008714675903e-01
2.396382838487625122e-01
-5.505939573049545288e-02
-2.417116798460483551e-02
6.405613571405410767e-02
-9.529500454664230347e-02
5.020816996693611145e-02
-6.048063561320304871e-02
1.848615589551627636e-03
1.716648638248443604e-01
6.778559088706970215e-02
-1.222962792962789536e-02
-1.115820705890655518e-01
-1.449361816048622131e-02
8.505770564079284668e-02
1.993375718593597412e-01
-3.226263448596000671e-02
-8.983068168163299561e-02
-9.169144183397293091e-02
9.726654738187789917e-02
1.311868429183959961e-01
-6.341177225112915039e-02
-8.030693233013153076e-02
5.905683338642120361e-02
-5.528318509459495544e-02
-3.230663388967514038e-02
5.432315543293952942e-02
5.010263249278068542e-02
1.482265535742044449e-02
8.131770417094230652e-03
1.371293980628252029e-02
-7.333547621965408325e-02
-4.217173904180526733e-02
3.189322724938392639e-02
3.250107914209365845e-02
-4.346612468361854553e-02
1.922258175909519196e-02
-9.783827513456344604e-02
-4.636116325855255127e-02
-1.930418424308300018e-02
3.784857690334320068e-03
4.652163758873939514e-02
3.070309571921825409e-02
7.350096711888909340e-04
9.397865086793899536e-02
-3.879439458250999451e-02
-1.164960488677024841e-01
2.705769985914230347e-02
-4.513845220208168030e-02
3.734361007809638977e-02
5.865560099482536316e-02
-8.846877515316009521e-02
-3.967572376132011414e-02
4.526651650667190552e-02
-4.692269489169120789e-03
-6.845656037330627441e-02
1.870677573606371880e-03
1.885063201189041138e-02
8.193623274564743042e-02
6.105913966894149780e-02
-8.943986147642135620e-02
-3.621668741106987000e-02
-5.123161152005195618e-02
3.329644352197647095e-02
-1.003158688545227051e-01
-4.423976317048072815e-02
-9.352637082338333130e-02
4.763991385698318481e-02
2.963250316679477692e-02
2.243782579898834229e-02
3.095890209078788757e-02
-2.429080009460449219e-02
-5.467994511127471924e-02
2.001800574362277985e-02
2.632940001785755157e-02
-2.107802778482437134e-02
5.977481603622436523e-02
-1.751527190208435059e-02
-1.592513173818588257e-02
-4.969650506973266602e-02
9.717497974634170532e-02
4.227159172296524048e-02
5.926560983061790466e-02
-3.473100066184997559e-02
-4.750164598226547241e-02
7.338870316743850708e-02
6.786271929740905762e-02
1.281121186912059784e-02
1.728912442922592163e-02
2.823465503752231598e-02
-3.431745246052742004e-02
-2.056934311985969543e-02
-1.323580741882324219e-02
-1.518172398209571838e-02
6.695885956287384033e-02
-5.330545082688331604e-02
-4.813224077224731445e-02
-1.021989341825246811e-02
-1.008997261524200439e-01
-5.169036611914634705e-02
1.794787240214645863e-03
5.244763195514678955e-02
-4.740180820226669312e-02
1.556327100843191147e-03
2.167835645377635956e-02
-2.389825694262981415e-02
4.508138447999954224e-02
-6.176850199699401855e-02
-3.215047717094421387e-02
-2.331405505537986755e-02
-4.755400121212005615e-02
-6.779114715754985809e-03
1.753160543739795685e-02
-3.604044020175933838e-02
-2.977780252695083618e-02
-1.088006887584924698e-02
-1.009368374943733215e-01
-6.579952780157327652e-03
1.091393604874610901e-01
-1.830147951841354370e-02
5.430455505847930908e-02
3.043801151216030121e-02
1.499935984611511230e-02
9.174205362796783447e-02
-7.857097312808036804e-03
3.749454766511917114e-02
4.528234899044036865e-02
5.415910854935646057e-02
8.107264875434339046e-05
-7.026361674070358276e-02
-4.841774702072143555e-02
-1.912891305983066559e-02
-8.978556841611862183e-02
-6.171131506562232971e-02
-7.933749258518218994e-02
-1.036966070532798767e-01
-4.041984304785728455e-02
-8.088187873363494873e-02
-1.876924745738506317e-02
4.999349359422922134e-03
-4.634872823953628540e-02
-5.113205406814813614e-03
-6.011207774281501770e-02
-1.497821509838104248e-01
-2.498600631952285767e-02
-8.277998119592666626e-02
-3.439300134778022766e-02
-6.852370500564575195e-02
7.020708173513412476e-02
-4.603357613086700439e-02
-1.591630876064300537e-01
-6.400202959775924683e-02
2.828839421272277832e-02
-1.270853430032730103e-01
-2.781218588352203369e-01
-2.313035130500793457e-01
-1.494593769311904907e-01
1.426941156387329102e-01
-1.015361472964286804e-01
-1.125252321362495422e-01
-2.486812137067317963e-02
-5.309852957725524902e-02
-3.215359896421432495e-02
-6.734206527471542358e-02
5.679075419902801514e-02
1.046634167432785034e-01
5.095228925347328186e-02
-1.027263849973678589e-01
2.256891429424285889e-01
2.641179263591766357e-01
1.850915253162384033e-01
2.294292151927947998e-01
-2.857240103185176849e-02
-4.796075448393821716e-02
-9.573802351951599121e-02
-6.545401364564895630e-02
3.345360606908798218e-02
4.791061952710151672e-02
4.065609723329544067e-02
-5.393440276384353638e-02
-6.221659481525421143e-02
-6.569125223904848099e-03
-2.259142138063907623e-02
9.470570087432861328e-02
-1.569369994103908539e-02
3.344734432175755501e-03
4.890720546245574951e-02
3.988437727093696594e-02
1.487886309623718262e-01
1.519764214754104614e-01
8.583664149045944214e-02
7.538755238056182861e-02
-8.867916651070117950e-03
3.545844554901123047e-01
2.255158126354217529e-01
3.400304913520812988e-01
1.572432518005371094e-01
2.357622608542442322e-02
-2.134182490408420563e-02
3.553957119584083557e-02
-2.407184988260269165e-02
4.391568526625633240e-02
-4.811327531933784485e-02
2.962115965783596039e-02
-1.354815661907196045e-01
-1.310813724994659424e-01
1.067803334444761276e-02
-5.138370394706726074e-02
-9.071552008390426636e-02
-7.399546355009078979e-02
-1.511919051408767700e-01
-4.327135160565376282e-02
1.164129003882408142e-02
2.788227982819080353e-02
-5.781605467200279236e-02
-5.174912512302398682e-02
-1.015937849879264832e-01
2.318260632455348969e-02
7.177837938070297241e-02
-1.635844260454177856e-01
-2.487562224268913269e-02
-1.397048383951187134e-01
-6.965594738721847534e-02
8.221732825040817261e-02
1.184662580490112305e-01
2.026711590588092804e-02
2.188789891079068184e-03
-7.124759256839752197e-03
1.520987972617149353e-02
3.291456401348114014e-02
-4.587399959564208984e-02
-2.171903476119041443e-02
5.343503504991531372e-02
4.833493754267692566e-02
1.290569826960563660e-02
5.830210074782371521e-02
-7.349333167076110840e-02
-9.572491049766540527e-03
-2.325630187988281250e-02
9.570743143558502197e-02
-3.488216921687126160e-02
4.755163192749023438e-02
-4.603962972760200500e-02
1.041109412908554077e-01
-4.383448511362075806e-02
2.909992123022675514e-03
-6.273698061704635620e-02
-7.947605848312377930e-02
-7.014004886150360107e-02
-2.150511927902698517e-02
7.500223070383071899e-02
6.265112757682800293e-02
-3.334476053714752197e-02
-4.077513515949249268e-02
8.323222398757934570e-02
7.638623565435409546e-02
-6.235026195645332336e-02
-5.359509028494358063e-03
-6.893987208604812622e-02
6.672061979770660400e-02
-4.302933439612388611e-02
6.565848737955093384e-02
2.195397391915321350e-03
-2.483722195029258728e-02
-5.099492147564888000e-02
5.252971872687339783e-02
-4.390479251742362976e-02
5.060802400112152100e-02
1.106542628258466721e-02
4.421832785010337830e-02
-4.630965366959571838e-02
-2.359007485210895538e-02
-2.506432309746742249e-02
7.713250070810317993e-02
3.768277168273925781e-02
-5.554671585559844971e-02
1.227585412561893463e-02
2.963576838374137878e-02
7.581346482038497925e-02
-1.598786748945713043e-02
-5.870903655886650085e-02
-6.890161335468292236e-02
7.008437067270278931e-03
-5.691229552030563354e-02
-6.316308677196502686e-02
-1.261840909719467163e-01
7.293875515460968018e-02
-3.388190641999244690e-02
-6.685207784175872803e-02
-2.141749300062656403e-02
-3.749080747365951538e-02
2.184137236326932907e-03
6.737067550420761108e-02
-2.155352197587490082e-02
1.247048936784267426e-02
-8.943845517933368683e-03
2.331414725631475449e-03
-4.849832132458686829e-02
-1.442667543888092041e-01
-1.806056350469589233e-01
-2.463026195764541626e-01
-1.822233647108078003e-01
-1.272610723972320557e-01
1.523738205432891846e-01
-7.616212218999862671e-02
-9.792260825634002686e-02
3.302282840013504028e-02
-7.713709026575088501e-02
1.211785823106765747e-01
1.439387351274490356e-02
4.874284565448760986e-02
3.204199671745300293e-02
-1.398647762835025787e-02
1.173954829573631287e-01
1.253523677587509155e-01
4.348274692893028259e-02
3.775630146265029907e-02
-1.082387119531631470e-01
1.242217887192964554e-02
1.193470731377601624e-01
7.522845268249511719e-02
4.034405946731567383e-02
-5.194506794214248657e-02
2.602882683277130127e-02
-1.064221374690532684e-02
7.785958051681518555e-02
-2.328448928892612457e-02
5.217908322811126709e-02
2.251728624105453491e-02
3.846101835370063782e-02
6.314248777925968170e-03
1.151215285062789917e-02
6.223643571138381958e-02
-4.205919057130813599e-02
1.127626970410346985e-01
8.201564662158489227e-03
-1.816530339419841766e-02
-6.664546579122543335e-02
5.740445107221603394e-02
6.959852576255798340e-02
5.176712945103645325e-02
9.372337162494659424e-02
-4.898660816252231598e-03
9.097609668970108032e-02
-2.568506076931953430e-02
5.128032341599464417e-02
6.273582577705383301e-02
-7.926195114850997925e-02
2.483011782169342041e-02
1.800881139934062958e-02
1.705286465585231781e-02
-4.572092369198799133e-02
-3.677086532115936279e-02
-3.955902066081762314e-03
-5.058080703020095825e-02
-6.449358910322189331e-02
-6.988643109798431396e-02
-1.137008797377347946e-02
8.494846522808074951e-02
-8.310925215482711792e-02
8.073207736015319824e-02
5.044568702578544617e-02
6.759888678789138794e-02
-1.736205740598961711e-04
5.287877097725868225e-02
-7.939175516366958618e-02
-5.387710779905319214e-02
4.198660701513290405e-02
7.543288916349411011e-02
-6.844780594110488892e-02
5.179164931178092957e-02
-5.666233599185943604e-02
3.651139792054891586e-03
-1.584400050342082977e-02
7.532180100679397583e-02
6.179015710949897766e-02
1.105423569679260254e-01
1.023628190159797668e-02
1.760424301028251648e-02
-9.904759936034679413e-03
-6.353979557752609253e-02
1.016035489737987518e-02
-1.021094992756843567e-01
6.057761982083320618e-02
-4.118542710784822702e-04
-7.153723388910293579e-02
-8.002590388059616089e-02
-4.572831839323043823e-02
-3.149902448058128357e-02
2.114676311612129211e-02
-3.462375700473785400e-02
-3.958735615015029907e-02
-6.537374109029769897e-02
-5.463441461324691772e-02
1.858239993453025818e-03
3.672941401600837708e-02
-2.005477808415889740e-02
3.969680890440940857e-02
5.808228743262588978e-04
-8.602278679609298706e-02
2.499493770301342010e-02
7.359012216329574585e-02
-2.881279448047280312e-03
-1.009222934953868389e-03
-5.501622334122657776e-03
4.457261878997087479e-03
-1.061491901054978371e-03
3.690897673368453979e-02
6.386172771453857422e-02
1.719161681830883026e-02
-4.412315785884857178e-02
-3.614149987697601318e-03
4.841290414333343506e-02
-5.364855006337165833e-02
5.926876142621040344e-02
8.620636910200119019e-02
2.094435505568981171e-02
-3.420570492744445801e-02
-1.760612055659294128e-02
-7.383398711681365967e-03
-7.186042610555887222e-03
4.253214225172996521e-02
-5.847261846065521240e-02
5.096704140305519104e-02
1.778138242661952972e-02
1.113591933972202241e-04
-2.753713726997375488e-02
3.678369522094726562e-02
1.358093470335006714e-01
-7.070763409137725830e-02
1.548151578754186630e-02
1.486097089946269989e-02
6.236713379621505737e-02
1.599903777241706848e-02
-6.957135349512100220e-02
7.705450803041458130e-02
1.664874888956546783e-02
-3.659199178218841553e-02
7.327706366777420044e-02
-1.077884528785943985e-02
-5.974604934453964233e-02
4.570200294256210327e-02
-4.387255012989044189e-02
5.803811550140380859e-02
-1.376382354646921158e-02
2.317785471677780151e-02
-2.400832483544945717e-03
-2.195807546377182007e-02
-2.986646816134452820e-02
-6.966084241867065430e-02
9.778873622417449951e-02
8.670916408300399780e-02
-1.150666575995273888e-04
-4.792505502700805664e-02
-8.800449222326278687e-02
2.058828063309192657e-02
-3.934795036911964417e-02
3.770031407475471497e-02
-6.602925062179565430e-02
-6.722989678382873535e-02
-9.228410571813583374e-02
2.530977502465248108e-02
2.163137495517730713e-02
-2.283444255590438843e-01
-2.453718334436416626e-01
3.260197117924690247e-02
3.331157565116882324e-02
3.127672970294952393e-01
-6.753242015838623047e-02
-1.596940308809280396e-01
4.443725571036338806e-02
1.569633185863494873e-01
2.210963070392608643e-01
2.142330631613731384e-02
-9.338628500699996948e-03
8.419109135866165161e-02
8.498056232929229736e-02
4.193035513162612915e-02
-4.964096937328577042e-03
-8.034823834896087646e-02
2.877882495522499084e-02
-7.779546827077865601e-02
6.979962438344955444e-02
-7.702189683914184570e-02
-1.041422933340072632e-01
7.155057042837142944e-02
5.190622434020042419e-02
5.832582339644432068e-02
-7.871639728546142578e-02
-7.185171544551849365e-02
7.894761115312576294e-02
1.182859539985656738e-01
6.639976799488067627e-02
-5.916540394537150860e-04
-7.569231837987899780e-02
-9.683204442262649536e-02
9.209240972995758057e-02
1.886882334947586060e-01
-7.643681764602661133e-02
6.011622026562690735e-02
-1.036051101982593536e-02
-5.128075927495956421e-02
-5.326588451862335205e-02
-4.383264854550361633e-02
-3.761470690369606018e-02
-1.395916193723678589e-02
5.903517454862594604e-02
6.537702679634094238e-02
8.380701765418052673e-03
2.435353025794029236e-02
4.684757150243967772e-04
4.464023187756538391e-02
3.556930646300315857e-02
-1.033169329166412354e-01
-4.616177082061767578e-02
3.080651350319385529e-02
7.437744736671447754e-02
2.058390527963638306e-02
-1.271017193794250488e-01
-4.547556489706039429e-02
-3.075342625379562378e-02
7.894814759492874146e-02
-1.734571345150470734e-02
-2.026188449235633016e-04
1.003151107579469681e-02
-1.213386803865432739e-01
-1.051805168390274048e-01
-5.901119112968444824e-02
-1.856892369687557220e-03
8.585445582866668701e-02
-7.968604913912713528e-04
-1.338889170438051224e-02
3.384426608681678772e-02
8.632256835699081421e-02
2.198794856667518616e-02
1.247993670403957367e-02
-6.586106028407812119e-04
-6.431369483470916748e-02
3.145044296979904175e-02
-8.946119807660579681e-03
4.253313690423965454e-02
2.295676805078983307e-02
5.133193731307983398e-02
1.154249981045722961e-01
7.947502285242080688e-02
-8.994820527732372284e-03
2.922946028411388397e-02
-1.999247074127197266e-02
1.831130497157573700e-02
8.895100653171539307e-02
-5.478440597653388977e-02
-7.266234606504440308e-02
-1.525052450597286224e-02
5.270136520266532898e-03
-4.528346657752990723e-02
1.044338867068290710e-01
3.503451868891716003e-02
-1.562815904617309570e-02
1.308304965496063232e-01
-1.970678009092807770e-02
1.183963418006896973e-01
-4.259631037712097168e-02
-5.887157842516899109e-02
6.666548550128936768e-02
-3.560208901762962341e-02
6.029821559786796570e-02
1.490676309913396835e-02
-1.769931800663471222e-02
8.966485410928726196e-02
-2.962640859186649323e-02
1.434685476124286652e-02
-2.498165518045425415e-02
-1.091511547565460205e-01
6.202372908592224121e-02
2.693047821521759033e-01
-6.173714995384216309e-02
-1.718204915523529053e-01
-7.206149399280548096e-02
-9.039108455181121826e-02
1.447949409484863281e-01
1.118057034909725189e-02
-4.380400106310844421e-02
-1.387928496114909649e-03
8.928349614143371582e-02
1.386741101741790771e-01
1.166952103376388550e-01
-3.373985737562179565e-02
9.337025880813598633e-02
-4.518716409802436829e-02
1.489368081092834473e-01
1.116633564233779907e-01
-7.293493300676345825e-02
-3.398872911930084229e-02
7.391986250877380371e-02
2.053398340940475464e-01
8.510290831327438354e-02
-7.965760678052902222e-02
-3.785753995180130005e-02
1.705987006425857544e-01
-2.531025186181068420e-02
-1.566616147756576538e-01
1.316516995429992676e-01
4.917605966329574585e-02
4.302566498517990112e-02
-9.722281992435455322e-02
-5.091063678264617920e-02
1.521452963352203369e-01
-7.302434742450714111e-02
5.721280351281166077e-02
1.091755628585815430e-01
-8.011045306921005249e-02
6.639371812343597412e-02
-4.400834441184997559e-04
6.162036582827568054e-02
1.748091876506805420e-01
-1.598132550716400146e-01
2.821619273163378239e-04
-4.550274834036827087e-02
9.083467721939086914e-02
1.003209725022315979e-01
-3.668084368109703064e-02
-9.279850870370864868e-02
-2.355265058577060699e-02
2.155140787363052368e-02
-4.749087244272232056e-02
7.266794331371784210e-03
-5.696484073996543884e-02
-7.458919286727905273e-02
-1.245692893862724304e-01
1.056371722370386124e-02
1.588536240160465240e-02
-1.987520791590213776e-02
9.199405089020729065e-03
6.752621382474899292e-02
5.509830266237258911e-02
-2.757763862609863281e-02
-2.509725745767354965e-03
-3.960815072059631348e-02
6.018723174929618835e-02
-6.993799656629562378e-02
-6.189822778105735779e-02
-5.362018942832946777e-02
-9.634349495172500610e-02
7.860928773880004883e-02
-6.538385525345802307e-03
1.693231053650379181e-02
-1.063368320465087891e-01
-8.237060159444808960e-02
4.837006703019142151e-02
-1.865118741989135742e-02
1.326965391635894775e-01
-8.779390156269073486e-02
-3.388626500964164734e-02
5.597036704421043396e-02
1.589193493127822876e-01
5.884874984622001648e-02
4.515389353036880493e-02
-9.423592127859592438e-03
9.930436313152313232e-02
1.691242903470993042e-01
3.314817696809768677e-02
1.329730153083801270e-01
7.136869430541992188e-02
7.236061245203018188e-02
6.188324093818664551e-02
1.469610482454299927e-01
-3.536586835980415344e-02
4.790840297937393188e-02
1.173152253031730652e-01
1.352383643388748169e-01
1.627447754144668579e-01
1.392895448952913284e-02
-1.597940362989902496e-02
-4.313615709543228149e-02
2.586551383137702942e-02
7.585251331329345703e-02
4.263750091195106506e-02
-1.367433555424213409e-02
-1.608124375343322754e-02
3.084963187575340271e-02
4.995699599385261536e-02
5.635367706418037415e-02
-9.159608185291290283e-02
-2.662039920687675476e-02
1.241916194558143616e-01
9.238595515489578247e-02
4.008812829852104187e-02
-5.313267465680837631e-03
-7.986168377101421356e-03
6.507777422666549683e-02
-2.235220558941364288e-02
-3.627821058034896851e-02
5.909820646047592163e-02
-6.896664202213287354e-02
-5.189196765422821045e-02
-9.745426476001739502e-03
-3.757828101515769958e-02
-3.350310027599334717e-02
-1.141734793782234192e-01
-8.480267971754074097e-02
3.794037923216819763e-02
1.654050871729850769e-02
5.251485854387283325e-02
-7.946439832448959351e-02
7.741727400571107864e-03
-8.823004551231861115e-03
6.231610104441642761e-02
9.919302165508270264e-02
-9.815930575132369995e-02
1.209410838782787323e-03
-4.602610692381858826e-02
-1.078407466411590576e-02
5.175755172967910767e-02
2.044035308063030243e-02
2.057052403688430786e-02
1.593879237771034241e-02
3.475469350814819336e-02
-6.449268013238906860e-02
-7.576803863048553467e-02
-3.839810378849506378e-04
1.159760449081659317e-02
8.272393047809600830e-02
-1.050382107496261597e-02
-1.430524885654449463e-01
3.200452029705047607e-02
1.728010326623916626e-01
1.324434429407119751e-01
1.483155190944671631e-01
4.029480740427970886e-02
-2.916533127427101135e-02
7.608291506767272949e-02
-1.152566522359848022e-01
7.542710006237030029e-02
-7.030732929706573486e-02
-7.260423898696899414e-02
-9.561283141374588013e-02
-1.023483872413635254e-01
-5.291723646223545074e-03
-8.850095421075820923e-02
4.150517750531435013e-03
-1.053653210401535034e-01
-1.384032219648361206e-01
-1.114026010036468506e-01
6.892991811037063599e-02
-1.203362643718719482e-01
-1.346032172441482544e-01
-3.499404340982437134e-02
-1.686825975775718689e-02
-4.676338657736778259e-02
2.668909728527069092e-01
3.407845795154571533e-01
-1.796724796295166016e-01
-3.001241087913513184e-01
6.494555622339248657e-02
-1.175775080919265747e-01
-2.142969965934753418e-01
-1.871027797460556030e-01
-8.787910453975200653e-03
-2.392143383622169495e-02
4.711237177252769470e-02
-7.100394368171691895e-02
-8.008097857236862183e-02
1.363041400909423828e-01
-4.652967327274382114e-04
3.975563496351242065e-02
3.989801183342933655e-02
8.829519897699356079e-02
1.575796008110046387e-01
1.230285763740539551e-01
2.490563876926898956e-02
1.310694813728332520e-01
1.838883310556411743e-01
1.903251707553863525e-01
-7.615719735622406006e-02
-2.559555135667324066e-02
-1.255623102188110352e-01
-7.074685394763946533e-02
4.608308151364326477e-02
-8.724457025527954102e-02
4.551290348172187805e-02
8.112556487321853638e-02
-3.151514753699302673e-02
-1.399023551493883133e-02
2.411681227385997772e-02
1.988563872873783112e-02
1.022896617650985718e-01
8.393646776676177979e-02
-5.586815997958183289e-03
-6.901258230209350586e-02
-4.836583882570266724e-02
3.470140323042869568e-02
5.060382187366485596e-02
3.376653417944908142e-02
-8.035208284854888916e-02
6.381517648696899414e-02
2.139251828193664551e-01
2.613185048103332520e-01
1.004262343049049377e-01
7.203968614339828491e-02
5.083375796675682068e-02
-8.526055514812469482e-02
-1.482421904802322388e-01
2.470839209854602814e-02
-2.193227224051952362e-02
-5.107922106981277466e-02
-5.318935960531234741e-02
2.944639697670936584e-02
-2.498449571430683136e-02
3.828085586428642273e-02
-1.426536440849304199e-01
-8.811257034540176392e-02
-1.633333116769790649e-01
-1.240901835262775421e-02
4.858895391225814819e-02
-1.590732783079147339e-01
-1.438712030649185181e-01
-1.336507201194763184e-01
-3.192453831434249878e-02
-6.507839262485504150e-02
-2.162728272378444672e-02
-9.247604012489318848e-02
-6.964650750160217285e-02
-5.264469236135482788e-02
-5.273001641035079956e-02
-1.330612003803253174e-01
-8.608500659465789795e-02
-3.505718708038330078e-02
5.125179886817932129e-02
7.462602108716964722e-02
7.957209646701812744e-02
8.208747953176498413e-02
1.031055748462677002e-01
7.100041257217526436e-04
8.085839450359344482e-02
-4.970850795507431030e-02
1.053907200694084167e-01
4.400556161999702454e-02
2.925309166312217712e-02
1.658233255147933960e-02
6.884262710809707642e-02
-3.973496705293655396e-02
4.515547677874565125e-02
2.085118740797042847e-02
8.958277106285095215e-02
-1.671906374394893646e-02
7.405924797058105469e-02
3.585970029234886169e-02
-7.655830681324005127e-02
-1.862623728811740875e-02
2.709513343870639801e-02
1.048754453659057617e-01
-9.614798426628112793e-02
1.054428741335868835e-01
-6.655879318714141846e-02
4.199618473649024963e-02
4.686325415968894958e-02
2.548922225832939148e-02
-1.802118308842182159e-02
2.533242478966712952e-02
-5.502479895949363708e-02
1.302581578493118286e-01
5.877275764942169189e-02
8.786093443632125854e-03
-1.896905596368014812e-03
-2.534098550677299500e-02
3.916455432772636414e-02
-6.014657393097877502e-02
6.475789844989776611e-02
6.980390101671218872e-02
3.486244380474090576e-02
5.110379680991172791e-02
-6.864503771066665649e-02
6.723592430353164673e-02
9.297570586204528809e-02
-2.851185016334056854e-02
5.208079144358634949e-02
1.142168045043945312e-01
-1.849217526614665985e-02
-3.228062763810157776e-02
-1.074630487710237503e-02
-5.059895291924476624e-02
1.219719946384429932e-01
-2.765543758869171143e-02
-3.879110515117645264e-02
5.225221067667007446e-02
6.446232646703720093e-02
8.705227635800838470e-03
8.558450639247894287e-02
-5.462239682674407959e-02
-3.168030083179473877e-02
-4.475242272019386292e-02
-4.067542031407356262e-02
6.628668308258056641e-02
7.180739776231348515e-04
-4.603621084243059158e-03
3.085706196725368500e-02
3.403779119253158569e-02
1.143683567643165588e-01
-6.069034337997436523e-02
-1.442169994115829468e-01
-1.385401352308690548e-03
9.228543937206268311e-02
-2.618662714958190918e-01
-2.670803852379322052e-02
-4.611423239111900330e-02
8.246940374374389648e-02
-4.340682353358715773e-04
-1.232798323035240173e-01
3.522109240293502808e-02
-4.673930257558822632e-02
1.113341227173805237e-01
1.729628443717956543e-02
7.185946404933929443e-02
2.673578262329101562e-02
9.726346284151077271e-02
6.361810863018035889e-02
5.118640139698982239e-03
-1.191325578838586807e-02
1.052242517471313477e-01
1.541064307093620300e-02
-2.119417488574981689e-02
-2.864471822977066040e-02
-6.385805457830429077e-02
-2.996396273374557495e-02
3.170657902956008911e-03
4.840220883488655090e-02
9.412147104740142822e-02
3.170166909694671631e-02
-2.608954347670078278e-02
-1.466466858983039856e-02
-3.372301533818244934e-02
1.079919263720512390e-01
-1.187738031148910522e-02
-4.903487488627433777e-02
3.989605698734521866e-03
2.689713425934314728e-02
1.169564668089151382e-02
8.111375570297241211e-02
5.255357176065444946e-02
-4.777601361274719238e-02
-6.628103554248809814e-02
-8.809282444417476654e-03
1.479213312268257141e-02
4.548742994666099548e-02
2.456539124250411987e-02
-5.994741618633270264e-02
8.188372477889060974e-03
8.113750070333480835e-02
-4.640623927116394043e-02
-6.376446038484573364e-02
3.750778362154960632e-02
1.473681926727294922e-01
3.879176825284957886e-02
-4.020384978502988815e-03
-5.782321095466613770e-03
2.899343147873878479e-02
4.304063320159912109e-02
-3.638097643852233887e-02
-6.159282755106687546e-03
-1.059520319104194641e-01
-4.269078746438026428e-02
1.505526900291442871e-01
3.302124515175819397e-02
-3.619857877492904663e-02
-4.175255820155143738e-02
2.088767662644386292e-02
2.061489373445510864e-01
-3.158365935087203979e-02
7.800634484738111496e-03
-3.699586540460586548e-02
-3.717378899455070496e-02
2.657625377178192139e-01
-9.747612290084362030e-03
5.758828669786453247e-02
1.301629245281219482e-01
3.159218654036521912e-02
1.619315296411514282e-01
3.338307514786720276e-02
1.113915722817182541e-02
2.557351812720298767e-02
3.221754357218742371e-02
-2.432520128786563873e-02
1.031306982040405273e-01
5.871104076504707336e-02
1.013934910297393799e-01
-3.504404425621032715e-02
-2.849791012704372406e-02
-9.345256723463535309e-03
3.936621360480785370e-03
-8.847180753946304321e-02
-8.203365653753280640e-02
-8.117754757404327393e-02
1.275872718542814255e-02
3.685034066438674927e-02
-2.297582849860191345e-02
-2.228750102221965790e-02
-1.194732636213302612e-01
-3.362188860774040222e-02
-8.167725056409835815e-02
-2.231998927891254425e-02
1.299551874399185181e-01
1.671536825597286224e-02
2.685429342091083527e-02
5.052844807505607605e-02
-2.888702042400836945e-02
-3.035717457532882690e-02
-2.539674565196037292e-02
6.296142935752868652e-02
-2.372965775430202484e-02
-1.272883638739585876e-02
3.202487900853157043e-02
-7.474187761545181274e-02
-2.158791758120059967e-02
-3.170301765203475952e-02
1.868919283151626587e-02
-4.740406293421983719e-03
3.415502235293388367e-02
5.734037235379219055e-02
7.011913508176803589e-02
1.027548313140869141e-01
-8.206415921449661255e-03
1.575178653001785278e-02
5.859395489096641541e-02
-1.103840619325637817e-01
5.737204477190971375e-02
1.548237167298793793e-02
5.046849325299263000e-02
-1.239778250455856323e-01
-9.921246208250522614e-03
1.129435896873474121e-01
1.578407734632492065e-02
-4.468505457043647766e-02
-5.785131826996803284e-02
-3.665706887841224670e-02
-5.129547789692878723e-03
2.358584105968475342e-02
-8.048716932535171509e-02
-5.440272507257759571e-04
-1.257730275392532349e-01
9.173817187547683716e-02
8.806044934317469597e-04
-5.486028385348618031e-04
3.712168335914611816e-02
-4.809892922639846802e-02
1.184795796871185303e-01
-6.923786830157041550e-03
2.744354307651519775e-02
2.884004823863506317e-02
-1.149994954466819763e-01
1.133778318762779236e-02
-1.933837980031967163e-01
-1.730161160230636597e-01
6.779617071151733398e-02
3.214634209871292114e-02
1.035252958536148071e-01
-5.967188253998756409e-02
1.488658189773559570e-01
3.547370433807373047e-01
-1.311245746910572052e-02
2.920128591358661652e-02
-8.785919845104217529e-02
-4.499514028429985046e-02
2.465644180774688721e-01
-1.543815061450004578e-02
3.675508126616477966e-02
-1.725451797246932983e-01
-2.744080498814582825e-02
-2.322770422324538231e-03
1.752361282706260681e-02
3.279207646846771240e-02
-1.441546231508255005e-01
8.508981019258499146e-02
6.305747479200363159e-02
4.930385202169418335e-02
2.241067774593830109e-02
2.515796944499015808e-02
3.128474950790405273e-02
5.373637750744819641e-02
-1.774047873914241791e-02
-6.070247665047645569e-02
-9.060834348201751709e-02
7.814143598079681396e-02
8.667829632759094238e-02
-8.214671909809112549e-02
-8.190894126892089844e-02
-5.466980859637260437e-02
1.717140153050422668e-02
5.927165225148200989e-02
9.868131577968597412e-02
-8.579896762967109680e-03
7.978832349181175232e-03
-5.090112984180450439e-02
-5.569763109087944031e-02
-1.167492195963859558e-02
9.349549561738967896e-02
1.528832409530878067e-02
-4.075996950268745422e-02
-2.263283915817737579e-02
2.779784426093101501e-02
7.755358237773180008e-03
-6.680702790617942810e-03
8.531399071216583252e-02
5.570002831518650055e-03
-6.421315670013427734e-02
1.300926506519317627e-02
9.927552938461303711e-02
2.052385360002517700e-01
2.321172319352626801e-02
-8.202311396598815918e-02
7.716648280620574951e-02
1.213573887944221497e-01
1.561893224716186523e-01
1.217013150453567505e-01
2.867224067449569702e-02
1.287147700786590576e-01
-2.146049402654170990e-02
9.160626679658889771e-02
1.550946966744959354e-03
7.934188097715377808e-02
1.490267664194107056e-01
1.276504900306463242e-02
4.365327581763267517e-02
9.896950423717498779e-02
-5.730780959129333496e-02
3.952027857303619385e-02
-7.111306302249431610e-03
6.672909110784530640e-02
1.980157382786273956e-02
-2.111542038619518280e-02
-2.815030515193939209e-02
-1.030424423515796661e-02
-6.781134754419326782e-02
-7.344157248735427856e-02
-3.445392102003097534e-02
1.243669888935983181e-03
2.328833565115928650e-02
-5.382266640663146973e-02
2.792049199342727661e-02
-7.358025759458541870e-02
6.119578331708908081e-02
2.151657454669475555e-02
-3.297818452119827271e-02
-4.150932282209396362e-02
7.569874078035354614e-02
-4.745752736926078796e-02
6.663857400417327881e-02
-3.060118295252323151e-02
6.152492016553878784e-02
5.322428420186042786e-03
2.736728452146053314e-02
9.766596555709838867e-02
-2.590583264827728271e-02
8.999709039926528931e-02
2.409443445503711700e-02
-1.829410530626773834e-02
4.492763057351112366e-02
-3.213987499475479126e-02
-9.424904361367225647e-03
3.139415290206670761e-03
-5.513849481940269470e-02
-6.281828507781028748e-03
1.407567877322435379e-02
2.696915157139301300e-02
5.109166353940963745e-02
5.775781348347663879e-02
-9.324754774570465088e-02
6.184016168117523193e-02
-2.271186560392379761e-02
5.056829378008842468e-02
-6.675099581480026245e-02
-1.496027596294879913e-02
5.729375034570693970e-02
2.780695259571075439e-02
7.489428389817476273e-03
1.242515631020069122e-02
9.105481207370758057e-02
1.152969822287559509e-01
4.869156703352928162e-02
-7.249907404184341431e-02
1.306208521127700806e-01
4.946688190102577209e-02
1.106171905994415283e-01
8.062803000211715698e-02
1.327234413474798203e-02
-2.982004918158054352e-02
1.732755266129970551e-02
9.372746944427490234e-02
6.958436220884323120e-02
6.592606753110885620e-02
-4.769829288125038147e-02
-1.440315786749124527e-02
6.495288014411926270e-02
1.111587882041931152e-01
3.656464070081710815e-02
-3.352918103337287903e-02
-8.931097388267517090e-02
1.835291832685470581e-02
9.613765776157379150e-02
1.428761035203933716e-01
3.480325639247894287e-01
7.641519606113433838e-02
-1.074673309922218323e-01
-6.783166527748107910e-02
2.604956924915313721e-01
2.081627696752548218e-01
-1.119361538439989090e-02
-8.206278830766677856e-02
-2.905929926782846451e-03
1.365713477134704590e-01
3.808886976912617683e-03
-3.379647806286811829e-02
9.477423876523971558e-02
1.778556704521179199e-01
-1.942999809980392456e-01
-2.759186029434204102e-01
-5.583100020885467529e-02
1.028029993176460266e-01
-2.559840306639671326e-02
-3.073826432228088379e-01
-2.639024853706359863e-01
-9.106973558664321899e-02
-2.374844439327716827e-02
-9.944114834070205688e-02
-2.303595421835780144e-03
1.574296876788139343e-02
1.328120566904544830e-02
-5.595554411411285400e-02
2.852355316281318665e-02
1.116311922669410706e-02
9.437400102615356445e-02
-9.233891032636165619e-03
1.092986464500427246e-01
2.664153091609477997e-02
-1.436789929866790771e-01
-2.116438746452331543e-02
7.119897007942199707e-02
-4.277597181499004364e-03
2.625733241438865662e-02
-4.839541763067245483e-02
-1.532988548278808594e-01
3.205893561244010925e-02
4.850108548998832703e-02
4.594768956303596497e-02
2.549490891396999359e-02
-6.736791133880615234e-02
9.325289167463779449e-03
3.908000071533024311e-04
-5.831659957766532898e-02
3.487866371870040894e-02
-5.938021000474691391e-03
4.948997870087623596e-03
-4.502817988395690918e-02
-8.045789599418640137e-02
1.879363507032394409e-02
-2.406912110745906830e-02
7.957614213228225708e-02
-1.349273696541786194e-02
3.719570487737655640e-02
3.573654219508171082e-02
8.476240932941436768e-02
-3.328534588217735291e-02
-6.664519757032394409e-02
6.732422858476638794e-02
-2.840402722358703613e-02
-7.421359885483980179e-03
3.970819339156150818e-02
-9.179698303341865540e-03
1.571069099009037018e-02
-6.667964905500411987e-02
1.144993230700492859e-01
-3.022029437124729156e-02
-4.355430603027343750e-03
1.023059338331222534e-01
2.390705235302448273e-02
-7.309554517269134521e-02
6.589855253696441650e-02
4.897146299481391907e-02
1.131976917386054993e-01
-6.751932203769683838e-02
-8.786329627037048340e-02
-8.938981592655181885e-02
6.595949828624725342e-02
-3.304376453161239624e-02
-7.886981219053268433e-02
-7.439681142568588257e-02
-8.193615823984146118e-02
-7.522087544202804565e-02
-3.027951717376708984e-02
-8.310592733323574066e-03
5.738543719053268433e-02
-1.546239387243986130e-02
-1.128897257149219513e-02
-4.845669120550155640e-02
2.908176369965076447e-02
8.269900083541870117e-02
-5.658261850476264954e-02
2.574735321104526520e-02
2.671337872743606567e-02
-5.150597169995307922e-02
7.197066396474838257e-02
5.338227003812789917e-02
-4.954027384519577026e-02
2.289130166172981262e-02
2.782821655273437500e-02
-5.670819059014320374e-02
2.685355208814144135e-02
-5.995131656527519226e-02
-3.448266908526420593e-02
-9.903997927904129028e-02
-5.557837709784507751e-02
1.745269261300563812e-02
-6.882234662771224976e-02
-2.051875367760658264e-02
7.006414979696273804e-02
9.102749824523925781e-02
4.966022074222564697e-02
6.246016547083854675e-02
-8.599653095006942749e-02
-4.639893397688865662e-02
5.748207122087478638e-02
-5.740102007985115051e-02
7.767753303050994873e-02
4.398655518889427185e-02
-9.335261583328247070e-02
2.229879610240459442e-02
-7.152479887008666992e-02
-1.438529975712299347e-02
9.006642736494541168e-03
6.706626713275909424e-02
-4.058851045556366444e-04
-2.871151641011238098e-02
8.953352272510528564e-02
-7.692600786685943604e-02
2.181790024042129517e-02
3.736958652734756470e-02
4.773338511586189270e-02
6.857204716652631760e-03
-2.322730608284473419e-02
-2.105219289660453796e-02
-1.361125893890857697e-02
1.584440353326499462e-03
5.237921327352523804e-02
-1.207651421427726746e-01
-3.360322490334510803e-02
-1.432674285024404526e-02
-9.673277288675308228e-02
-4.544346034526824951e-02
-1.049075499176979065e-01
-1.532855778932571411e-01
2.000160515308380127e-01
2.587127685546875000e-01
2.555882930755615234e-01
-1.406571567058563232e-01
-2.309466898441314697e-01
1.166519299149513245e-01
9.702916443347930908e-02
2.861181795597076416e-01
6.906551867723464966e-02
-8.586499094963073730e-02
-8.510099351406097412e-02
-4.055231809616088867e-02
7.783864438533782959e-02
5.279024317860603333e-02
-6.308278441429138184e-02
-1.402662135660648346e-03
-2.967421710491180420e-02
9.513216465711593628e-02
2.678969874978065491e-02
-1.257633417844772339e-01
2.904977463185787201e-02
-6.816225498914718628e-02
1.839586347341537476e-01
-3.721852973103523254e-02
-6.144326180219650269e-02
5.957355350255966187e-02
5.783048644661903381e-02
7.937244325876235962e-02
1.449212431907653809e-02
-2.050078846514225006e-02
5.362185090780258179e-02
2.457743324339389801e-02
1.376820206642150879e-01
-1.739909313619136810e-02
-9.592123329639434814e-02
3.281678259372711182e-02
-4.255981743335723877e-02
4.608600959181785583e-02
2.957000210881233215e-02
-9.320009499788284302e-02
-3.846140950918197632e-02
5.510732159018516541e-02
-6.789028178900480270e-03
-5.506259622052311897e-04
-1.743395067751407623e-02
1.666364260017871857e-03
1.598281115293502808e-01
2.085511684417724609e-01
1.801051646471023560e-01
1.673850864171981812e-01
1.116601228713989258e-01
2.707629464566707611e-02
-2.756189554929733276e-02
-1.081762164831161499e-01
7.109060138463973999e-02
1.310520768165588379e-01
6.474270671606063843e-02
6.160705909132957458e-02
-3.488284349441528320e-02
3.352053090929985046e-02
4.659314081072807312e-02
-1.755134575068950653e-02
-4.646429419517517090e-02
-5.443682149052619934e-02
-1.943308487534523010e-02
-4.763631522655487061e-02
-2.015163190662860870e-02
1.801307685673236847e-02
4.437071329448372126e-04
5.627523735165596008e-02
-8.541198074817657471e-02
-8.940107375383377075e-02
1.904367702081799507e-03
-6.846123933792114258e-02
-4.697570577263832092e-02
-8.076954632997512817e-02
-1.607013121247291565e-02
3.502825973555445671e-03
8.592288941144943237e-02
4.403683356940746307e-03
-4.888993874192237854e-02
8.149090223014354706e-03
4.424494132399559021e-02
5.905386805534362793e-02
5.487274378538131714e-02
9.704329073429107666e-02
5.967708304524421692e-03
-6.559832394123077393e-02
-4.972938448190689087e-02
3.540456295013427734e-02
5.872916430234909058e-02
-5.316306371241807938e-03
-7.336515188217163086e-02
-8.724050596356391907e-03
-3.186544775962829590e-02
5.383375659584999084e-02
6.056717783212661743e-02
1.623221300542354584e-02
-5.032423511147499084e-02
-4.444430768489837646e-02
1.315665431320667267e-02
-4.793061688542366028e-02
-3.905249293893575668e-03
7.826950401067733765e-02
-2.019056677818298340e-02
4.734937101602554321e-03
-4.256323724985122681e-02
7.276846561580896378e-03
1.062013283371925354e-01
-5.454012658447027206e-03
3.847562475129961967e-03
3.605511412024497986e-02
1.075404789298772812e-02
-4.056581854820251465e-02
6.995174568146467209e-03
-8.182862773537635803e-03
-5.488847941160202026e-02
-3.332136571407318115e-02
-8.093574643135070801e-02
6.439795345067977905e-02
-1.426428370177745819e-02
7.132661342620849609e-02
-5.958285182714462280e-03
-4.628510773181915283e-02
3.370427340269088745e-02
4.944132640957832336e-02
1.286444813013076782e-01
2.569063939154148102e-02
-8.693893998861312866e-02
1.148884966969490051e-01
4.349193349480628967e-02
1.039978191256523132e-01
1.439288556575775146e-01
-1.763723976910114288e-02
1.609711907804012299e-03
2.554847486317157745e-02
1.655067652463912964e-01
5.272143334150314331e-02
-3.360554575920104980e-02
2.191139012575149536e-02
-5.752139165997505188e-02
1.054116263985633850e-01
-1.570143550634384155e-02
-1.177353709936141968e-01
-5.354264378547668457e-02
6.763710640370845795e-03
-4.207150079309940338e-03
9.242311865091323853e-02
9.650701656937599182e-03
1.008109934628009796e-02
5.148117616772651672e-02
-1.450017839670181274e-02
-7.406611740589141846e-02
-1.333958208560943604e-01
1.795933395624160767e-01
-1.044259294867515564e-01
8.530548959970474243e-02
-3.536767140030860901e-02
-5.995827540755271912e-02
7.110659033060073853e-02
9.184109419584274292e-02
3.182087093591690063e-02
-1.414517164230346680e-01
-6.282496452331542969e-02
2.390399724245071411e-01
-7.629100698977708817e-03
-9.245708584785461426e-02
-2.257377281785011292e-02
-2.504113363102078438e-04
2.412223517894744873e-01
3.306789696216583252e-02
2.154393121600151062e-02
-9.230890870094299316e-02
-1.333860773593187332e-02
2.632508054375648499e-02
-5.446169152855873108e-02
-4.047575220465660095e-02
-7.554402202367782593e-02
-5.923109874129295349e-02
9.722239524126052856e-02
-2.193669229745864868e-02
-1.141895074397325516e-02
-5.703896284103393555e-02
1.387406699359416962e-02
-3.791227005422115326e-03
-3.126347810029983521e-02
-8.552741259336471558e-02
-7.842160761356353760e-02
3.947580605745315552e-02
4.812000691890716553e-02
-4.037239030003547668e-02
5.918340757489204407e-03
-7.239416241645812988e-02
-2.283899113535881042e-03
-4.068998154252767563e-03
2.112540043890476227e-02
-3.623588010668754578e-02
-3.187745809555053711e-02
1.411557197570800781e-02
-9.176795184612274170e-02
5.275306850671768188e-02
6.238444149494171143e-02
2.379487035796046257e-03
-1.329390332102775574e-02
-4.454744048416614532e-03
-2.283024601638317108e-02
2.146608009934425354e-02
1.726531088352203369e-01
1.860423982143402100e-01
7.436671759933233261e-03
-9.228751994669437408e-03
5.872156471014022827e-02
4.317697137594223022e-02
8.600868284702301025e-02
-1.081237494945526123e-01
-1.270820498466491699e-01
2.834071405231952667e-02
-3.316793590784072876e-02
-1.080198492854833603e-02
-9.685502946376800537e-02
-6.704920530319213867e-02
1.464866399765014648e-01
-8.155135437846183777e-03
-5.876260995864868164e-02
4.310323297977447510e-02
5.401710048317909241e-03
-2.731074206531047821e-02
6.584195885807275772e-03
6.541949696838855743e-03
3.225660324096679688e-02
-2.345224469900131226e-02
-4.419973585754632950e-03
-1.640910515561699867e-03
5.383446440100669861e-02
-1.791342534124851227e-02
6.174077466130256653e-02
5.683451890945434570e-02
1.296200901269912720e-01
6.256503611803054810e-02
6.101066991686820984e-02
-7.904847711324691772e-02
4.047486558556556702e-02
-2.525429613888263702e-02
8.197399228811264038e-02
-4.473129659891128540e-02
8.195399492979049683e-02
-6.319829076528549194e-02
3.027631156146526337e-02
6.702715158462524414e-02
3.530366718769073486e-02
2.262840280309319496e-03
-9.519127197563648224e-03
-2.154426462948322296e-02
1.029943078756332397e-01
1.062092836946249008e-02
-1.383240986615419388e-02
4.524826258420944214e-02
3.550834208726882935e-02
-5.757753551006317139e-02
4.723987355828285217e-02
8.297187089920043945e-02
3.553060814738273621e-02
-4.281638935208320618e-02
-7.051600515842437744e-02
-3.319119289517402649e-02
-7.261312007904052734e-02
8.072856813669204712e-02
9.878076612949371338e-03
3.495871555060148239e-03
1.071246191859245300e-01
6.852468103170394897e-02
-2.945714863017201424e-03
-1.781890727579593658e-02
8.708220720291137695e-02
3.180095180869102478e-02
-1.176588237285614014e-01
4.688566084951162338e-03
-7.329186797142028809e-02
-1.397672109305858612e-02
5.726731196045875549e-02
-2.670772559940814972e-02
-5.348965525627136230e-02
5.788065958768129349e-03
7.983752526342868805e-03
-3.407959267497062683e-02
5.754272639751434326e-02
-9.966480731964111328e-02
6.660410761833190918e-02
7.782806456089019775e-02
-1.045690570026636124e-02
-2.428281866014003754e-02
2.201799675822257996e-02
5.053939670324325562e-02
8.354592323303222656e-02
1.024937108159065247e-01
-5.115288496017456055e-02
9.274955093860626221e-02
-5.597231909632682800e-02
-8.594379574060440063e-02
9.964857995510101318e-02
-1.677492284215986729e-03
1.041853576898574829e-01
-1.713264882564544678e-01
-3.129878938198089600e-01
5.039661750197410583e-02
2.108020931482315063e-01
1.952897012233734131e-01
6.270951032638549805e-02
-9.195543825626373291e-02
-9.562491625547409058e-02
-4.191396012902259827e-02
-2.883428707718849182e-02
2.116658091545104980e-01
1.402516961097717285e-01
-3.683425486087799072e-02
-1.260406076908111572e-01
-1.362832039594650269e-01
7.679421454668045044e-02
1.015542671084403992e-01
1.409338973462581635e-02
-8.849438279867172241e-02
-9.914933890104293823e-02
-1.640033721923828125e-01
-4.027199745178222656e-02
3.648816049098968506e-02
3.340887650847434998e-02
9.541606158018112183e-02
4.280492290854454041e-02
-3.518715873360633850e-02
-2.728783758357167244e-03
1.901572570204734802e-02
6.570906937122344971e-02
1.150565743446350098e-01
3.004646301269531250e-02
-8.501285314559936523e-02
4.644857719540596008e-03
2.506383135914802551e-02
-7.226010784506797791e-03
4.928291216492652893e-02
4.737891629338264465e-02
6.539541482925415039e-02
-2.845943532884120941e-02
1.113578956574201584e-02
3.687988966703414917e-02
8.815458416938781738e-02
-2.162417583167552948e-02
-6.797973066568374634e-02
-1.125234887003898621e-01
-1.032280456274747849e-02
7.587441802024841309e-02
-8.429264277219772339e-02
-1.793310604989528656e-02
8.952146768569946289e-02
6.544611603021621704e-02
-3.517883270978927612e-02
5.730631947517395020e-02
9.843270480632781982e-02
-4.126888886094093323e-02
-9.233218431472778320e-02
7.231912016868591309e-02
4.387245327234268188e-02
1.017297878861427307e-01
9.271709620952606201e-02
-8.287945389747619629e-02
-5.395010858774185181e-02
8.283687382936477661e-02
-7.826162874698638916e-02
1.083226054906845093e-01
4.765539430081844330e-03
-2.586943656206130981e-02
1.244056969881057739e-01
7.393030077219009399e-02
8.863211423158645630e-02
9.225432761013507843e-03
1.062817052006721497e-01
-3.199565783143043518e-02
6.305483635514974594e-03
3.259999305009841919e-02
-7.249534875154495239e-02
7.985497266054153442e-02
-6.666935235261917114e-02
-2.441190741956233978e-02
-9.453106671571731567e-02
-6.472363322973251343e-02
-3.723820671439170837e-02
9.342067688703536987e-02
4.786825552582740784e-02
-1.111679300665855408e-01
-1.045335978269577026e-01
3.941453620791435242e-02
-4.295727983117103577e-02
-3.200883790850639343e-02
-4.287965595722198486e-02
5.295519158244132996e-02
8.400146663188934326e-02
-6.255502253770828247e-02
5.234214663505554199e-02
-7.089982181787490845e-02
5.742019787430763245e-02
-1.370431110262870789e-02
5.815251544117927551e-02
9.929295629262924194e-02
-5.750425532460212708e-02
1.069676429033279419e-01
-2.139154588803648949e-03
5.305414646863937378e-02
2.982650883495807648e-02
-8.050750195980072021e-02
1.434600651264190674e-01
4.626045003533363342e-02
1.705747097730636597e-02
-5.806144699454307556e-02
-8.834122121334075928e-02
-1.991244778037071228e-02
-5.323744565248489380e-02
5.554922390729188919e-03
-8.666912093758583069e-03
-4.546599835157394409e-02
2.339677140116691589e-02
5.128977075219154358e-02
-5.892084538936614990e-02
1.998301595449447632e-02
-3.820427879691123962e-02
1.132505983114242554e-01
-3.326237201690673828e-02
2.068821527063846588e-02
3.996607661247253418e-02
2.179360203444957733e-02
8.505012840032577515e-02
-1.042433828115463257e-01
-7.723799906671047211e-03
-3.490585461258888245e-02
3.498182445764541626e-02
2.070814222097396851e-01
-7.729130983352661133e-02
-4.617032408714294434e-02
-2.266922406852245331e-02
-6.538896262645721436e-02
-1.160400267690420151e-02
4.179199412465095520e-02
-9.345592558383941650e-02
-3.052501752972602844e-02
-2.660436928272247314e-02
-7.163792103528976440e-02
5.339216440916061401e-02
-3.073691204190254211e-02
-1.697027534246444702e-01
-6.586196273565292358e-02
-7.743923366069793701e-02
1.481605470180511475e-01
2.281162142753601074e-01
2.370716184377670288e-01
4.481553137302398682e-01
1.205100044608116150e-01
4.776028916239738464e-02
4.110611975193023682e-02
2.254240587353706360e-02
1.806685775518417358e-01
-1.883245632052421570e-02
-1.671610474586486816e-01
-1.371544450521469116e-01
-1.666792631149291992e-01
-1.314022243022918701e-01
-2.060904949903488159e-01
-1.867906451225280762e-01
-8.203472942113876343e-02
-2.083747237920761108e-01
-2.302412539720535278e-01
-1.952361762523651123e-01
6.311056017875671387e-02
-9.841781109571456909e-02
-1.288775634020566940e-02
-5.142607539892196655e-02
3.894674777984619141e-02
2.150739543139934540e-02
-6.802404671907424927e-02
6.275797635316848755e-02
5.280413478612899780e-02
6.077210605144500732e-02
-1.941007561981678009e-02
5.871540680527687073e-02
5.354673415422439575e-02
-6.301628053188323975e-02
-7.369646430015563965e-02
1.365759037435054779e-02
-7.259236183017492294e-03
-2.779856696724891663e-02
-3.508447855710983276e-02
-2.737974002957344055e-02
6.453949213027954102e-02
8.019022643566131592e-02
-7.407196611166000366e-02
5.088569596409797668e-03
1.526499725878238678e-02
1.151244491338729858e-01
1.957230269908905029e-01
2.832309603691101074e-01
3.027002811431884766e-01
5.527494847774505615e-02
-7.941989228129386902e-03
-7.563412934541702271e-02
3.240441903471946716e-02
-1.493177860975265503e-01
-1.620322465896606445e-01
-4.525875300168991089e-02
4.950057715177536011e-02
-2.826520428061485291e-02
-4.639009013772010803e-03
7.300736755132675171e-02
4.395367950201034546e-02
-6.553526967763900757e-02
-1.584690362215042114e-01
-1.484243571758270264e-01
-4.766573011875152588e-02
6.161288172006607056e-02
-6.244792416691780090e-02
-1.741674095392227173e-01
-1.870757639408111572e-01
-1.087149903178215027e-01
-8.264560997486114502e-02
-3.850559890270233154e-02
-4.459663107991218567e-02
-2.328570038080215454e-01
-2.063098363578319550e-02
-7.390715181827545166e-02
-3.452005982398986816e-02
1.974121667444705963e-02
-7.577756792306900024e-02
8.415734022855758667e-02
5.129339545965194702e-02
-5.149744823575019836e-02
5.140615627169609070e-02
1.112636029720306396e-01
1.374803781509399414e-01
-3.525829687714576721e-02
-8.309536613523960114e-03
-7.369916886091232300e-03
2.126888744533061981e-02
1.622429341077804565e-01
2.515030466020107269e-02
-6.404665112495422363e-02
9.605398774147033691e-02
9.960923343896865845e-02
1.207610890269279480e-01
1.018582805991172791e-01
1.160090267658233643e-01
1.693034619092941284e-01
1.705027222633361816e-01
5.275471508502960205e-02
-2.020842581987380981e-02
4.033497720956802368e-02
-2.855926752090454102e-02
7.648020982742309570e-02
2.634719014167785645e-02
3.000125475227832794e-02
1.687985658645629883e-02
9.877175092697143555e-02
1.142918132245540619e-02
6.934835016727447510e-02
-3.099765814840793610e-02
7.631547003984451294e-02
-2.872920408844947815e-02
-6.284421682357788086e-02
3.751102089881896973e-02
-5.243774130940437317e-02
4.811614751815795898e-02
2.195090241730213165e-02
-6.859280914068222046e-02
-1.304399501532316208e-02
3.761050477623939514e-02
-2.800510078668594360e-02
5.598937720060348511e-02
-5.673190206289291382e-02
-3.513465449213981628e-02
5.247409641742706299e-02
4.192710667848587036e-02
2.503894567489624023e-01
1.484411209821701050e-01
5.966495722532272339e-02
6.944862753152847290e-02
-1.520292647182941437e-02
-1.507410556077957153e-01
5.250348523259162903e-02
1.503041852265596390e-02
4.982586205005645752e-02
9.968213737010955811e-03
-4.169662669301033020e-02
-3.382737934589385986e-02
-2.506181038916110992e-02
1.442883163690567017e-01
-5.088283866643905640e-02
-1.053945496678352356e-01
-1.038085147738456726e-01
-5.004421994090080261e-02
1.254877299070358276e-01
-2.020660601556301117e-02
-1.291289627552032471e-01
-1.056503877043724060e-01
1.643460593186318874e-03
2.571961581707000732e-01
3.837352991104125977e-01
2.193935662508010864e-01
-9.867315180599689484e-03
-2.510374225676059723e-02
9.720875322818756104e-02
-1.340170651674270630e-01
-5.397254973649978638e-02
-2.390770241618156433e-02
-1.967922747135162354e-01
2.099276036024093628e-01
-5.058214534074068069e-03
-4.343764483928680420e-02
-3.682438284158706665e-03
1.199756562709808350e-01
3.483087522909045219e-03
-1.218238770961761475e-01
-1.308557987213134766e-01
-4.358978196978569031e-02
6.649235635995864868e-02
-4.107355326414108276e-02
-1.708913594484329224e-01
-2.321100682020187378e-01
1.503131445497274399e-02
-4.906634241342544556e-02
5.973809957504272461e-02
-4.873950779438018799e-02
-6.856375932693481445e-02
2.663779072463512421e-02
2.984876919072121382e-04
8.152068406343460083e-02
2.641075523570179939e-03
-2.778156287968158722e-02
5.348573625087738037e-02
7.870040833950042725e-02
1.115243136882781982e-01
-1.147417426109313965e-01
-8.754619956016540527e-02
-5.854865070432424545e-03
1.229025982320308685e-02
-6.485518813133239746e-02
-1.953678019344806671e-02
-5.500128120183944702e-02
6.948777288198471069e-02
6.959585100412368774e-02
5.383175984025001526e-02
-4.679064825177192688e-02
-4.872635379433631897e-02
2.614644356071949005e-03
-5.321603268384933472e-02
2.460755109786987305e-01
2.170408219099044800e-01
2.787611074745655060e-02
3.251673188060522079e-03
7.954216748476028442e-02
-3.225737437605857849e-02
-3.339730575680732727e-02
-9.250711649656295776e-02
-3.796886187046766281e-03
6.899415701627731323e-02
1.432539671659469604e-01
-5.420548468828201294e-02
4.510026052594184875e-02
1.072597876191139221e-01
7.540594041347503662e-02
2.773144096136093140e-02
2.632289193570613861e-02
-2.125026285648345947e-02
-3.581095859408378601e-02
-2.532765083014965057e-02
8.806534856557846069e-02
-2.607646398246288300e-02
-3.611212596297264099e-02
-3.901875764131546021e-02
4.523891210556030273e-02
7.779052853584289551e-02
9.191619232296943665e-03
1.949891634285449982e-02
4.613638296723365784e-02
2.561729867011308670e-03
-5.060359090566635132e-02
-1.348195374011993408e-01
-1.092262417078018188e-01
5.178990308195352554e-03
2.503383159637451172e-02
-1.281313970685005188e-02
3.427349403500556946e-02
-6.794493645429611206e-02
-5.224971845746040344e-02
-9.263512492179870605e-02
-3.147517517209053040e-02
2.596121840178966522e-02
-9.322534501552581787e-02
1.307346206158399582e-02
2.341609261929988861e-02
9.650861471891403198e-02
7.663774490356445312e-02
-5.875664204359054565e-02
-4.664506763219833374e-02
5.513611808419227600e-02
