-2.046805620193481445e-01
-7.706831395626068115e-02
1.841988116502761841e-01
-4.083425551652908325e-02
-1.850687339901924133e-02
2.324741333723068237e-03
1.547231227159500122e-01
9.559358656406402588e-02
1.339690983295440674e-01
-2.766830027103424072e-01
-1.272774189710617065e-01
1.778533011674880981e-01
6.302661262452602386e-03
-1.597907990217208862e-01
-2.858087718486785889e-01
-2.556675672531127930e-01
1.855780035257339478e-01
-5.335186142474412918e-03
1.358795762062072754e-01
-2.690743207931518555e-01
-3.661244362592697144e-02
-2.474510371685028076e-01
-3.285395447164773941e-03
1.083888635039329529e-01
-2.189541608095169067e-01
-1.738280355930328369e-01
-3.082451224327087402e-01
-8.293566852807998657e-02
3.452817201614379883e-01
3.329708473756909370e-03
-3.308709263801574707e-01
-5.778058171272277832e-01
4.038325846195220947e-01
3.527079522609710693e-01
-1.256826668977737427e-01
1.146683022379875183e-01
-1.586540341377258301e-01
3.196083009243011475e-01
6.694972515106201172e-02
-1.681444048881530762e-01
-1.103132870048284531e-02
-3.703849613666534424e-01
1.857573240995407104e-01
2.903108000755310059e-01
1.716884076595306396e-01
-2.727650105953216553e-02
-3.081051707267761230e-01
1.548895090818405151e-01
1.794921308755874634e-01
1.228268072009086609e-02
-4.748518764972686768e-01
-7.105554938316345215e-01
-7.947217226028442383e-01
-4.717790186405181885e-01
-3.512899577617645264e-01
-5.014392733573913574e-01
-8.720163106918334961e-01
-9.443670511245727539e-01
-3.598302900791168213e-01
-1.955356001853942871e-01
-2.310688793659210205e-01
-5.844033956527709961e-01
-3.024445772171020508e-01
-1.013039797544479370e-01
7.135728839784860611e-03
7.954573631286621094e-02
-3.324687480926513672e-01
-2.930476665496826172e-01
-5.057304725050926208e-02
2.534456253051757812e-01
-2.079950422048568726e-01
-3.198254406452178955e-01
-8.489003032445907593e-02
1.375512629747390747e-01
1.026050820946693420e-01
-1.605134457349777222e-01
-8.846467733383178711e-02
2.272848933935165405e-01
1.952002942562103271e-01
2.001937776803970337e-01
1.010941341519355774e-01
-5.547946318984031677e-02
2.792044542729854584e-03
1.935645341873168945e-01
-1.819557547569274902e-01
3.896919637918472290e-02
-7.177922129631042480e-02
-1.965475641191005707e-02
-1.158739179372787476e-01
4.265557602047920227e-02
-3.061070442199707031e-01
-3.392561972141265869e-01
-2.967264354228973389e-01
-4.316514134407043457e-01
-1.234236434102058411e-01
-3.529298901557922363e-01
-4.077558219432830811e-01
-3.459920883178710938e-01
-3.678806126117706299e-01
-4.071109592914581299e-01
1.170685961842536926e-01
1.220550835132598877e-01
-5.840127468109130859e-01
4.993567615747451782e-02
-2.192049324512481689e-01
1.168830245733261108e-01
3.479619622230529785e-01
-4.041983485221862793e-01
1.050249487161636353e-01
-3.489425405859947205e-02
3.630258440971374512e-01
2.881589233875274658e-01
-4.946626126766204834e-01
-3.136060666292905807e-03
2.051033228635787964e-01
5.300452709197998047e-01
1.302589848637580872e-02
-5.257247686386108398e-01
-9.125643223524093628e-02
1.134318783879280090e-01
5.506021380424499512e-01
-9.985841810703277588e-02
-6.163825988769531250e-01
2.418709248304367065e-01
-9.593421965837478638e-02
-1.248506456613540649e-01
-3.931987285614013672e-02
1.710866540670394897e-01
3.834648057818412781e-02
-8.875619620084762573e-03
2.213533781468868256e-02
1.345533132553100586e-01
1.525658965110778809e-01
3.524447381496429443e-01
2.081074416637420654e-01
9.356550127267837524e-02
1.531491875648498535e-01
4.168483912944793701e-01
2.633791565895080566e-01
1.877066195011138916e-01
1.619351059198379517e-01
2.121617197990417480e-01
6.584607064723968506e-02
4.079939331859350204e-03
-6.134080141782760620e-02
6.618910282850265503e-02
-4.730136319994926453e-02
-7.836765050888061523e-02
-1.256725788116455078e-01
-8.549970388412475586e-02
