-3.789262846112251282e-02
3.233753144741058350e-02
-7.432629913091659546e-02
-1.390398759394884109e-02
-6.565561890602111816e-02
-4.007747396826744080e-03
2.282567508518695831e-02
2.158872224390506744e-02
-8.753471192903816700e-04
-5.108807981014251709e-02
1.870981231331825256e-02
2.455176413059234619e-02
-4.056209325790405273e-02
-5.592580884695053101e-02
-5.417375639081001282e-02
4.661365225911140442e-02
-7.533432543277740479e-02
2.556432597339153290e-02
5.270330235362052917e-03
2.638736553490161896e-02
1.060328353196382523e-02
-1.946523413062095642e-02
-2.157012373208999634e-02
8.420876413583755493e-02
3.507757931947708130e-02
-4.791998863220214844e-02
2.120642550289630890e-02
4.674481227993965149e-02
-5.496837571263313293e-02
1.475840155035257339e-02
6.174623966217041016e-02
-1.278121955692768097e-02
-7.700723409652709961e-02
5.287532135844230652e-02
8.098387159407138824e-03
-2.603440359234809875e-02
5.438802763819694519e-02
4.879535734653472900e-02
7.541939616203308105e-02
-1.001304015517234802e-02
-4.688786715269088745e-02
4.229870066046714783e-02
4.114582762122154236e-02
-6.010413169860839844e-02
-3.995011374354362488e-02
-2.932345680892467499e-02
4.110389947891235352e-02
2.298675850033760071e-02
4.591651260852813721e-02
-2.276856824755668640e-02
4.140582680702209473e-02
8.528286218643188477e-02
-3.346506878733634949e-02
-3.622550517320632935e-02
-9.884396567940711975e-03
2.955652587115764618e-02
4.481611028313636780e-02
1.957142911851406097e-02
2.102560177445411682e-02
-1.254775375127792358e-02
3.485146164894104004e-02
-2.317359670996665955e-02
-3.670199587941169739e-02
-2.151721343398094177e-02
-1.633215509355068207e-02
5.456695705652236938e-02
-3.699269145727157593e-02
6.515139341354370117e-02
-4.675998538732528687e-02
1.760261133313179016e-02
-4.455813672393560410e-03
-2.868185285478830338e-03
-2.412658184766769409e-02
5.426663905382156372e-03
-5.282790958881378174e-02
-2.860931307077407837e-02
-5.149088054895401001e-02
-2.071912772953510284e-02
-2.734451740980148315e-02
-2.532903850078582764e-02
-2.082195505499839783e-02
4.630206152796745300e-03
5.091735348105430603e-02
-6.869973242282867432e-02
2.383166551589965820e-02
4.745741840451955795e-03
-1.126547995954751968e-02
-3.560114279389381409e-02
-3.652027342468500137e-03
-5.949699506163597107e-02
4.748814553022384644e-02
2.400936745107173920e-02
-1.295344252139329910e-02
-8.065291680395603180e-03
4.072264581918716431e-02
-6.942725181579589844e-02
-1.057613417506217957e-01
3.179469332098960876e-02
-2.477573975920677185e-02
-7.132087647914886475e-02
-5.199080333113670349e-02
-1.420438755303621292e-02
1.096142530441284180e-01
3.053360804915428162e-02
3.367141634225845337e-02
-3.282275795936584473e-02
8.197755552828311920e-03
5.878848209977149963e-02
-4.503722116351127625e-02
-7.311864197254180908e-02
-3.023559972643852234e-02
4.302525520324707031e-02
5.586327984929084778e-02
9.613318368792533875e-03
5.517493467777967453e-03
-5.876461043953895569e-03
-3.035929054021835327e-03
-2.047210233286023140e-03
3.810688853263854980e-02
7.275874167680740356e-02
-1.399633847177028656e-02
8.485016226768493652e-02
4.859035089612007141e-02
-7.235595025122165680e-03
3.288394771516323090e-03
4.616789519786834717e-02
3.517523035407066345e-02
-2.624941058456897736e-02
-4.639993980526924133e-02
2.230104431509971619e-02
-7.721418980509042740e-03
-3.932326287031173706e-02
1.366152707487344742e-02
4.101968929171562195e-02
-9.221758693456649780e-03
1.500068325549364090e-02
7.778769358992576599e-03
4.136082902550697327e-02
1.186140230856835842e-03
5.900614708662033081e-02
-2.684045396745204926e-02
-1.819365890696644783e-03
5.413884669542312622e-02
3.505149856209754944e-02
-7.063311059027910233e-03
5.396921187639236450e-02
-6.013622507452964783e-02
-8.682753890752792358e-02
7.694842759519815445e-03
-4.198863729834556580e-02
-2.614813111722469330e-02
-4.787535965442657471e-02
5.328205227851867676e-02
1.043386384844779968e-02
1.203683763742446899e-02
4.531798884272575378e-02
4.256565123796463013e-02
3.271084278821945190e-02
-6.169854849576950073e-02
-7.467033714056015015e-02
-2.870227396488189697e-02
1.995412074029445648e-02
-5.014689266681671143e-02
7.013341877609491348e-03
4.200752452015876770e-02
-1.345413271337747574e-03
-4.270825535058975220e-02
2.798990160226821899e-02
7.792805880308151245e-02
4.963954910635948181e-02
4.130958020687103271e-02
5.342161282896995544e-02
7.073263078927993774e-02
3.844418004155158997e-02
-1.553114596754312515e-02
-6.011767312884330750e-02
4.420609399676322937e-02
4.304030910134315491e-02
-7.246396690607070923e-02
-1.151828989386558533e-01
2.944980934262275696e-02
3.571341931819915771e-02
-3.529582917690277100e-02
-5.357461050152778625e-02
1.934457197785377502e-02
8.466561883687973022e-02
6.227891147136688232e-02
1.638336107134819031e-02
-1.039566006511449814e-02
3.487726300954818726e-02
-2.391014061868190765e-02
-8.995132893323898315e-02
-8.726916462182998657e-02
3.351162746548652649e-02
4.317419603466987610e-02
1.894792541861534119e-02
2.076265774667263031e-02
2.614274621009826660e-02
1.384443696588277817e-02
-1.076657511293888092e-02
-5.585422366857528687e-02
-3.044127672910690308e-02
-2.282547205686569214e-02
8.287539333105087280e-02
-5.167715623974800110e-02
-3.562404215335845947e-02
6.083989981561899185e-03
7.411138713359832764e-02
-4.528542608022689819e-02
-5.305062234401702881e-02
-2.093578502535820007e-02
-9.272723458707332611e-03
-2.775142528116703033e-02
1.925380527973175049e-02
6.942699197679758072e-03
5.336342379450798035e-02
1.789684966206550598e-02
5.752822756767272949e-02
8.720467449165880680e-04
7.993358373641967773e-02
-2.130827866494655609e-03
-2.671482600271701813e-02
-4.711248353123664856e-02
-5.559398792684078217e-03
-9.427880495786666870e-02
9.670085273683071136e-03
-6.809524726122617722e-03
7.905293256044387817e-02
8.861251408234238625e-04
3.293622285127639771e-02
4.842395335435867310e-02
6.420788168907165527e-02
5.260837078094482422e-02
-7.067363709211349487e-03
1.527108531445264816e-02
-1.726979017257690430e-02
-1.609424129128456116e-02
-2.846471499651670456e-03
4.323441162705421448e-02
-4.506063088774681091e-02
-7.491661608219146729e-02
8.812823332846164703e-03
5.291605740785598755e-02
-1.365657523274421692e-02
-1.224811933934688568e-02
8.378316462039947510e-02
4.729800671339035034e-02
3.292425535619258881e-03
-2.379664406180381775e-02
-1.245329715311527252e-02
7.492231577634811401e-02
1.057382598519325256e-01
-7.627630978822708130e-02
-8.441807702183723450e-03
7.325835991650819778e-03
-4.977665096521377563e-02
-4.507106170058250427e-02
-3.986210003495216370e-02
-1.012310152873396873e-03
3.393030911684036255e-02
-7.396012544631958008e-02
4.746578633785247803e-02
5.479131639003753662e-02
3.923370502889156342e-03
-2.706961147487163544e-02
8.562286943197250366e-02
5.725495889782905579e-02
2.366497647017240524e-03
-2.676562592387199402e-02
-6.730204820632934570e-02
3.241341561079025269e-02
-2.462630532681941986e-02
-4.817440360784530640e-02
9.343723207712173462e-02
-3.659631684422492981e-02
-4.878956079483032227e-02
1.808193884789943695e-02
4.353720229119062424e-03
-6.345699075609445572e-04
4.518894851207733154e-02
5.455148592591285706e-02
5.445282906293869019e-02
-4.008044674992561340e-02
5.004741623997688293e-02
1.750859804451465607e-02
-2.131274156272411346e-02
-4.978087916970252991e-02
-1.462809462100267410e-02
5.045629292726516724e-02
6.407775916159152985e-03
-3.264401480555534363e-02
-4.100279137492179871e-02
-7.192712277173995972e-02
-1.914590038359165192e-02
-3.015112690627574921e-02
-4.636267572641372681e-02
-4.645891860127449036e-02
3.743580356240272522e-02
6.166695803403854370e-02
3.508009016513824463e-02
1.242628134787082672e-02
-5.835877731442451477e-02
-3.620642051100730896e-02
-1.488181296736001968e-02
-2.191394008696079254e-02
5.505180358886718750e-02
6.733836978673934937e-02
4.961327835917472839e-02
-1.468389574438333511e-02
-3.401424735784530640e-02
-3.735243901610374451e-02
-2.057846402749419212e-03
4.634856712073087692e-03
-5.217335745692253113e-02
-3.085354808717966080e-03
-9.862416191026568413e-04
-6.504091899842023849e-03
-4.325815010815858841e-03
-6.926136463880538940e-02
-1.094996649771928787e-02
1.467139832675457001e-02
-4.182950034737586975e-02
-1.414418965578079224e-02
5.678997188806533813e-02
-1.072476804256439209e-02
3.143484890460968018e-02
6.096928194165229797e-02
4.469332285225391388e-03
-6.730560958385467529e-02
2.839986421167850494e-02
-5.522111803293228149e-02
5.841760337352752686e-02
-5.905045941472053528e-02
-2.465363033115863800e-02
-2.133464999496936798e-02
5.171731580048799515e-03
3.691245242953300476e-02
-1.597547554410994053e-03
-1.513285934925079346e-02
-3.008806705474853516e-02
2.615944668650627136e-02
9.788143448531627655e-03
4.388027638196945190e-02
-2.015559561550617218e-02
-1.164878346025943756e-02
-4.424262419342994690e-02
9.899830911308526993e-04
4.740266501903533936e-02
-7.759221363812685013e-03
5.167619138956069946e-02
1.515195611864328384e-02
-5.355116724967956543e-02
-9.216412901878356934e-02
-4.036029428243637085e-02
-2.901789732277393341e-02
-7.617028802633285522e-02
4.337233304977416992e-02
-5.662495270371437073e-02
6.178919970989227295e-02
-5.802283063530921936e-03
6.115635856986045837e-02
1.994007267057895660e-03
7.979534566402435303e-02
-8.874877355992794037e-03
-3.565806150436401367e-02
-1.575244404375553131e-02
6.104582175612449646e-02
2.293498069047927856e-02
5.167860165238380432e-02
2.546128816902637482e-02
-2.015320584177970886e-02
6.788703799247741699e-02
-5.443154275417327881e-02
-6.543682888150215149e-03
4.159769788384437561e-02
4.265215992927551270e-02
-6.113545596599578857e-02
4.392420500516891479e-02
-2.400210499763488770e-02
6.032868102192878723e-02
1.053150966763496399e-01
7.171425037086009979e-03
2.705913735553622246e-03
1.027819067239761353e-01
-1.155396271497011185e-02
6.413769442588090897e-03
4.486479610204696655e-02
4.313359782099723816e-02
6.211470812559127808e-02
1.074812747538089752e-02
-6.375461071729660034e-02
8.743002079427242279e-03
5.209245905280113220e-02
5.183388665318489075e-02
-2.112954482436180115e-02
4.137194901704788208e-02
6.201372481882572174e-03
4.636207967996597290e-02
-7.177823036909103394e-02
-9.481639601290225983e-03
-4.664930328726768494e-02
6.133678555488586426e-02
7.578816264867782593e-02
-4.046589508652687073e-02
-6.950997747480869293e-03
-2.405596524477005005e-02
-1.638570614159107208e-02
-4.876068979501724243e-02
5.536200851202011108e-02
1.101367175579071045e-02
7.690445333719253540e-02
2.818716317415237427e-02
-1.280658529140055180e-03
5.606386065483093262e-02
2.061110734939575195e-02
-6.040426343679428101e-02
7.752813398838043213e-02
9.904320351779460907e-03
-3.510494157671928406e-02
1.747344736941158772e-03
-2.751585282385349274e-02
-2.326636202633380890e-02
1.381593383848667145e-02
-1.203354913741350174e-03
-5.328664928674697876e-02
-3.852030634880065918e-02
-2.142241224646568298e-02
-7.240969687700271606e-02
-3.415869176387786865e-02
-4.709277674555778503e-02
-6.613617297261953354e-04
6.934376899152994156e-03
5.876114219427108765e-02
-5.492997542023658752e-02
2.661561593413352966e-02
5.884855240583419800e-02
-1.396021340042352676e-02
4.697860777378082275e-02
-2.515210025012493134e-02
2.977910265326499939e-02
3.150028735399246216e-02
7.592736929655075073e-02
7.200799137353897095e-02
6.189611740410327911e-03
1.666670665144920349e-03
-3.048289753496646881e-02
4.595709964632987976e-02
6.194288283586502075e-02
-8.292872458696365356e-02
7.300169020891189575e-02
5.416547134518623352e-02
-4.369498044252395630e-02
4.219089075922966003e-02
9.294071234762668610e-03
-5.814174935221672058e-02
-2.066634595394134521e-02
3.861850127577781677e-02
-4.122249037027359009e-02
-3.211981430649757385e-02
3.907039761543273926e-02
8.078747242689132690e-02
2.260511741042137146e-02
5.598162859678268433e-02
5.838899314403533936e-02
5.395231395959854126e-02
-2.609356865286827087e-02
6.133968010544776917e-02
3.951922059059143066e-02
-5.450016260147094727e-02
-3.190359845757484436e-02
1.770434901118278503e-02
2.919013425707817078e-02
6.704078055918216705e-03
-8.212719112634658813e-03
-1.857649907469749451e-02
-5.783265456557273865e-02
3.590950369834899902e-02
-2.052219770848751068e-02
-5.685000121593475342e-02
-1.250004116445779800e-02
-1.585623249411582947e-02
-3.683622926473617554e-02
-2.069108001887798309e-02
2.496382966637611389e-02
-3.435551747679710388e-02
-5.122069641947746277e-02
-3.425637632608413696e-02
3.471234440803527832e-02
-3.197451122105121613e-03
-8.570395410060882568e-02
5.379007756710052490e-02
3.372342884540557861e-02
5.326154455542564392e-02
-7.574104238301515579e-03
5.800176039338111877e-02
-2.889617159962654114e-02
1.052225846797227859e-02
1.703817956149578094e-02
-1.090584173798561096e-01
3.533611074090003967e-02
-7.691772654652595520e-03
-6.572426110506057739e-02
2.874359302222728729e-02
-7.107739802449941635e-03
-1.289269048720598221e-02
-1.001127343624830246e-02
5.141825973987579346e-02
1.083996426314115524e-02
1.032053008675575256e-01
1.684714108705520630e-02
-2.173819765448570251e-02
-2.684846892952919006e-02
1.645666430704295635e-03
7.532718125730752945e-03
3.566496772691607475e-03
-2.089401939883828163e-03
3.340137377381324768e-02
1.206618919968605042e-02
5.676620453596115112e-02
2.499672025442123413e-02
-1.551866182126104832e-03
-7.623636163771152496e-03
2.606951259076595306e-02
-1.831858977675437927e-02
5.442289169877767563e-03
1.509759947657585144e-02
4.617797583341598511e-02
-1.083796960301697254e-03
-2.656249562278389931e-03
-5.516755953431129456e-02
1.364738214761018753e-02
-1.093549281358718872e-02
3.414951264858245850e-02
1.621220260858535767e-02
-4.574047774076461792e-02
1.745242811739444733e-02
-3.451785445213317871e-02
-8.908517658710479736e-03
-1.926910132169723511e-02
5.345634371042251587e-02
3.348980471491813660e-02
-5.890478566288948059e-02
2.944928780198097229e-02
-2.795908600091934204e-02
-6.037877872586250305e-02
-2.619856595993041992e-02
-1.801176182925701141e-02
-8.960174163803458214e-04
-3.724988922476768494e-02
-2.432167902588844299e-02
-4.649750888347625732e-03
3.125666407868266106e-03
-5.117703601717948914e-02
-8.320308290421962738e-03
3.124122880399227142e-02
2.739137783646583557e-02
4.297536797821521759e-03
-5.127638205885887146e-02
2.069268375635147095e-02
-5.108935385942459106e-02
-5.103593692183494568e-02
-2.190000191330909729e-02
5.932958796620368958e-02
-9.081278927624225616e-03
-1.929134316742420197e-02
-4.396991431713104248e-02
2.431036531925201416e-02
-4.954825714230537415e-02
1.835818029940128326e-02
-3.500195220112800598e-02
-1.604614034295082092e-02
-1.221383735537528992e-02
-1.591081544756889343e-02
-5.956605449318885803e-02
6.814262270927429199e-02
-1.301602460443973541e-02
6.662892410531640053e-04
-4.553975164890289307e-02
1.428208500146865845e-02
-3.010698035359382629e-02
3.101959824562072754e-02
3.694463148713111877e-02
-2.471504546701908112e-02
3.930558264255523682e-02
-4.980675503611564636e-02
-2.528545632958412170e-02
5.027632415294647217e-02
-6.374971941113471985e-03
3.568074852228164673e-02
-4.153790324926376343e-02
5.007087439298629761e-02
-6.525437533855438232e-02
-1.665409188717603683e-03
-5.282188951969146729e-02
2.205358073115348816e-02
1.531900744885206223e-02
-5.007809028029441833e-02
4.877884406596422195e-03
-4.172560572624206543e-02
3.723432496190071106e-02
-2.908673509955406189e-02
2.203196752816438675e-03
-2.643872983753681183e-02
5.019938573241233826e-02
5.082227289676666260e-03
-3.332766471430659294e-03
4.551697894930839539e-02
8.400823175907135010e-02
-3.173405304551124573e-02
3.665147116407752037e-03
3.076153248548507690e-02
1.465630903840065002e-02
-9.371336549520492554e-03
2.243113145232200623e-02
3.999635949730873108e-02
-4.635165259242057800e-02
3.706303238868713379e-02
-4.609900340437889099e-02
2.642944455146789551e-02
1.038141082972288132e-02
1.163612678647041321e-01
-6.782864779233932495e-02
1.253796182572841644e-02
1.754769496619701385e-02
2.485093846917152405e-02
1.373636815696954727e-02
-5.205556377768516541e-02
3.678429126739501953e-02
1.431038603186607361e-02
-3.826966881752014160e-02
-1.794805563986301422e-02
8.470211178064346313e-02
-4.913990572094917297e-02
-3.958319500088691711e-02
-4.539705812931060791e-02
8.850790560245513916e-02
7.161763962358236313e-03
-1.414276193827390671e-02
3.940557315945625305e-02
2.935865148901939392e-02
5.313164368271827698e-02
1.536352792754769325e-03
5.150040611624717712e-02
-4.136573150753974915e-02
6.972016394138336182e-02
2.053664252161979675e-02
2.450032532215118408e-02
1.970068988157436252e-04
-4.022534191608428955e-02
-3.416143730282783508e-02
-6.017016991972923279e-02
5.200926214456558228e-03
5.418853461742401123e-02
2.565056085586547852e-02
2.965772338211536407e-02
-7.295505702495574951e-02
-2.557984925806522369e-02
-5.346499383449554443e-02
-3.632888570427894592e-02
-2.974051050841808319e-03
6.350816041231155396e-02
1.351703330874443054e-02
3.741718828678131104e-02
-1.910120598040521145e-03
-4.325838759541511536e-03
7.572160661220550537e-02
6.584571301937103271e-02
7.217938452959060669e-02
-3.961357101798057556e-02
-4.037475958466529846e-02
-3.897562623023986816e-02
6.982593983411788940e-02
-5.603408906608819962e-03
1.005657017230987549e-02
1.736422069370746613e-02
-4.930234700441360474e-02
2.807436697185039520e-02
6.632324308156967163e-03
-1.354339648969471455e-03
3.741561993956565857e-02
4.231258481740951538e-02
-1.567628001794219017e-03
-1.678877696394920349e-02
4.832041636109352112e-02
-9.774329140782356262e-03
6.005586311221122742e-02
-4.202564060688018799e-02
2.974060364067554474e-03
-2.158723771572113037e-03
-1.371347066015005112e-02
-2.430165419355034828e-03
-1.093222498893737793e-01
2.781074261292815208e-03
3.880742564797401428e-02
1.608166843652725220e-02
3.420668467879295349e-02
4.538074601441621780e-03
-3.768030554056167603e-02
7.477576285600662231e-02
1.039376929402351379e-01
-1.460143029689788818e-01
-3.963682055473327637e-02
5.462851002812385559e-02
6.959784775972366333e-02
-1.190739683806896210e-02
4.832425713539123535e-02
-5.180848389863967896e-02
-8.359201252460479736e-03
2.472947351634502411e-02
-3.763664141297340393e-02
3.679424524307250977e-02
3.936133533716201782e-02
-2.243966050446033478e-02
-4.328743740916252136e-02
-6.663224101066589355e-02
6.220580544322729111e-03
4.953594505786895752e-02
3.169348463416099548e-02
-3.227124363183975220e-02
2.475037053227424622e-02
-2.227591164410114288e-02
-3.572862967848777771e-02
-2.181072533130645752e-02
-3.552921861410140991e-02
3.370300680398941040e-02
9.623231366276741028e-03
-3.197065740823745728e-02
5.979590490460395813e-02
-4.969252645969390869e-02
7.140164263546466827e-03
8.594977110624313354e-02
4.071462154388427734e-02
-2.272574976086616516e-02
-1.698679663240909576e-02
5.062564089894294739e-02
-4.653838276863098145e-02
4.366008564829826355e-02
8.460406213998794556e-03
7.207414507865905762e-02
-3.287490084767341614e-02
3.580674901604652405e-02
1.537399180233478546e-02
-5.253508687019348145e-02
2.462063543498516083e-02
1.506650727242231369e-02
1.339191105216741562e-02
-3.885149955749511719e-02
4.009997472167015076e-02
-3.911165893077850342e-02
2.956328354775905609e-02
4.855554923415184021e-02
-3.061667084693908691e-02
-1.399338245391845703e-01
-3.004660829901695251e-02
-8.357835933566093445e-03
2.449993230402469635e-02
-3.430248424410820007e-02
2.784357219934463501e-02
3.106871619820594788e-02
4.443154484033584595e-02
5.358047038316726685e-02
-3.610403835773468018e-02
3.783180937170982361e-02
4.464462772011756897e-02
-8.118452504277229309e-03
6.709439330734312534e-04
1.088116597384214401e-02
1.022786274552345276e-01
7.156615704298019409e-02
-4.949140548706054688e-02
1.696726121008396149e-02
2.600549533963203430e-02
-5.350816994905471802e-02
1.321780774742364883e-02
-5.422548204660415649e-02
1.863189041614532471e-02
-5.049398541450500488e-02
-7.020977884531021118e-02
-5.364646762609481812e-02
6.605067104101181030e-02
9.082861244678497314e-03
-6.319694221019744873e-02
2.415652014315128326e-02
7.784118503332138062e-02
-5.590020120143890381e-02
-6.044707447290420532e-02
4.104957729578018188e-02
7.509091868996620178e-03
-2.501086704432964325e-02
4.951857030391693115e-02
-2.564735710620880127e-02
-5.296171177178621292e-03
1.759796775877475739e-02
-5.311604589223861694e-02
-3.624101728200912476e-02
2.162365242838859558e-02
-4.217483848333358765e-02
4.060436785221099854e-02
3.018263913691043854e-02
-5.893320590257644653e-02
2.017453126609325409e-02
8.044358342885971069e-02
5.148537456989288330e-02
7.917761057615280151e-02
2.481375448405742645e-02
1.132169552147388458e-02
2.281318232417106628e-02
8.127296715974807739e-02
-1.107254624366760254e-02
6.517642759718000889e-04
5.153858289122581482e-02
-4.341744258999824524e-02
-5.259418115019798279e-02
4.188399179838597775e-04
1.337033417075872421e-02
2.751470729708671570e-02
-4.903503134846687317e-02
1.682203263044357300e-02
-5.585822463035583496e-02
-6.083121895790100098e-02
-6.676153093576431274e-02
-5.064433068037033081e-02
-4.627970233559608459e-02
3.358257934451103210e-02
-2.970700338482856750e-02
3.260752186179161072e-02
-3.289246186614036560e-02
-1.016769744455814362e-02
-8.456079661846160889e-02
4.441080614924430847e-03
-2.545651793479919434e-02
-1.193843409419059753e-02
2.233254536986351013e-02
-5.710344016551971436e-02
-4.125208780169487000e-02
-6.604433804750442505e-02
-3.630062192678451538e-02
-4.603439569473266602e-02
-4.910553107038140297e-04
5.494374409317970276e-02
-3.521274030208587646e-02
-5.650858208537101746e-02
-2.296839468181133270e-02
3.369798942003399134e-04
-5.357293412089347839e-02
3.485977649688720703e-02
4.825028032064437866e-02
-3.902877122163772583e-02
-4.147015511989593506e-02
-2.772403508424758911e-02
1.716663828119635582e-03
-4.356485791504383087e-03
-4.640398547053337097e-02
-3.277527168393135071e-02
1.831335760653018951e-02
-8.944624662399291992e-02
-6.295094639062881470e-02
-6.977804750204086304e-02
-5.853215605020523071e-02
-3.298316523432731628e-02
-4.947235062718391418e-02
-2.224871888756752014e-02
3.719839453697204590e-02
-1.363246440887451172e-01
5.693262442946434021e-02
-8.534206077456474304e-03
1.064857617020606995e-01
1.956477761268615723e-03
-1.484367251396179199e-02
-3.201566264033317566e-02
3.902738168835639954e-02
-1.308432593941688538e-02
-3.981804102659225464e-02
2.623077668249607086e-02
6.125079840421676636e-02
7.537229917943477631e-03
-4.691950976848602295e-02
-3.123806975781917572e-02
2.592377178370952606e-02
6.381382793188095093e-02
6.397435069084167480e-02
1.146805211901664734e-01
-4.211040958762168884e-02
6.732022762298583984e-02
6.947225332260131836e-02
2.755640819668769836e-02
-7.790691405534744263e-02
-6.047429051250219345e-03
-4.371059685945510864e-02
-6.267448043217882514e-05
-2.480271086096763611e-02
-2.111462689936161041e-02
2.574467472732067108e-02
5.258509889245033264e-02
-2.827922254800796509e-02
-4.110537469387054443e-02
-1.547751668840646744e-02
4.673972725868225098e-02
-5.343819409608840942e-02
-3.845760226249694824e-02
-2.126152440905570984e-02
-3.461726009845733643e-02
4.704185202717781067e-02
-2.386586368083953857e-02
-3.693183884024620056e-02
-5.563548207283020020e-02
-3.320529311895370483e-02
4.481007903814315796e-02
1.240717526525259018e-02
-2.125806733965873718e-02
1.056414190679788589e-02
4.768081009387969971e-03
-2.080809138715267181e-02
3.242716565728187561e-02
6.411082297563552856e-02
5.441315099596977234e-02
6.303708255290985107e-02
3.417624533176422119e-02
5.343902483582496643e-02
6.272293627262115479e-03
-3.512843325734138489e-02
1.885273680090904236e-02
-4.999809432774782181e-03
-7.299239188432693481e-02
-6.873069703578948975e-02
1.594721525907516479e-02
-1.738838292658329010e-02
-1.592499576508998871e-02
8.084778487682342529e-02
1.140819862484931946e-01
-5.435302108526229858e-02
-4.580206004902720451e-04
-7.059646770358085632e-03
3.168195858597755432e-02
-6.226331368088722229e-02
6.937946891412138939e-04
3.577969968318939209e-02
6.127851828932762146e-02
5.183570832014083862e-02
1.536995358765125275e-02
2.454281225800514221e-02
-1.417877897620201111e-02
3.479760140180587769e-03
3.107483126223087311e-02
1.135888975113630295e-02
2.754709497094154358e-02
-1.717426441609859467e-02
3.120437450706958771e-02
5.256637558341026306e-02
1.287294831126928329e-02
1.668240316212177277e-02
-8.670573681592941284e-02
-4.230142571032047272e-03
5.922739952802658081e-02
-2.584132552146911621e-02
-9.772927314043045044e-02
9.326893091201782227e-02
6.753525882959365845e-02
-1.717077940702438354e-02
-8.585377782583236694e-02
-3.496297821402549744e-02
9.212814271450042725e-03
-1.180690713226795197e-02
-5.868574604392051697e-02
-3.253088891506195068e-02
-8.646040223538875580e-03
4.555310308933258057e-02
1.892949268221855164e-02
-2.719096653163433075e-02
-5.356230214238166809e-02
-2.411726862192153931e-02
-5.392124131321907043e-02
-4.527189210057258606e-02
-1.074539590626955032e-02
-7.510937750339508057e-02
-1.899709179997444153e-02
1.522231660783290863e-02
-3.871581703424453735e-02
-5.571101978421211243e-02
-4.799072444438934326e-02
4.512128978967666626e-02
3.283546771854162216e-03
5.389561131596565247e-02
-2.643280103802680969e-02
-3.004426695406436920e-02
-3.327508643269538879e-02
-9.998541790992021561e-04
2.068637125194072723e-02
-3.740898147225379944e-02
-6.113328412175178528e-02
1.965861953794956207e-02
3.652256913483142853e-03
-1.118687260895967484e-02
4.349984228610992432e-02
8.923772722482681274e-03
6.101172044873237610e-02
5.870648846030235291e-02
5.097094550728797913e-02
-2.810801565647125244e-02
-1.875962316989898682e-02
7.453735917806625366e-02
-5.578581988811492920e-02
3.486162796616554260e-02
4.803591221570968628e-02
2.134731039404869080e-02
3.262199461460113525e-02
1.607821905054152012e-03
9.466896951198577881e-02
7.271033525466918945e-02
5.244057998061180115e-02
2.298202365636825562e-02
6.069449335336685181e-02
3.057707846164703369e-02
5.535067617893218994e-02
1.782554388046264648e-02
4.445208236575126648e-02
4.134010896086692810e-02
-4.415262490510940552e-02
6.009533628821372986e-02
3.505047038197517395e-02
1.572143286466598511e-02
2.757628075778484344e-02
5.314755439758300781e-02
-4.288517683744430542e-02
-1.519378833472728729e-02
-1.133825164288282394e-02
-1.151605416089296341e-02
-3.542700724210590124e-04
-2.464169636368751526e-02
5.006087012588977814e-03
5.516658350825309753e-02
-2.813994511961936951e-02
2.439955482259392738e-03
3.520882129669189453e-02
-2.838106080889701843e-02
-2.804362401366233826e-02
7.335451897233724594e-03
-5.412480793893337250e-03
8.274874649941921234e-03
-5.010030418634414673e-02
-5.083055235445499420e-03
9.378320537507534027e-03
-2.875131741166114807e-02
5.153353512287139893e-02
-2.700549736618995667e-02
3.930426761507987976e-02
-2.545942738652229309e-02
-5.305199697613716125e-02
4.547143355011940002e-02
5.546481907367706299e-02
8.627915754914283752e-03
3.004936687648296356e-02
4.021129757165908813e-02
-5.847901850938796997e-02
4.654576629400253296e-02
3.286429122090339661e-02
-3.884481638669967651e-02
-2.901715226471424103e-02
-5.923159047961235046e-02
8.583898656070232391e-03
-4.653512686491012573e-02
1.254709903150796890e-02
-1.762686856091022491e-02
5.499609932303428650e-02
-2.774553373456001282e-02
2.934589749202132225e-03
-3.864486888051033020e-02
-2.594533748924732208e-02
-2.892458252608776093e-02
-1.851522549986839294e-02
5.558176711201667786e-02
-3.979189693927764893e-02
-4.366803914308547974e-02
-5.329618230462074280e-02
-4.972684383392333984e-02
-3.624846413731575012e-02
1.665326021611690521e-02
4.382875189185142517e-02
1.076482329517602921e-02
-2.085095271468162537e-02
-5.006703361868858337e-02
-2.715171687304973602e-02
2.865156717598438263e-02
1.084585674107074738e-02
-3.242239356040954590e-02
2.921687997877597809e-02
-4.153362940996885300e-03
3.644617274403572083e-02
1.629582047462463379e-02
4.561915993690490723e-04
-1.831579208374023438e-02
-5.018994957208633423e-02
5.904071033000946045e-02
-4.075639322400093079e-02
5.370622500777244568e-03
-4.411447420716285706e-02
-6.090598553419113159e-02
-2.789331134408712387e-03
-4.619308933615684509e-02
-4.813236743211746216e-02
-5.940845608711242676e-02
-6.215430051088333130e-02
-3.767950832843780518e-02
3.487626463174819946e-02
-3.610581625252962112e-03
-2.732929959893226624e-02
-2.680331468582153320e-02
-3.936772421002388000e-02
-1.391160208731889725e-02
-3.753804776351898909e-04
-4.609269648790359497e-02
1.990069076418876648e-02
-3.991033881902694702e-02
3.591962158679962158e-02
6.217646226286888123e-02
-3.902090713381767273e-02
-4.868790879845619202e-02
5.118758976459503174e-02
-3.564722090959548950e-02
-5.616808310151100159e-02
2.821785211563110352e-02
3.246220573782920837e-02
3.026294289156794548e-03
-1.191133446991443634e-02
-5.584854260087013245e-02
-3.861535713076591492e-02
-4.194544255733489990e-02
5.446262657642364502e-02
-5.533414706587791443e-02
5.234708636999130249e-02
-2.347747050225734711e-02
1.755853556096553802e-02
-2.244715392589569092e-02
-1.768932415870949626e-04
1.255166810005903244e-02
9.397841058671474457e-03
-4.008505493402481079e-02
5.982185900211334229e-02
-1.906918361783027649e-02
3.643230348825454712e-02
1.065323478542268276e-03
-2.567893639206886292e-02
1.692475378513336182e-02
3.076015040278434753e-02
2.390250749886035919e-02
-1.685343496501445770e-02
-7.654587738215923309e-03
-1.486379653215408325e-02
-6.016233190894126892e-02
5.558852478861808777e-02
5.505614355206489563e-02
7.426843512803316116e-03
-5.778808891773223877e-02
-4.412894323468208313e-02
-4.145459085702896118e-02
-3.543451428413391113e-02
-1.173857692629098892e-02
1.417406462132930756e-02
-1.573652774095535278e-02
6.129626929759979248e-02
-4.814431443810462952e-02
-5.997875332832336426e-02
-5.429523810744285583e-02
2.408021688461303711e-02
4.758815839886665344e-02
-6.069652736186981201e-02
1.520082633942365646e-02
2.303879521787166595e-02
-2.541994489729404449e-02
-3.257312253117561340e-02
2.101776376366615295e-02
-1.982460170984268188e-02
7.372962310910224915e-03
-4.772923141717910767e-02
-4.072073474526405334e-02
-5.896637961268424988e-02
1.192308403551578522e-02
3.194736316800117493e-02
-3.399247303605079651e-02
3.761135041713714600e-02
2.912731096148490906e-02
-5.215473473072052002e-02
-7.125260774046182632e-03
-1.521402224898338318e-02
6.182298064231872559e-02
5.839607212692499161e-03
-4.055636003613471985e-02
3.206048533320426941e-02
5.577040091156959534e-02
-3.329215571284294128e-02
1.142522972077131271e-02
-3.772071003913879395e-02
-1.141246594488620758e-02
-1.447572000324726105e-02
6.036861240863800049e-02
2.332429401576519012e-02
4.255144298076629639e-02
-9.724216535687446594e-03
1.222772896289825439e-02
1.452514063566923141e-02
3.985096141695976257e-02
2.480723708868026733e-02
4.421683400869369507e-02
-3.954432532191276550e-02
-4.565231129527091980e-02
6.037017330527305603e-03
2.773701399564743042e-02
2.328987699002027512e-03
-5.706647410988807678e-02
8.607817813754081726e-03
-1.169292163103818893e-02
-1.076979283243417740e-02
2.216807007789611816e-02
-3.846992505714297295e-03
-3.733419580385088921e-03
-5.375060066580772400e-02
-4.808711353689432144e-03
-2.317398786544799805e-03
-3.491766692604869604e-04
-2.700500376522541046e-02
-5.994195118546485901e-02
-3.332408890128135681e-02
-6.216755509376525879e-02
1.140663120895624161e-02
3.511101007461547852e-02
1.479871943593025208e-02
2.009414136409759521e-02
-2.451755665242671967e-02
-6.883334368467330933e-03
-1.328191487118601799e-03
1.173068117350339890e-02
-5.071498826146125793e-02
1.683097705245018005e-02
-5.749082937836647034e-02
4.442668333649635315e-02
4.713913798332214355e-02
-1.616959087550640106e-02
2.199825271964073181e-02
3.071244060993194580e-02
-7.986893877387046814e-03
1.524019334465265274e-02
3.949377685785293579e-02
-7.951607927680015564e-03
4.871255904436111450e-02
-4.019931703805923462e-02
-5.581957474350929260e-02
-3.794305771589279175e-02
-3.691052272915840149e-02
3.658575192093849182e-02
-4.683138802647590637e-03
4.577125608921051025e-02
-5.799402948468923569e-03
-3.067789040505886078e-02
-8.728211745619773865e-03
-1.432655379176139832e-02
-4.933322593569755554e-02
1.754827424883842468e-02
-3.876754641532897949e-02
1.289850194007158279e-02
-1.937199011445045471e-02
-3.087492845952510834e-02
4.647323116660118103e-02
2.255701273679733276e-02
-4.821186885237693787e-02
-3.814135491847991943e-02
-4.013131558895111084e-02
-5.813639983534812927e-02
2.360987477004528046e-02
-1.109017431735992432e-02
8.396831341087818146e-03
8.071809075772762299e-03
-2.466603182256221771e-02
-4.173932538833469152e-04
-5.807569250464439392e-02
2.164960838854312897e-03
-3.800605982542037964e-02
-3.919528424739837646e-02
1.616567373275756836e-02
2.176001900807023048e-03
-3.103032894432544708e-02
-4.985527694225311279e-02
3.304317221045494080e-02
2.900634706020355225e-02
-5.173824355006217957e-02
-2.527697198092937469e-02
-6.032187491655349731e-02
6.155020371079444885e-02
-3.557942807674407959e-02
3.050895780324935913e-02
7.087470591068267822e-02
5.843190476298332214e-03
3.343326970934867859e-02
5.401207134127616882e-02
2.560629323124885559e-02
1.218135803937911987e-01
4.883488267660140991e-02
-4.966971930116415024e-03
5.781988054513931274e-02
-7.903120666742324829e-02
-6.023913249373435974e-02
4.500962048768997192e-02
-2.144353277981281281e-02
-7.620686292648315430e-02
5.142581462860107422e-02
-5.289547890424728394e-02
6.218999996781349182e-02
-4.915614053606987000e-02
2.032543160021305084e-02
2.035229094326496124e-02
8.418929576873779297e-02
1.689232536591589451e-03
-4.201210662722587585e-02
7.064712047576904297e-02
-3.782521933317184448e-02
2.050161175429821014e-02
-4.374330863356590271e-02
-4.097953438758850098e-02
5.046670511364936829e-02
7.905393838882446289e-03
-4.089730605483055115e-02
5.738675594329833984e-03
-3.060066699981689453e-02
5.161695927381515503e-02
2.748796343803405762e-02
-1.305141486227512360e-03
-6.758438795804977417e-02
-3.775216871872544289e-03
2.785363793373107910e-02
-5.161003023386001587e-02
-5.574417486786842346e-02
-7.393585145473480225e-02
-8.375328965485095978e-03
-6.090501323342323303e-02
2.066774480044841766e-02
-1.199600170366466045e-03
5.939214304089546204e-02
-9.000270627439022064e-03
1.595694385468959808e-02
8.317925035953521729e-03
1.321530528366565704e-02
4.205505922436714172e-02
2.458672225475311279e-02
5.661991238594055176e-02
5.750082805752754211e-02
-5.093640461564064026e-02
5.115995649248361588e-03
2.851828187704086304e-02
6.469231843948364258e-02
-7.098344713449478149e-02
5.482160672545433044e-02
2.802774123847484589e-02
5.639813840389251709e-02
-5.544076859951019287e-02
1.062035374343395233e-02
3.093145973980426788e-02
5.888993665575981140e-02
-6.398616731166839600e-02
-3.422590205445885658e-03
1.323510310612618923e-03
1.753295026719570160e-02
3.077557124197483063e-02
2.204878488555550575e-03
-3.867221996188163757e-02
5.008465796709060669e-02
1.139269489794969559e-02
4.046681150794029236e-02
-4.051915556192398071e-02
2.791585028171539307e-02
4.351054131984710693e-02
-1.705499738454818726e-02
-3.095140308141708374e-02
-8.019193075597286224e-03
3.246334567666053772e-02
1.295453286729753017e-03
-3.864922747015953064e-02
5.402373522520065308e-02
-1.465773396193981171e-02
-2.504923194646835327e-02
2.844122797250747681e-02
7.100269431248307228e-04
2.283204114064574242e-03
3.933605551719665527e-02
5.318495631217956543e-02
2.306752651929855347e-02
-1.658202707767486572e-02
-2.326455898582935333e-02
-1.599514798726886511e-04
3.669917583465576172e-02
-4.792973771691322327e-02
4.119990766048431396e-02
7.826307788491249084e-03
1.621851348318159580e-03
1.817983947694301605e-02
8.089236915111541748e-03
-6.018540263175964355e-02
1.674856431782245636e-02
3.016912937164306641e-02
7.756106089800596237e-03
-1.439791917800903320e-02
2.404073998332023621e-02
3.147554025053977966e-02
4.479569941759109497e-02
3.550574183464050293e-02
8.753437548875808716e-03
1.975194178521633148e-02
-2.453641779720783234e-02
2.431137301027774811e-02
-3.487560153007507324e-02
-4.922800138592720032e-02
8.008345961570739746e-03
2.002237364649772644e-02
-4.943535476922988892e-02
-7.800833322107791901e-03
5.268863961100578308e-02
4.125133156776428223e-02
3.198073431849479675e-02
5.111281573772430420e-02
-2.346601523458957672e-02
-6.971523910760879517e-02
3.453366085886955261e-02
-6.563542876392602921e-03
3.343138098716735840e-02
-2.487745136022567749e-02
3.338338807225227356e-02
-2.436313778162002563e-03
5.129027180373668671e-03
-3.908999636769294739e-02
-4.499134048819541931e-02
-1.370953395962715149e-03
-4.347770661115646362e-02
-2.166924439370632172e-02
2.454383298754692078e-02
2.213925123214721680e-02
5.122220888733863831e-02
3.835528157651424408e-03
1.148361526429653168e-02
-3.087586350739002228e-02
9.810867160558700562e-02
6.020477041602134705e-02
-7.623206824064254761e-02
-8.794610202312469482e-02
-2.420389652252197266e-02
-2.955542178824543953e-03
7.579660508781671524e-03
4.367821291089057922e-02
-6.390751153230667114e-02
1.803845167160034180e-02
4.573009908199310303e-02
-4.660440608859062195e-02
-1.471854839473962784e-02
-8.941737934947013855e-03
-2.487173117697238922e-02
-3.799271583557128906e-02
-5.319234915077686310e-03
3.430273151025176048e-03
-5.101787298917770386e-02
4.760135710239410400e-02
-4.810424149036407471e-02
-3.055427921935915947e-03
1.116876956075429916e-02
5.376330018043518066e-02
-4.203092306852340698e-02
-4.089437797665596008e-02
-2.703569829463958740e-03
-2.971046417951583862e-02
1.599923521280288696e-02
3.228069469332695007e-02
7.255700230598449707e-02
-8.994279801845550537e-02
-1.117394678294658661e-02
9.747759997844696045e-02
-4.871489107608795166e-02
-7.916940748691558838e-02
7.567401975393295288e-02
-3.188285604119300842e-02
3.439081087708473206e-02
-3.978332504630088806e-02
-2.964386530220508575e-02
3.497225046157836914e-02
-1.319818291813135147e-02
-8.436141069978475571e-04
-4.171690344810485840e-02
-6.774611305445432663e-03
5.609790980815887451e-02
1.494682673364877701e-02
-1.548576634377241135e-02
7.396992295980453491e-02
4.833107441663742065e-02
3.644962608814239502e-02
4.461869597434997559e-03
-4.929642751812934875e-02
-1.962051726877689362e-02
-4.998273029923439026e-02
3.631398081779479980e-02
-2.992694266140460968e-03
3.430715948343276978e-02
-6.693773902952671051e-03
6.071432307362556458e-02
5.959850549697875977e-02
2.845964394509792328e-02
-3.186141699552536011e-02
1.783877424895763397e-02
-3.592266142368316650e-02
4.755667597055435181e-02
3.362308442592620850e-02
7.042969763278961182e-02
-1.046748366206884384e-02
-6.092048250138759613e-03
-1.090127229690551758e-02
-2.558393962681293488e-02
5.713230371475219727e-02
2.617361210286617279e-02
-1.184672117233276367e-02
-2.314865961670875549e-02
-4.794784262776374817e-02
2.583921421319246292e-03
1.276668254286050797e-02
-5.607547983527183533e-02
3.042411524802446365e-03
-3.736901283264160156e-02
-3.152522072196006775e-02
-2.694763056933879852e-02
1.726042851805686951e-02
-2.303957240656018257e-03
2.388543263077735901e-02
-3.795877564698457718e-03
8.424239233136177063e-03
-6.187325343489646912e-02
3.760465420782566071e-03
-2.506207302212715149e-02
2.886493317782878876e-02
-1.600262708961963654e-02
-2.614344283938407898e-02
-4.512307420372962952e-02
-4.882853478193283081e-02
1.329363230615854263e-02
7.730288058519363403e-02
3.157147020101547241e-02
-4.683237895369529724e-02
4.889435321092605591e-02
3.078223951160907745e-02
-5.213253200054168701e-02
-5.772668123245239258e-02
-1.004525739699602127e-02
2.673727460205554962e-02
-6.574684381484985352e-02
3.588468208909034729e-02
2.831210196018218994e-02
8.666277863085269928e-03
-9.056170471012592316e-03
-1.028839033097028732e-02
-1.055543217808008194e-02
-2.373059839010238647e-02
5.792202427983283997e-02
-7.496103178709745407e-03
-5.155935510993003845e-02
-1.113953534513711929e-02
5.889123305678367615e-02
-6.453821063041687012e-02
4.331033676862716675e-02
-4.231778159737586975e-02
-2.861009165644645691e-02
-2.104665711522102356e-02
-1.178916729986667633e-02
3.170207142829895020e-02
2.719121985137462616e-02
5.929806455969810486e-02
-1.360965892672538757e-02
3.812088072299957275e-02
5.225789546966552734e-02
-3.861826658248901367e-02
4.899319633841514587e-02
-3.196616843342781067e-02
4.017787426710128784e-02
5.210685729980468750e-02
-5.821304768323898315e-02
-4.332940652966499329e-02
5.678069591522216797e-02
3.027665987610816956e-02
-1.616020128130912781e-02
2.183906733989715576e-02
-2.966045215725898743e-02
1.180371176451444626e-02
5.935696535743772984e-04
5.975028034299612045e-03
-3.227698430418968201e-02
4.556204006075859070e-02
1.219018734991550446e-02
1.741776242852210999e-02
-1.809296384453773499e-02
-5.475560948252677917e-02
4.015488177537918091e-02
2.948165871202945709e-02
-1.642374409129843116e-04
7.314573228359222412e-02
5.882745236158370972e-02
-1.127378642559051514e-02
-4.727895930409431458e-02
5.780167505145072937e-02
-3.340377705171704292e-03
-2.473641745746135712e-02
-4.818682000041007996e-02
-5.979706719517707825e-02
3.023908101022243500e-02
-3.023437224328517914e-02
-1.539652422070503235e-02
3.493678756058216095e-03
5.735145416110754013e-03
3.127451241016387939e-02
4.024144634604454041e-02
6.103536114096641541e-02
2.055129595100879669e-02
3.715033456683158875e-02
-4.799151793122291565e-02
-8.798106573522090912e-03
2.612713025882840157e-03
2.746150083839893341e-02
-6.266681849956512451e-02
1.076557394117116928e-02
-5.819118395447731018e-02
5.668384581804275513e-02
2.392568811774253845e-02
1.321229338645935059e-02
-4.086748883128166199e-02
1.396921090781688690e-02
-3.712496906518936157e-02
-2.234765328466892242e-03
4.417490959167480469e-02
-2.700915187597274780e-02
2.004797197878360748e-02
2.329679206013679504e-02
2.866232395172119141e-02
-8.966274559497833252e-03
-1.852170191705226898e-02
-1.147393509745597839e-02
4.717558249831199646e-02
-1.200627349317073822e-02
-2.476919069886207581e-02
-2.742793224751949310e-02
-4.602716863155364990e-02
-2.405872941017150879e-02
-3.649384900927543640e-02
-1.718756626360118389e-03
-5.796638503670692444e-02
7.811801042407751083e-03
-3.332931175827980042e-02
-1.710717380046844482e-02
4.945984110236167908e-02
-4.671836271882057190e-03
-2.791975252330303192e-02
-6.783489882946014404e-02
6.925040856003761292e-03
6.176266446709632874e-02
-2.576108556240797043e-03
4.804325103759765625e-02
-3.987665846943855286e-02
4.141127690672874451e-02
-2.003681473433971405e-02
-2.756060287356376648e-02
-3.770468384027481079e-02
2.104694396257400513e-02
-4.684053361415863037e-03
-3.838197886943817139e-02
3.280182555317878723e-02
3.122551925480365753e-02
6.603836547583341599e-03
1.674357056617736816e-02
4.107953980565071106e-03
-3.308211639523506165e-02
-3.957470878958702087e-02
-3.362312167882919312e-02
3.054707124829292297e-02
2.585916779935359955e-03
-4.641401022672653198e-02
4.618614539504051208e-02
-2.236509136855602264e-02
5.599288642406463623e-02
5.145412683486938477e-02
6.133989989757537842e-02
-3.135403245687484741e-02
-4.993025586009025574e-02
-3.032277524471282959e-02
5.486391857266426086e-02
2.135662920773029327e-02
5.686995014548301697e-02
-5.073395371437072754e-02
-3.036107122898101807e-02
-6.486606597900390625e-02
-6.496450304985046387e-02
-3.650719998404383659e-03
-4.154736548662185669e-02
-5.791486427187919617e-02
2.883332781493663788e-02
-4.054637998342514038e-02
2.281581237912178040e-02
7.392040640115737915e-02
-3.174122050404548645e-02
-4.793988540768623352e-02
6.593750324100255966e-03
-1.454683719202876091e-03
1.693732105195522308e-02
-4.701301082968711853e-02
-3.983288258314132690e-02
-2.516901306807994843e-02
4.059840738773345947e-02
-1.237670518457889557e-02
-3.523654490709304810e-02
5.075534805655479431e-02
6.008226051926612854e-02
-4.002185165882110596e-02
-4.175411537289619446e-02
-3.116365987807512283e-03
-3.704964742064476013e-02
-3.914616629481315613e-02
2.025469765067100525e-02
-1.207990944385528564e-02
-2.067234553396701813e-02
-3.467402234673500061e-02
5.385817587375640869e-02
-2.893311344087123871e-02
4.575223103165626526e-02
3.477735444903373718e-02
-5.080794543027877808e-02
1.850539073348045349e-02
-1.278363261371850967e-02
9.339735843241214752e-03
6.595182418823242188e-02
-1.619815453886985779e-02
7.054995000362396240e-02
3.180125355720520020e-02
2.198101021349430084e-02
-6.974826753139495850e-02
-1.332254614681005478e-02
1.784457638859748840e-02
-1.351755391806364059e-02
-6.633138656616210938e-02
-5.139040946960449219e-02
1.434054574929177761e-03
3.799871355295181274e-02
-5.981447920203208923e-02
-4.588346928358078003e-03
-5.554007738828659058e-02
-2.040239237248897552e-02
-5.204154178500175476e-03
2.896690554916858673e-02
1.194330677390098572e-02
-4.206637293100357056e-02
-4.764040559530258179e-02
-5.517004802823066711e-02
-1.894588395953178406e-02
-1.973456144332885742e-02
2.305147051811218262e-02
2.178683644160628319e-03
-4.061644151806831360e-02
-1.870112493634223938e-02
-1.750888623064383864e-04
-2.626664936542510986e-02
-4.419928044080734253e-02
-2.546032145619392395e-02
2.190172113478183746e-02
5.358335096389055252e-03
3.425594791769981384e-02
3.502453863620758057e-02
5.880015715956687927e-02
1.943038776516914368e-02
-2.984912693500518799e-02
-1.714061072561889887e-04
-1.732557895593345165e-03
5.231113359332084656e-02
7.641299813985824585e-02
2.775306254625320435e-02
-4.731180518865585327e-02
-6.616628728806972504e-03
-2.676278166472911835e-02
3.524451050907373428e-03
1.773640513420104980e-02
6.358806788921356201e-02
-2.061943290755152702e-03
5.062070861458778381e-02
1.254438329488039017e-02
6.353464722633361816e-02
-5.158638581633567810e-02
5.999269336462020874e-02
-6.165855750441551208e-02
-3.309341147541999817e-02
-4.749184101819992065e-02
-3.784197568893432617e-02
-9.071987122297286987e-03
-5.864593200385570526e-03
-2.609211020171642303e-02
-4.378657788038253784e-02
7.555219344794750214e-03
-3.234579414129257202e-02
-6.476969923824071884e-03
-4.837341234087944031e-02
-3.677375614643096924e-02
7.690405100584030151e-02
-7.079525850713253021e-03
-2.379982179263606668e-04
-6.860117614269256592e-02
-2.768844366073608398e-02
5.675044283270835876e-02
6.293838960118591785e-04
-6.340207066386938095e-03
5.771354585886001587e-02
4.719318822026252747e-02
4.662059620022773743e-02
-5.539032816886901855e-02
2.597999759018421173e-02
-3.292274847626686096e-02
-4.036077484488487244e-02
-7.461963221430778503e-03
-4.626891389489173889e-02
-6.079574674367904663e-02
-3.375480696558952332e-02
-6.712820380926132202e-02
4.377285763621330261e-02
-2.987356483936309814e-02
6.838690489530563354e-02
3.462576866149902344e-02
6.089927256107330322e-02
-2.563097281381487846e-03
6.535217165946960449e-02
5.386897921562194824e-02
1.344068255275487900e-02
-4.658189043402671814e-02
-9.047876228578388691e-04
8.744480088353157043e-03
-1.813217438757419586e-02
-4.420871287584304810e-02
-4.988955333828926086e-02
2.849972061812877655e-02
-7.590194232761859894e-03
-4.550677537918090820e-02
-5.820656567811965942e-02
-1.844666711986064911e-02
-4.889708012342453003e-02
-5.189299583435058594e-02
-5.778975412249565125e-02
6.156767532229423523e-02
-3.969006240367889404e-02
3.203049674630165100e-02
-5.274895578622817993e-02
3.240706771612167358e-02
-1.392272580415010452e-02
-1.237454079091548920e-02
-4.814612120389938354e-02
-2.210562489926815033e-02
-4.112318530678749084e-02
5.365848541259765625e-02
-9.289012290537357330e-03
-4.670605808496475220e-02
3.653295710682868958e-02
1.064833626151084900e-02
8.040591143071651459e-03
8.484299480915069580e-02
-1.519970316439867020e-02
3.536343947052955627e-02
3.363930806517601013e-02
-6.233595311641693115e-02
-5.518506467342376709e-02
3.475626185536384583e-02
-3.314105421304702759e-02
4.838272184133529663e-02
-2.023501694202423096e-02
8.848308585584163666e-03
4.990548640489578247e-02
5.832311138510704041e-02
-2.828157320618629456e-02
2.137161046266555786e-02
-3.322345018386840820e-02
8.037519641220569611e-03
-2.129494096152484417e-04
2.786729671061038971e-02
-5.028576590120792389e-03
9.282568469643592834e-03
2.933498285710811615e-02
-6.562550365924835205e-02
-3.130145743489265442e-02
-1.824278198182582855e-02
-5.302501842379570007e-03
-2.659010700881481171e-02
7.692129164934158325e-02
-5.115523561835289001e-02
3.531483188271522522e-02
-3.740354999899864197e-02
3.886895999312400818e-02
3.313830494880676270e-02
5.109322723001241684e-03
-1.439621439203619957e-03
4.794801026582717896e-02
1.704312302172183990e-02
-7.497351616621017456e-03
3.387309610843658447e-02
-5.653471872210502625e-02
-2.546444348990917206e-02
-4.243285860866308212e-03
5.885647609829902649e-02
5.597288906574249268e-02
-5.064826086163520813e-02
-1.742865145206451416e-02
7.293186336755752563e-02
1.193183381110429764e-02
8.562620729207992554e-03
-1.222730614244937897e-02
-1.419370993971824646e-02
4.733426496386528015e-02
-3.566458076238632202e-02
1.431183051317930222e-02
7.284665480256080627e-03
-4.076263681054115295e-02
-4.515209794044494629e-02
-1.596579886972904205e-02
-1.375643443316221237e-02
1.309281773865222931e-02
1.828726567327976227e-02
2.841353416442871094e-03
4.228658974170684814e-02
-3.081934899091720581e-02
6.729868054389953613e-02
-4.475086927413940430e-02
-1.092861685901880264e-02
3.618338378146290779e-03
-2.111297473311424255e-02
-4.315887019038200378e-02
-2.544007031247019768e-03
-1.396200619637966156e-02
-5.158443935215473175e-03
7.307093124836683273e-03
2.860252186655998230e-02
2.740609087049961090e-02
-3.051400743424892426e-02
-4.467525705695152283e-02
-3.314771130681037903e-02
3.905409574508666992e-02
5.295849218964576721e-02
-1.195544935762882233e-02
-3.904441837221384048e-03
2.981581352651119232e-02
2.558774501085281372e-02
3.710530698299407959e-02
-4.157945513725280762e-02
-5.124342069029808044e-02
-9.212774783372879028e-02
4.827487096190452576e-02
-3.673518775030970573e-03
7.879596203565597534e-03
-1.944914646446704865e-02
-5.192696303129196167e-02
-2.184871397912502289e-02
-1.558016985654830933e-02
-7.151629775762557983e-02
-1.768535561859607697e-02
-4.974000155925750732e-02
-5.066336318850517273e-02
-9.891375899314880371e-03
-2.674745046533644199e-04
-2.643346041440963745e-02
6.600327044725418091e-02
-5.787366256117820740e-02
4.998234286904335022e-02
-3.512686118483543396e-02
6.124663725495338440e-02
-5.147038958966732025e-03
-3.033072128891944885e-02
-4.829812794923782349e-02
-3.059445321559906006e-02
1.166999433189630508e-02
8.489294350147247314e-02
4.591042920947074890e-02
3.896813467144966125e-02
1.078180503100156784e-02
-1.127540017478168011e-03
-4.702829942107200623e-02
6.357877701520919800e-02
-2.763755619525909424e-02
-2.015886828303337097e-02
2.966944593936204910e-03
-1.294072624295949936e-02
-3.690220043063163757e-02
2.027518115937709808e-02
5.431665107607841492e-03
-4.685421008616685867e-03
6.900272518396377563e-02
-4.827175289392471313e-02
-1.945505151525139809e-03
-7.491764426231384277e-02
-4.287682846188545227e-02
3.224596381187438965e-02
5.371646210551261902e-02
-7.113773375749588013e-02
-6.459863483905792236e-02
-7.200348377227783203e-02
6.454905029386281967e-03
-1.793559826910495758e-02
-2.089126966893672943e-02
-4.912802483886480331e-03
-3.048166632652282715e-03
-8.511614985764026642e-03
5.498150363564491272e-02
2.391785383224487305e-02
5.852230265736579895e-02
2.871356345713138580e-02
5.072518438100814819e-02
1.811141148209571838e-02
-5.092437192797660828e-02
-6.146862357854843140e-02
-1.535067567601799965e-04
2.600732445716857910e-02
3.584945108741521835e-03
-3.292229725047945976e-03
-6.958841532468795776e-02
4.582104086875915527e-02
2.195768989622592926e-02
2.518031373620033264e-02
5.116638541221618652e-02
3.812857717275619507e-02
-1.015405356884002686e-02
3.821521624922752380e-02
1.474967878311872482e-02
4.873552173376083374e-02
5.404927581548690796e-02
-2.019928582012653351e-02
6.205869838595390320e-02
-4.912681877613067627e-02
4.591366648674011230e-02
-3.178388997912406921e-02
4.542499408125877380e-02
-2.572092600166797638e-02
1.860667578876018524e-02
-2.764738909900188446e-02
-1.973735354840755463e-02
-4.445991665124893188e-02
-1.681661792099475861e-02
3.273398615419864655e-03
1.061222236603498459e-02
-5.734837427735328674e-02
4.892572388052940369e-02
6.265913695096969604e-02
1.133520156145095825e-02
-8.338239789009094238e-02
-3.590887354221194983e-04
-3.364564850926399231e-02
-4.423076659440994263e-02
-7.665529847145080566e-02
5.172409862279891968e-02
4.301541298627853394e-02
1.580082066357135773e-02
-4.563104826956987381e-03
-5.976448580622673035e-02
-8.189721405506134033e-02
2.774916775524616241e-02
6.701516453176736832e-03
6.077424064278602600e-02
-2.625333145260810852e-02
5.265871062874794006e-03
-3.920105844736099243e-02
-6.216748151928186417e-03
3.534726053476333618e-02
-4.705860093235969543e-02
5.966144055128097534e-02
1.183828525245189667e-02
-6.677296012639999390e-02
6.376524455845355988e-03
5.911721289157867432e-02
1.427754200994968414e-02
4.218344693072140217e-04
1.947459578514099121e-02
-7.185132801532745361e-02
-8.384186774492263794e-02
2.684917300939559937e-02
3.348330408334732056e-02
-1.353116147220134735e-02
-5.784068722277879715e-03
5.133765935897827148e-02
-6.870250403881072998e-02
-2.507467195391654968e-02
3.309287503361701965e-02
-1.653379760682582855e-02
-6.948849186301231384e-03
4.143353551626205444e-02
-4.659353569149971008e-02
-5.306671187281608582e-02
3.687411313876509666e-03
-6.584381312131881714e-02
6.127936765551567078e-02
-6.796673405915498734e-03
4.264873918145895004e-03
7.650840282440185547e-02
8.066822588443756104e-02
-3.397679328918457031e-02
-1.378571242094039917e-02
7.838276028633117676e-02
-4.767016693949699402e-02
4.278888925909996033e-02
-3.290252760052680969e-02
-1.945645734667778015e-02
-3.436537459492683411e-02
3.921269997954368591e-02
-7.330352813005447388e-02
-4.463883489370346069e-02
-6.568615883588790894e-02
8.075363934040069580e-03
1.480672694742679596e-02
-1.788622757885605097e-04
5.336909089237451553e-03
-1.986842975020408630e-02
3.889372199773788452e-02
-4.120835289359092712e-02
4.603498615324497223e-03
1.711344532668590546e-02
-7.083825021982192993e-02
2.977729402482509613e-02
-1.210061274468898773e-02
5.711241066455841064e-02
-1.741895684972405434e-03
9.057854302227497101e-03
-3.185266256332397461e-02
3.176771104335784912e-02
-2.614246681332588196e-02
3.308857604861259460e-02
2.293265424668788910e-02
-2.862272085621953011e-03
-2.721154689788818359e-02
-1.919937506318092346e-02
-1.055811252444982529e-02
-1.305450871586799622e-02
-1.860974170267581940e-02
-2.502426877617835999e-02
-1.448979135602712631e-02
-6.640098243951797485e-02
-3.501728177070617676e-02
8.975777309387922287e-04
5.922126024961471558e-02
5.970081314444541931e-02
6.622022390365600586e-02
-7.224185764789581299e-02
9.738790802657604218e-03
1.427071541547775269e-02
1.361073274165391922e-02
-6.621935963630676270e-02
-4.632458835840225220e-02
-5.586991086602210999e-02
2.335613407194614410e-02
-5.634924024343490601e-02
-3.937437012791633606e-02
4.063836764544248581e-03
1.379372202791273594e-03
2.226025424897670746e-02
5.289714783430099487e-02
1.517725735902786255e-02
-3.840127727016806602e-03
5.431895609945058823e-03
-1.455301232635974884e-02
-6.003662198781967163e-02
-4.392567649483680725e-02
8.110658824443817139e-02
1.029588580131530762e-01
-5.782298371195793152e-02
-6.739065051078796387e-02
2.577478997409343719e-03
-2.785884030163288116e-02
-5.163847282528877258e-02
-1.260857470333576202e-02
8.222518861293792725e-02
9.325310587882995605e-02
4.237025603652000427e-02
-2.795261330902576447e-02
3.835307061672210693e-02
7.892847806215286255e-02
-1.423453539609909058e-02
4.085685685276985168e-02
1.164596527814865112e-02
5.989407747983932495e-02
-5.211126804351806641e-02
-4.179444164037704468e-02
-3.873881325125694275e-02
-2.445510029792785645e-02
5.273593589663505554e-03
-2.215461432933807373e-02
-1.331669092178344727e-02
-2.649869583547115326e-02
-4.744524881243705750e-02
-8.317219093441963196e-03
8.211392909288406372e-03
-7.495473325252532959e-02
3.806670382618904114e-02
7.077656686305999756e-02
7.214021682739257812e-02
-3.876727074384689331e-02
5.614810623228549957e-03
5.895995348691940308e-02
-2.256784215569496155e-02
-5.711186304688453674e-02
-1.335543487221002579e-02
-2.638014848344027996e-04
3.030509687960147858e-02
3.743386268615722656e-02
3.417801111936569214e-02
5.036067217588424683e-02
-2.648378955200314522e-03
-3.720361739397048950e-02
-9.437245316803455353e-04
-1.358082611113786697e-02
-9.982838528230786324e-04
-6.003040447831153870e-02
-4.978312179446220398e-02
4.752728715538978577e-02
8.744453079998493195e-03
3.583207726478576660e-02
-7.311417907476425171e-02
-2.598433941602706909e-02
1.294407993555068970e-02
2.487177588045597076e-02
4.900493100285530090e-02
5.401514098048210144e-02
-7.130180299282073975e-02
-3.744773939251899719e-02
8.069472387433052063e-03
-3.009167499840259552e-02
8.917026221752166748e-03
-3.147492930293083191e-02
3.783478215336799622e-02
5.379488691687583923e-02
-3.356721997261047363e-02
3.342437371611595154e-02
-7.937125116586685181e-02
-7.908082753419876099e-02
2.700581029057502747e-02
1.564288139343261719e-02
7.901720702648162842e-02
-4.505681246519088745e-02
-7.480827625840902328e-03
2.041713893413543701e-02
9.308418259024620056e-03
1.811328902840614319e-02
-8.526288904249668121e-03
-8.496518433094024658e-02
2.983258664608001709e-02
-3.144195675849914551e-02
6.225695088505744934e-02
-5.532127991318702698e-02
1.570582948625087738e-02
-2.263642847537994385e-02
5.677310004830360413e-02
3.980344161391258240e-02
1.947513967752456665e-02
7.497405260801315308e-02
5.945949256420135498e-02
5.031420290470123291e-02
-4.264465346932411194e-02
9.811809286475181580e-03
3.162003308534622192e-02
-1.871954835951328278e-02
-2.977770194411277771e-02
-6.288583576679229736e-02
5.456168204545974731e-02
2.080894261598587036e-02
-7.656694948673248291e-02
-2.657648408785462379e-03
9.052806533873081207e-03
3.834418952465057373e-02
3.593244031071662903e-02
1.475093606859445572e-02
-5.002636834979057312e-02
4.518553242087364197e-02
-5.293945595622062683e-02
-6.500957161188125610e-02
-1.112296804785728455e-02
4.170573130249977112e-02
8.556645363569259644e-03
-5.908239260315895081e-02
1.149164978414773941e-02
-1.120832785964012146e-01
2.244740538299083710e-02
1.483095996081829071e-02
-9.930716454982757568e-02
2.166323550045490265e-02
-4.359854385256767273e-02
8.797977119684219360e-03
-1.545755472034215927e-02
4.577401652932167053e-02
-8.779332041740417480e-03
-4.551926255226135254e-02
-7.377228140830993652e-02
5.297870188951492310e-02
-5.306401848793029785e-02
-4.153494536876678467e-02
6.986932456493377686e-02
1.903892867267131805e-02
-4.958407580852508545e-02
-9.753832221031188965e-02
2.229796163737773895e-02
3.786222636699676514e-02
-3.481817257124930620e-04
-4.124401137232780457e-02
2.456771582365036011e-02
-4.359252750873565674e-02
7.864998281002044678e-02
-1.717628538608551025e-02
-4.640882089734077454e-02
1.278992649167776108e-02
-5.619191005825996399e-02
8.560259826481342316e-03
-3.116945549845695496e-02
-2.921310253441333771e-02
2.908096276223659515e-02
7.099287584424018860e-03
-5.692624673247337341e-02
2.627754770219326019e-02
-2.517784945666790009e-02
1.291519217193126678e-02
3.525191545486450195e-02
-3.926897048950195312e-02
-3.848127648234367371e-02
-2.106202393770217896e-02
-2.343675494194030762e-02
-2.634507790207862854e-02
5.508009344339370728e-02
-5.403597280383110046e-02
-2.447033487260341644e-02
3.611524403095245361e-02
-1.738582551479339600e-02
7.227684371173381805e-03
-2.494753524661064148e-02
5.547353997826576233e-02
-4.889192059636116028e-02
-1.803849637508392334e-02
2.719160914421081543e-02
-1.089185383170843124e-02
2.665138803422451019e-02
-6.780953705310821533e-02
6.577187217772006989e-03
1.987901516258716583e-02
-2.058720774948596954e-02
-1.750888186506927013e-03
-1.253005862236022949e-02
5.927408114075660706e-02
-4.246243089437484741e-02
1.963007822632789612e-02
6.193250045180320740e-02
2.650552801787853241e-02
3.275190666317939758e-02
-3.520699962973594666e-02
1.575164310634136200e-02
2.763267606496810913e-02
1.849024742841720581e-02
1.386034488677978516e-02
-5.652632564306259155e-02
2.504848130047321320e-02
-7.526744622737169266e-03
9.612665511667728424e-03
3.262119367718696594e-02
-5.388709530234336853e-02
-1.532686315476894379e-02
2.099875546991825104e-02
5.365123227238655090e-02
-7.037340197712182999e-03
-1.800728728994727135e-03
-1.188613194972276688e-02
-1.134998630732297897e-02
-1.887556910514831543e-02
-2.493817918002605438e-02
-3.540752222761511803e-04
9.268885478377342224e-03
1.735549420118331909e-03
-4.377504065632820129e-02
9.612923488020896912e-03
-2.320850081741809845e-02
9.889133274555206299e-03
8.122664876282215118e-03
2.823242172598838806e-02
-7.420052774250507355e-03
-1.511753536760807037e-02
-3.222008049488067627e-02
5.928082391619682312e-02
-5.173632130026817322e-02
3.666612878441810608e-02
-3.074238076806068420e-02
-5.075946450233459473e-02
2.298375219106674194e-02
-1.013531070202589035e-02
4.339055344462394714e-02
-3.390493243932723999e-02
2.712325891479849815e-03
-2.784581482410430908e-02
2.801056951284408569e-02
-1.482538878917694092e-03
3.900545462965965271e-02
-5.489463731646537781e-02
-1.215545460581779480e-02
1.594663225114345551e-02
4.096078500151634216e-02
-1.056753285229206085e-02
-3.883742913603782654e-02
2.791176922619342804e-02
4.149099811911582947e-02
4.237933084368705750e-02
-4.068297520279884338e-02
-4.279354214668273926e-02
-4.088994115591049194e-02
3.133067861199378967e-02
5.408172309398651123e-02
-8.486089063808321953e-04
-2.184167876839637756e-02
4.413983970880508423e-02
4.446395486593246460e-02
-5.893077701330184937e-02
-7.107765972614288330e-02
1.852191053330898285e-02
-4.419380798935890198e-02
5.318059399724006653e-02
2.792218141257762909e-02
-3.971601650118827820e-02
1.979910070076584816e-03
3.519739955663681030e-02
3.254344686865806580e-02
-3.707619383931159973e-02
-3.052249178290367126e-02
2.660802565515041351e-02
-3.808534517884254456e-02
4.781302437186241150e-02
-5.897831171751022339e-02
7.055739406496286392e-03
5.275358632206916809e-02
1.436048070900142193e-03
5.741639435291290283e-02
-5.054340884089469910e-02
-5.576185137033462524e-02
-1.230809092521667480e-02
-2.895812503993511200e-02
4.556396976113319397e-02
5.067261680960655212e-02
-1.998957991600036621e-02
4.112524166703224182e-02
-8.819394744932651520e-03
3.673797845840454102e-02
4.503234475851058960e-02
4.659390822052955627e-02
5.477266386151313782e-02
-5.039571970701217651e-02
2.519527450203895569e-02
5.447734519839286804e-02
-5.053506419062614441e-02
-5.722070112824440002e-02
-3.925735130906105042e-02
-1.146338414400815964e-02
-4.886219650506973267e-02
1.802411046810448170e-03
1.175519864773377776e-04
5.785548128187656403e-03
1.099217496812343597e-02
-4.518822580575942993e-02
1.711628772318363190e-02
-5.115197971463203430e-03
5.232577025890350342e-02
-4.505451396107673645e-02
4.483180120587348938e-02
-6.215824745595455170e-03
4.566475749015808105e-02
4.744580015540122986e-02
-5.301949009299278259e-02
-1.356911938637495041e-02
2.431252039968967438e-02
-9.076760616153478622e-04
-3.813116345554590225e-03
-1.551021449267864227e-02
-2.136952988803386688e-02
-5.418519303202629089e-02
4.486879706382751465e-02
-5.708369612693786621e-02
6.305097602307796478e-03
-2.480628341436386108e-02
-1.106182206422090530e-02
-4.378145933151245117e-02
-4.209829121828079224e-02
-3.389007598161697388e-02
4.141281824558973312e-03
7.015069015324115753e-03
-2.933308249339461327e-03
-2.911432459950447083e-02
1.392560731619596481e-02
-3.513920679688453674e-02
-2.061379700899124146e-02
-2.895681373775005341e-02
-6.137449527159333229e-04
-4.321783408522605896e-02
3.697316721081733704e-02
1.194568630307912827e-02
-3.869554400444030762e-02
5.629547312855720520e-02
5.910109728574752808e-02
1.507677510380744934e-02
-3.162986366078257561e-03
-4.378941282629966736e-02
-6.518176198005676270e-02
-4.238133132457733154e-02
2.632747590541839600e-02
-4.111031815409660339e-02
9.068669751286506653e-03
5.157930776476860046e-02
-2.506790682673454285e-03
-5.244505405426025391e-02
-1.441433001309633255e-02
4.662121832370758057e-02
2.416577748954296112e-02
-4.207419231534004211e-02
-2.498907409608364105e-02
-3.998567536473274231e-02
-4.398960992693901062e-02
5.545350164175033569e-02
-5.236337528913281858e-05
2.031228505074977875e-02
-8.105717599391937256e-03
-4.664755985140800476e-02
-1.321085169911384583e-02
3.695765743032097816e-03
1.946062408387660980e-02
5.418023094534873962e-02
1.996849663555622101e-02
3.897465066984295845e-03
5.121352151036262512e-02
-5.086692795157432556e-02
-5.025578290224075317e-02
-1.275239791721105576e-02
-4.552240297198295593e-02
1.872152648866176605e-02
4.238129034638404846e-02
1.815405860543251038e-02
-4.200447723269462585e-02
-3.824233263731002808e-02
1.505203195847570896e-03
5.505637079477310181e-02
3.007420338690280914e-02
-5.108267068862915039e-02
-4.657337442040443420e-02
1.862810179591178894e-02
-6.198172271251678467e-02
-3.284818679094314575e-02
5.114457011222839355e-02
3.448642417788505554e-02
4.066833294928073883e-03
-1.417718641459941864e-02
3.155037760734558105e-02
-8.100760728120803833e-02
-3.559272969141602516e-03
-5.515154451131820679e-02
-1.797949336469173431e-02
-6.438793987035751343e-02
2.367540635168552399e-02
-6.190172210335731506e-02
-1.259728102013468742e-03
2.993622422218322754e-02
2.322420105338096619e-02
5.187638103961944580e-02
-2.033162117004394531e-02
7.460713852196931839e-03
3.607597574591636658e-02
-1.279594283550977707e-02
-3.616832569241523743e-02
-9.433899819850921631e-02
-7.025624811649322510e-02
-7.077328860759735107e-02
3.467119112610816956e-02
-7.968512922525405884e-02
-2.611219137907028198e-02
3.365381434559822083e-02
2.802694030106067657e-02
-6.135793868452310562e-03
-6.897436827421188354e-02
-8.582388609647750854e-02
3.484109416604042053e-02
7.412022352218627930e-02
7.709092646837234497e-02
-1.531164199113845825e-01
1.009605708532035351e-03
6.365230679512023926e-02
-4.394592717289924622e-02
4.353226348757743835e-02
8.805690705776214600e-02
4.324419423937797546e-02
8.265884593129158020e-03
4.726635292172431946e-02
-6.167739257216453552e-02
2.307447418570518494e-02
-1.677824743092060089e-02
-8.183699537767097354e-05
-5.783658102154731750e-02
5.500468541868031025e-04
-3.961725626140832901e-03
-2.844866551458835602e-02
-3.298920020461082458e-02
3.266728296875953674e-02
1.491890475153923035e-02
6.510569900274276733e-02
-1.197754219174385071e-02
2.102920040488243103e-02
1.997642219066619873e-02
4.345633089542388916e-02
-4.754606261849403381e-02
6.231508217751979828e-03
-5.167543143033981323e-02
-7.226248737424612045e-03
4.145141225308179855e-03
1.120102033019065857e-02
-2.122041303664445877e-03
-1.110783778131008148e-02
-1.007331758737564087e-01
3.270323202013969421e-02
-3.797622770071029663e-02
5.637323483824729919e-02
-6.234351173043251038e-02
-4.929825291037559509e-02
-4.142985492944717407e-02
9.098820388317108154e-03
-4.432332143187522888e-02
-6.336906459182500839e-03
4.078878462314605713e-02
7.315464783459901810e-03
1.641048118472099304e-02
3.512395173311233521e-02
1.192583665251731873e-01
7.850138098001480103e-02
-4.838871210813522339e-02
-8.134430274367332458e-03
3.204864263534545898e-02
-1.304153725504875183e-02
-5.984546616673469543e-02
-4.037142172455787659e-02
-4.452205821871757507e-02
1.199133228510618210e-02
-6.406264379620552063e-03
2.534702792763710022e-02
4.159883782267570496e-02
-1.269754767417907715e-02
-3.464703634381294250e-02
-2.972141467034816742e-02
6.558522582054138184e-02
-4.005353432148694992e-03
7.528783287853002548e-03
2.637238800525665283e-02
2.556184493005275726e-02
4.892418161034584045e-03
7.127769291400909424e-02
-1.145016867667436600e-02
-4.031053278595209122e-03
1.411941181868314743e-02
1.358893513679504395e-02
3.296986222267150879e-02
-5.073894560337066650e-02
9.676883928477764130e-03
-7.648732513189315796e-02
6.248976103961467743e-03
-7.161340117454528809e-02
-2.615991793572902679e-02
-2.649522386491298676e-02
4.718757420778274536e-02
-5.375902354717254639e-02
-8.442532271146774292e-02
-2.421284839510917664e-02
5.371737852692604065e-02
2.208685129880905151e-02
-5.541243776679039001e-02
-2.443437092006206512e-02
-8.332858234643936157e-02
4.320669174194335938e-02
-1.071393340826034546e-01
-7.815316319465637207e-03
-1.411497034132480621e-02
1.031336188316345215e-01
-1.483785659074783325e-01
-9.134312719106674194e-02
5.140991508960723877e-02
-6.925890594720840454e-02
-3.504089778289198875e-03
-3.103962168097496033e-02
8.805642277002334595e-02
-2.843335969373583794e-03
5.547425895929336548e-02
-7.780057936906814575e-02
4.653529729694128036e-03
3.698404505848884583e-02
1.202003285288810730e-01
-3.683374077081680298e-02
-9.678503498435020447e-03
6.564987450838088989e-02
8.476625382900238037e-02
-4.873911291360855103e-02
-1.540932711213827133e-02
-8.759117871522903442e-02
6.065925117582082748e-03
-4.423819854855537415e-02
3.712252154946327209e-02
2.378804236650466919e-02
5.095138773322105408e-02
1.701607555150985718e-02
4.845898970961570740e-02
-3.016703203320503235e-02
-2.894340641796588898e-02
2.025026828050613403e-02
5.449312925338745117e-02
-5.304634571075439453e-02
7.423839718103408813e-02
1.327678412199020386e-01
-1.643995009362697601e-02
-5.626010522246360779e-02
2.164327166974544525e-02
8.987220376729965210e-02
-1.364622730761766434e-02
-1.616476685740053654e-03
-5.756609141826629639e-02
6.748948246240615845e-02
9.739000350236892700e-03
-4.287741705775260925e-02
2.931114472448825836e-02
4.046485293656587601e-03
-9.161649271845817566e-03
5.186671018600463867e-02
5.299163516610860825e-03
1.172417774796485901e-03
-1.147003248333930969e-01
5.559047684073448181e-03
-1.888670213520526886e-02
5.641974136233329773e-02
-6.154165789484977722e-02
-1.932510174810886383e-02
5.055577028542757034e-03
2.865898981690406799e-02
5.896074697375297546e-02
2.458158694207668304e-02
5.084063857793807983e-02
6.410657614469528198e-02
3.784056752920150757e-02
-5.655165016651153564e-02
-2.769911661744117737e-03
7.021679729223251343e-02
-5.934480577707290649e-02
-1.400212105363607407e-02
2.984283864498138428e-02
-3.296111896634101868e-02
-6.008264049887657166e-02
8.300969749689102173e-02
6.216499209403991699e-02
-3.198571503162384033e-02
-2.402069978415966034e-02
-4.215855896472930908e-02
5.175494030117988586e-02
-1.894094236195087433e-02
-1.983549445867538452e-02
-1.219399389810860157e-03
2.094614133238792419e-02
5.028810724616050720e-02
5.134398490190505981e-02
-2.292994782328605652e-02
-5.439558625221252441e-02
7.885370403528213501e-03
8.694411814212799072e-02
7.613609731197357178e-02
8.636046200990676880e-03
1.907138898968696594e-02
-2.306006354046985507e-04
1.320360321551561356e-02
4.647307097911834717e-03
6.447207182645797729e-02
2.469555288553237915e-02
-8.969815075397491455e-02
-8.208458870649337769e-02
-7.377803325653076172e-02
-2.126757754012942314e-04
9.637739509344100952e-02
-1.484814286231994629e-02
7.842843234539031982e-02
-4.650164768099784851e-02
-1.576207391917705536e-02
-2.375430054962635040e-02
3.958062082529067993e-02
-1.488824724219739437e-03
4.085082560777664185e-02
-5.634802859276533127e-03
2.795962616801261902e-03
-1.863043196499347687e-02
4.217794165015220642e-02
1.829707995057106018e-02
5.539828538894653320e-02
-1.002816930413246155e-01
-3.282529488205909729e-02
2.221882529556751251e-02
-7.517913356423377991e-03
-3.791417926549911499e-02
6.712168455123901367e-02
-2.861895412206649780e-02
-2.586905099451541901e-02
3.906944394111633301e-02
6.431269645690917969e-02
1.701621711254119873e-02
-1.539557427167892456e-02
-5.289938673377037048e-02
6.799474358558654785e-02
-2.190314605832099915e-02
-1.024616733193397522e-01
-3.913987427949905396e-02
-2.824517898261547089e-02
1.006934493780136108e-01
-6.887037307024002075e-03
-4.592668265104293823e-02
8.152832277119159698e-03
6.309557706117630005e-02
-7.347271591424942017e-02
5.195130780339241028e-02
-4.357119277119636536e-02
-5.691187456250190735e-02
-4.426361620426177979e-02
2.466844208538532257e-02
8.094135671854019165e-02
-6.171051412820816040e-02
-7.306185364723205566e-02
-3.876188537105917931e-03
-6.566002219915390015e-02
-2.625661343336105347e-02
-4.194427281618118286e-02
2.693741582334041595e-03
-3.834121860563755035e-03
3.330431506037712097e-02
-3.944679349660873413e-02
-1.376407314091920853e-02
-2.951432578265666962e-02
-1.028567831963300705e-02
3.313462808728218079e-02
1.223376858979463577e-02
-5.752458795905113220e-02
-6.860746443271636963e-02
3.725062683224678040e-02
5.453193560242652893e-02
7.400239259004592896e-02
2.934696339070796967e-02
2.199139632284641266e-02
-1.546540949493646622e-02
3.930892795324325562e-02
1.363091915845870972e-02
-6.004581600427627563e-02
3.776305913925170898e-02
5.919700115919113159e-02
-1.671093888580799103e-02
6.053803488612174988e-03
-2.435781620442867279e-02
2.036630548536777496e-02
-3.110386244952678680e-02
-1.361627690494060516e-02
-9.582389146089553833e-03
4.013622179627418518e-02
-3.895296901464462280e-02
-1.238720770925283432e-02
8.404009789228439331e-02
1.221109181642532349e-02
5.996725335717201233e-02
-3.560485318303108215e-02
8.609760552644729614e-02
5.204854905605316162e-02
-2.753138914704322815e-02
4.287276044487953186e-02
3.123054467141628265e-02
-2.998638898134231567e-02
-2.526836842298507690e-02
3.791848197579383850e-02
-1.868422143161296844e-02
-3.792561963200569153e-02
3.460302203893661499e-02
-8.024550043046474457e-03
-4.353637620806694031e-02
-2.443565614521503448e-02
-4.928151145577430725e-03
-3.806632012128829956e-02
3.262573108077049255e-02
-2.007730538025498390e-03
-4.998434334993362427e-02
3.299829363822937012e-02
-1.370217651128768921e-02
2.446506172418594360e-03
-1.501422282308340073e-02
7.937855087220668793e-03
-1.987231336534023285e-02
-3.675083070993423462e-02
-1.965993270277976990e-02
1.395468320697546005e-02
-5.511961132287979126e-02
-4.459043964743614197e-02
2.110300399363040924e-02
3.332442045211791992e-02
1.937453821301460266e-02
1.581465266644954681e-02
-2.683893218636512756e-02
-2.030860073864459991e-02
-4.212249442934989929e-02
-5.523578450083732605e-02
4.818551614880561829e-02
1.223551575094461441e-02
-1.264117937535047531e-02
-6.039486452937126160e-02
2.467662282288074493e-02
2.550725825130939484e-02
1.180361025035381317e-02
-2.737348899245262146e-02
3.154530376195907593e-02
-6.410904228687286377e-02
-7.434688508510589600e-02
4.237907007336616516e-02
2.478503249585628510e-02
-1.906445249915122986e-02
2.425329014658927917e-02
3.231110796332359314e-02
6.436781585216522217e-02
-6.377303600311279297e-02
7.251424714922904968e-03
7.136678695678710938e-02
5.085416883230209351e-02
-2.546042390167713165e-02
1.642113737761974335e-02
5.353226885199546814e-02
1.477750670164823532e-02
1.513694319874048233e-02
-2.254665642976760864e-02
-5.287928879261016846e-02
-1.125694811344146729e-02
-1.688716933131217957e-02
1.645439863204956055e-02
2.747896313667297363e-02
1.055157929658889771e-02
6.019185855984687805e-02
2.715083956718444824e-02
-1.765574142336845398e-02
-3.969283029437065125e-02
-4.850060492753982544e-02
5.858007445931434631e-02
4.515883326530456543e-02
-2.337477542459964752e-02
2.927991747856140137e-02
-1.090539712458848953e-02
-3.690099716186523438e-02
3.931589424610137939e-02
1.719647459685802460e-02
-2.665705978870391846e-02
-9.151964634656906128e-02
2.294532395899295807e-02
-4.544503986835479736e-02
-2.092429250478744507e-02
-2.602245099842548370e-02
3.184879571199417114e-02
5.874220281839370728e-02
-2.053522318601608276e-02
3.859451413154602051e-02
2.263992093503475189e-02
-4.513960704207420349e-02
-1.536127366125583649e-02
3.540541976690292358e-02
4.678826034069061279e-02
5.291013419628143311e-02
3.966903686523437500e-02
3.370678797364234924e-02
-5.150930024683475494e-03
-3.501258045434951782e-02
-4.727327078580856323e-02
2.883198857307434082e-02
7.969187200069427490e-02
-1.264407187700271606e-01
3.319477289915084839e-02
-2.283265069127082825e-02
1.330435369163751602e-02
-8.791424334049224854e-02
-3.541688993573188782e-02
-4.244849551469087601e-03
-6.490948796272277832e-02
1.444267667829990387e-02
-3.447129204869270325e-02
1.934912288561463356e-03
4.332119226455688477e-02
-5.540594086050987244e-02
5.934981163591146469e-03
-2.727684937417507172e-02
-2.614440768957138062e-02
3.994148969650268555e-02
2.195976488292217255e-02
2.782068774104118347e-02
-2.356174029409885406e-02
-2.779089100658893585e-02
7.607405632734298706e-02
1.797420345246791840e-02
-2.695099636912345886e-02
-1.110647339373826981e-02
-4.629839211702346802e-02
4.168180283159017563e-03
-3.569236397743225098e-02
-3.522953763604164124e-02
4.102284833788871765e-02
-3.182925656437873840e-02
-2.348858304321765900e-02
7.761773467063903809e-02
1.345046795904636383e-02
-3.137514740228652954e-02
2.205098606646060944e-02
-8.969541639089584351e-02
2.010546065866947174e-02
-3.333838284015655518e-02
6.068329792469739914e-03
-5.506383627653121948e-02
-2.583069540560245514e-02
-8.036392927169799805e-02
-3.164737671613693237e-02
-7.333923131227493286e-02
5.577851086854934692e-02
1.140303257852792740e-02
-1.860104314982891083e-02
-4.061941802501678467e-02
-7.616864144802093506e-02
5.180833488702774048e-02
-4.602089524269104004e-02
-4.145605489611625671e-04
-5.612020194530487061e-02
4.155405238270759583e-02
4.714612662792205811e-02
-1.101191900670528412e-02
-1.507770270109176636e-02
5.216469615697860718e-02
-5.191867426037788391e-02
-3.844862803816795349e-04
1.446621026843786240e-02
-4.840845987200737000e-02
-4.413359239697456360e-02
2.902910113334655762e-02
4.432638362050056458e-02
-5.807617306709289551e-02
4.189463332295417786e-02
3.999049961566925049e-02
-5.731211230158805847e-02
5.715711042284965515e-03
-3.978862613439559937e-02
-1.564307510852813721e-02
-2.136140130460262299e-02
-3.560039028525352478e-02
-9.952220134437084198e-03
2.021459117531776428e-02
5.118794366717338562e-02
-6.313715875148773193e-02
-5.390654131770133972e-02
-1.227372325956821442e-02
-4.258444532752037048e-02
5.030007660388946533e-02
3.236169368028640747e-02
-1.655387133359909058e-02
4.109667241573333740e-02
2.892246842384338379e-02
-3.117903508245944977e-02
-5.743645504117012024e-02
7.460764050483703613e-02
7.118584960699081421e-02
3.021790087223052979e-02
6.637399643659591675e-02
2.163487300276756287e-02
4.855040460824966431e-02
-1.385347265750169754e-02
-1.024068333208560944e-02
4.808529466390609741e-02
6.149138882756233215e-02
-2.415678463876247406e-04
1.067660469561815262e-02
6.872151046991348267e-03
3.977241739630699158e-02
5.981944873929023743e-02
1.865387707948684692e-02
-5.312407389283180237e-02
4.261242225766181946e-03
-6.379375606775283813e-02
1.282240264117717743e-02
-3.914001863449811935e-03
-2.545969933271408081e-02
3.768429905176162720e-02
2.449861727654933929e-02
-6.369549036026000977e-02
5.381527543067932129e-02
-1.949895545840263367e-02
-1.144340168684720993e-02
6.141318939626216888e-03
8.920037001371383667e-02
-3.385230526328086853e-02
4.503889381885528564e-02
3.698895126581192017e-02
1.896495558321475983e-02
-4.047243297100067139e-02
5.044050514698028564e-02
1.272660307586193085e-02
-2.841550623998045921e-03
-3.808397427201271057e-02
2.465561218559741974e-02
6.539376825094223022e-02
2.292420901358127594e-02
-4.383155703544616699e-02
-2.994138002395629883e-02
2.032785490155220032e-02
1.379892637487500906e-04
-2.870964631438255310e-02
2.808912284672260284e-02
-8.179927244782447815e-03
-6.925208121538162231e-02
-3.391134366393089294e-02
3.376713395118713379e-02
-1.229635719209909439e-02
3.381753712892532349e-02
2.901388704776763916e-02
4.144788905978202820e-02
4.763480648398399353e-02
-8.347178809344768524e-03
3.639240935444831848e-02
-3.022325038909912109e-02
-6.155020371079444885e-02
-5.240511964075267315e-04
-2.853989973664283752e-02
6.518588960170745850e-02
-6.893516331911087036e-02
2.727555483579635620e-02
5.777187645435333252e-03
-3.383441269397735596e-02
-6.611657794564962387e-03
1.528601162135601044e-02
-1.380417030304670334e-02
9.421255439519882202e-02
-5.931839346885681152e-02
3.245802596211433411e-02
-3.053522482514381409e-02
-2.404892258346080780e-02
3.281341632828116417e-03
2.951755747199058533e-02
4.332287609577178955e-02
1.244482770562171936e-02
-1.118286512792110443e-02
3.705683723092079163e-02
8.534627035260200500e-03
6.300541013479232788e-02
4.786416515707969666e-02
3.413391532376408577e-03
-3.857808932662010193e-02
-5.221671424806118011e-03
-2.213849686086177826e-02
2.514653652906417847e-02
1.206297148019075394e-02
-2.703147195279598236e-02
1.613056287169456482e-02
-1.191232353448867798e-02
-4.600838944315910339e-02
-1.499406155198812485e-02
-4.239477962255477905e-02
1.754768937826156616e-02
-4.605815559625625610e-02
-5.326284468173980713e-02
-4.030101746320724487e-02
-1.695588231086730957e-02
-3.472614288330078125e-02
1.341123785823583603e-02
1.270127482712268829e-02
5.815371870994567871e-02
2.542729303240776062e-02
3.893103078007698059e-02
4.849985614418983459e-02
-4.148751497268676758e-02
-3.390083834528923035e-02
-8.326435089111328125e-02
-5.000845715403556824e-02
-2.328607952222228050e-03
1.400949619710445404e-02
-6.732029467821121216e-02
-4.595175758004188538e-02
-4.860797151923179626e-02
4.830249026417732239e-02
-2.112189866602420807e-02
5.055131390690803528e-02
-1.164421718567609787e-02
-3.686606511473655701e-02
6.635162513703107834e-03
6.335148215293884277e-02
-2.022329345345497131e-02
-3.845457732677459717e-02
5.751143395900726318e-02
-5.442444607615470886e-02
-3.926764056086540222e-02
-1.763249002397060394e-02
-4.791304841637611389e-02
7.860036194324493408e-02
2.625655196607112885e-02
3.518582880496978760e-02
8.610428124666213989e-02
7.288795895874500275e-04
-6.365407258272171021e-02
-1.246238965541124344e-02
-4.207948595285415649e-02
-2.813498117029666901e-02
-1.194502878934144974e-02
2.876486629247665405e-02
-3.259769082069396973e-02
1.670537330210208893e-02
-2.768657542765140533e-02
-5.236835405230522156e-02
1.971038803458213806e-02
-1.561431866139173508e-02
3.588292375206947327e-02
-1.386552583426237106e-02
-3.343259543180465698e-02
-2.874290384352207184e-02
-3.553954139351844788e-02
-4.021959006786346436e-02
-6.726526189595460892e-04
-1.314441300928592682e-02
-5.457912012934684753e-02
4.079248011112213135e-02
-4.112985357642173767e-02
-2.440534718334674835e-02
2.739347703754901886e-02
3.323346376419067383e-02
-4.283593222498893738e-02
2.734381146728992462e-02
-3.915798664093017578e-02
-4.341292195022106171e-03
1.989955315366387367e-03
7.062036544084548950e-02
5.818306282162666321e-02
-5.007295310497283936e-02
5.757423490285873413e-02
2.329427935183048248e-02
2.340392954647541046e-02
3.806674107909202576e-02
6.781433522701263428e-02
3.513374179601669312e-02
1.948422938585281372e-02
3.135345503687858582e-02
-3.028145991265773773e-02
-4.392148985061794519e-04
8.965882472693920135e-03
-8.087427169084548950e-02
2.807795442640781403e-02
4.653840512037277222e-02
9.756914526224136353e-02
6.849345285445451736e-03
-4.888053238391876221e-02
-2.895008586347103119e-02
1.127109676599502563e-02
-5.988468974828720093e-02
7.197270542383193970e-02
3.388588875532150269e-02
8.625986985862255096e-03
-1.197691191919147968e-03
-5.051179323345422745e-03
2.158194407820701599e-02
-2.395793236792087555e-02
4.686115309596061707e-02
3.859039396047592163e-02
-8.867443539202213287e-03
-5.816020071506500244e-02
1.646546833217144012e-02
3.636420518159866333e-02
-2.501001767814159393e-02
-4.117475450038909912e-02
-7.771752774715423584e-03
-6.318053696304559708e-03
1.037845155224204063e-03
-6.803560256958007812e-02
-8.950297534465789795e-02
2.718383260071277618e-02
-1.748145557940006256e-02
-3.092801384627819061e-02
-3.363895788788795471e-02
-3.034139424562454224e-02
2.044013142585754395e-02
3.089893981814384460e-02
3.884711489081382751e-02
4.432147368788719177e-02
1.001438498497009277e-01
-1.075454149395227432e-02
-3.737264126539230347e-02
-2.417938597500324249e-02
2.021859772503376007e-02
-6.459613144397735596e-02
-2.694947086274623871e-02
-1.872461661696434021e-02
-7.364984601736068726e-02
-1.928475569002330303e-03
1.236078049987554550e-02
-3.255632147192955017e-02
-3.497089445590972900e-02
4.640535265207290649e-02
4.799535870552062988e-02
5.286383256316184998e-02
-6.077414751052856445e-02
2.361401543021202087e-02
1.428519096225500107e-02
4.856076836585998535e-02
2.358477562665939331e-02
2.457638643682003021e-02
9.118163026869297028e-03
1.095196790993213654e-02
-5.780824273824691772e-02
-7.278614491224288940e-02
-3.611135855317115784e-02
1.022139564156532288e-02
1.120591629296541214e-02
-7.832097820937633514e-03
7.745366077870130539e-03
5.646263714879751205e-03
4.889418929815292358e-02
-4.067130014300346375e-02
5.215736851096153259e-02
5.723365023732185364e-02
-5.264656990766525269e-02
-3.911334089934825897e-03
4.001639783382415771e-02
-2.631963789463043213e-02
-6.321334838867187500e-02
2.184028737246990204e-02
5.315984599292278290e-03
4.541702568531036377e-02
-5.217992514371871948e-02
-1.773260533809661865e-02
5.357809364795684814e-02
-1.014060899615287781e-02
4.668978229165077209e-02
4.245761409401893616e-02
-5.603500455617904663e-02
2.495970204472541809e-02
1.055419147014617920e-01
7.273582741618156433e-03
5.028906837105751038e-02
-5.327280238270759583e-02
1.866253837943077087e-02
7.882782258093357086e-03
8.170671761035919189e-02
2.962305024266242981e-02
1.660567522048950195e-02
7.350153475999832153e-02
-1.626144349575042725e-02
5.204568430781364441e-02
-4.483443498611450195e-02
5.436703562736511230e-02
-1.418799534440040588e-02
-2.259566448628902435e-02
1.337830256670713425e-02
1.744252257049083710e-02
3.162055835127830505e-02
1.667706668376922607e-02
2.466361038386821747e-02
4.671467840671539307e-02
4.314374178647994995e-02
7.126744836568832397e-02
-1.606145291589200497e-03
-5.025868117809295654e-02
-7.725307345390319824e-02
5.648354999721050262e-03
-1.846955716609954834e-02
2.263233624398708344e-02
-7.455110549926757812e-02
4.170302301645278931e-02
1.058141468092799187e-03
-5.760126560926437378e-02
-2.872740291059017181e-02
-4.533377662301063538e-02
4.696749523282051086e-02
-1.620350219309329987e-02
-9.210915118455886841e-02
5.941357091069221497e-02
-6.743412464857101440e-02
-4.651835188269615173e-02
4.973935335874557495e-02
-1.472808979451656342e-02
3.840648755431175232e-02
6.252597272396087646e-02
-1.151160523295402527e-02
1.899450458586215973e-02
-4.675834497902542353e-05
4.954352602362632751e-02
-1.069037709385156631e-02
6.819071248173713684e-03
-7.056359201669692993e-03
2.647324278950691223e-02
7.185705006122589111e-02
-7.531173527240753174e-03
-1.858293451368808746e-02
-4.256852716207504272e-02
-1.041072383522987366e-01
1.981599070131778717e-02
-8.865078538656234741e-02
2.223213762044906616e-02
-3.396046906709671021e-02
1.443188171833753586e-02
3.279536589980125427e-02
1.929631829261779785e-02
-8.637735247611999512e-02
-2.287792414426803589e-02
2.056566625833511353e-02
3.790374845266342163e-02
-5.777386948466300964e-03
-5.222772434353828430e-02
3.086398914456367493e-02
5.417273938655853271e-02
1.191249303519725800e-02
-1.502516958862543106e-02
1.221888978034257889e-02
4.351486265659332275e-02
3.949069231748580933e-02
3.754881024360656738e-02
-7.110735774040222168e-02
-2.745482884347438812e-02
1.280818879604339600e-02
-1.749602891504764557e-02
3.978837281465530396e-02
-6.805482506752014160e-02
-2.041341550648212433e-02
2.346858009696006775e-02
1.177944149821996689e-02
-6.057388335466384888e-02
-5.716463923454284668e-02
-6.162572186440229416e-03
-5.345999076962471008e-02
-7.262170314788818359e-02
2.999280206859111786e-02
-6.880732625722885132e-02
-2.563549019396305084e-02
3.621592745184898376e-02
4.899688810110092163e-02
1.821734197437763214e-02
2.762194536626338959e-02
-8.410450071096420288e-02
5.120226368308067322e-02
-6.226428970694541931e-02
2.311332849785685539e-03
3.972289152443408966e-03
8.104878664016723633e-02
1.852689019870012999e-04
5.916782096028327942e-02
1.005550920963287354e-01
5.347418040037155151e-02
7.036068476736545563e-03
-3.776948153972625732e-02
-3.021364659070968628e-02
-1.185158547013998032e-02
3.892404958605766296e-02
-1.772421225905418396e-02
9.943504631519317627e-02
-1.078241914510726929e-01
6.336867064237594604e-02
-6.292288750410079956e-02
-4.078765958547592163e-02
-1.801081374287605286e-02
4.542835801839828491e-02
-9.675554931163787842e-03
-1.725165732204914093e-02
6.934791337698698044e-03
-3.149891272187232971e-02
1.227809488773345947e-01
5.146551877260208130e-02
-5.726746842265129089e-02
4.845625534653663635e-02
-5.868496000766754150e-02
7.665169239044189453e-02
7.187023013830184937e-02
5.320794507861137390e-02
-6.994363665580749512e-02
6.055089831352233887e-02
-4.455650970339775085e-02
-4.726972430944442749e-02
-4.677626863121986389e-02
-2.832916006445884705e-02
4.079280793666839600e-02
-1.203492842614650726e-02
5.070440471172332764e-02
3.850687295198440552e-02
-3.402912989258766174e-04
-1.652825623750686646e-02
4.832235351204872131e-02
4.987672343850135803e-02
1.174238161183893681e-03
2.171728201210498810e-02
9.266435354948043823e-02
7.579750567674636841e-02
3.820478171110153198e-02
9.001296758651733398e-02
4.076755791902542114e-02
-4.263516142964363098e-02
-1.506374962627887726e-02
7.047901302576065063e-02
5.735435336828231812e-02
2.944776043295860291e-02
-1.990104792639613152e-03
-1.679563149809837341e-02
9.091994166374206543e-02
5.807431787252426147e-02
-4.052396118640899658e-02
-9.129639714956283569e-03
2.491586143150925636e-03
-2.010951563715934753e-02
4.114307463169097900e-02
-2.137697674334049225e-02
-5.611342191696166992e-02
-4.238903522491455078e-02
-5.456029996275901794e-02
-8.230795152485370636e-03
-6.573922187089920044e-02
-4.689089581370353699e-02
-5.506895016878843307e-03
-5.268591642379760742e-02
4.038679227232933044e-02
-6.198745965957641602e-02
-6.006803736090660095e-02
1.663693338632583618e-01
-9.526506066322326660e-02
-2.178365364670753479e-02
-7.649768609553575516e-03
-2.834641933441162109e-02
-4.160642251372337341e-02
-1.547013875097036362e-02
4.157629236578941345e-02
-4.457212239503860474e-02
7.738547027111053467e-02
-2.899605780839920044e-02
-3.833882883191108704e-02
5.167678371071815491e-02
2.633277699351310730e-02
1.466838270425796509e-01
-3.915542736649513245e-02
3.609169274568557739e-02
-5.296352133154869080e-02
-9.666147828102111816e-02
-3.876516222953796387e-02
3.096680156886577606e-03
-2.968497760593891144e-02
-4.351729899644851685e-02
2.252425625920295715e-02
-2.443725802004337311e-02
4.914557561278343201e-02
9.101703763008117676e-02
-4.124844446778297424e-02
6.054590642452239990e-02
1.388234179466962814e-02
2.630830556154251099e-02
-3.145105019211769104e-02
-5.268086493015289307e-02
-2.157539501786231995e-02
-3.640595823526382446e-02
-5.912667512893676758e-02
2.482622675597667694e-02
4.784870147705078125e-02
3.474332019686698914e-02
-3.436077013611793518e-02
-3.072505630552768707e-02
-2.201024442911148071e-02
-5.079462006688117981e-02
7.295175455510616302e-03
-1.159498561173677444e-02
1.799870282411575317e-02
3.567961975932121277e-02
-2.872767485678195953e-02
-1.003569141030311584e-01
-1.019783914089202881e-01
-7.783470302820205688e-02
-5.163616687059402466e-02
-1.575107569806277752e-03
-5.525093525648117065e-02
-9.593389183282852173e-02
-3.142086416482925415e-02
-1.016423329710960388e-01
1.704659126698970795e-02
-3.766736015677452087e-02
-7.379315327852964401e-03
1.928285695612430573e-02
6.334093958139419556e-02
6.883663684129714966e-02
-1.018462777137756348e-01
6.744039058685302734e-02
2.773991413414478302e-02
-4.225142300128936768e-02
-2.758335508406162262e-02
-2.772311493754386902e-02
1.266724243760108948e-02
9.522252716124057770e-03
3.713914006948471069e-02
-7.935158163309097290e-02
6.488144397735595703e-02
9.168142825365066528e-02
-4.873741418123245239e-02
1.731461845338344574e-02
1.331312209367752075e-01
1.262214500457048416e-02
5.647804215550422668e-02
-3.877896349877119064e-03
8.531557768583297729e-02
3.743766993284225464e-02
-7.318884879350662231e-02
-1.512541063129901886e-02
6.443282216787338257e-02
3.887021914124488831e-02
9.009814821183681488e-03
-7.169502973556518555e-02
1.786773093044757843e-02
2.220708318054676056e-02
-5.770493298768997192e-02
2.957282029092311859e-02
-5.198151338845491409e-03
-6.817261874675750732e-02
2.490743808448314667e-02
-5.053793638944625854e-02
4.253020882606506348e-02
2.097220718860626221e-02
-3.555254638195037842e-02
-2.989654429256916046e-02
1.924764551222324371e-02
2.755239419639110565e-02
4.539164528250694275e-02
4.652432352304458618e-02
2.604392915964126587e-02
-3.274260461330413818e-02
-1.161490939557552338e-02
-3.178901504725217819e-03
-7.105478289304301143e-05
-2.946364134550094604e-02
3.538759052753448486e-02
1.939786598086357117e-02
-3.202435746788978577e-02
2.101549878716468811e-02
-5.175204202532768250e-02
-1.863988861441612244e-02
3.284778818488121033e-02
1.133920811116695404e-02
-1.122656278312206268e-02
3.560730814933776855e-02
4.478941857814788818e-02
3.381706774234771729e-02
4.661713913083076477e-02
-4.281515628099441528e-02
5.466178059577941895e-02
2.413664199411869049e-02
-1.895898208022117615e-02
-2.957546524703502655e-02
-1.996520161628723145e-02
3.189747780561447144e-02
-4.946881532669067383e-02
4.284603521227836609e-02
-8.952266722917556763e-02
1.361062284559011459e-02
3.566587716341018677e-02
3.857844322919845581e-02
5.346407997421920300e-04
4.701917245984077454e-02
-6.134280003607273102e-03
-3.632631897926330566e-02
8.755286037921905518e-02
1.664184965193271637e-02
1.927818730473518372e-02
-5.070420354604721069e-02
1.504441723227500916e-03
-7.195211201906204224e-02
-4.678121209144592285e-02
4.645247384905815125e-02
-4.562080278992652893e-02
-2.626045048236846924e-02
6.503067165613174438e-02
-5.347274243831634521e-02
-1.057167537510395050e-02
7.530449330806732178e-02
-7.601560093462467194e-03
9.373129345476627350e-03
-4.724222701042890549e-03
4.937542974948883057e-02
-5.808860808610916138e-02
-5.063915625214576721e-02
3.062197379767894745e-02
-1.097331475466489792e-02
2.771244384348392487e-02
2.855293452739715576e-02
4.194453358650207520e-02
1.435631979256868362e-02
-7.221745792776346207e-03
8.951017633080482483e-03
5.614984035491943359e-02
7.047350518405437469e-03
1.453140936791896820e-02
2.740353532135486603e-02
7.474297285079956055e-02
2.677119709551334381e-02
4.048839583992958069e-02
4.611558467149734497e-02
-3.387616481631994247e-03
-4.859304428100585938e-02
1.100866496562957764e-02
6.260567903518676758e-02
-7.305610924959182739e-03
2.162887156009674072e-02
-2.173064509406685829e-03
6.577066332101821899e-02
-2.380763366818428040e-02
5.993132665753364563e-02
-3.947189450263977051e-02
-7.559263706207275391e-02
-5.316200479865074158e-02
-8.313533850014209747e-03
-3.181349486112594604e-02
5.146602913737297058e-02
-4.714709892868995667e-02
-3.765671700239181519e-02
3.014382533729076385e-02
2.195916511118412018e-02
-1.718644052743911743e-02
-1.159599795937538147e-02
-2.677350491285324097e-02
5.135034769773483276e-02
6.554385181516408920e-03
-3.712978959083557129e-02
-1.296663377434015274e-02
3.312208689749240875e-03
4.628910869359970093e-02
-1.897465623915195465e-02
-2.288982272148132324e-03
1.389625668525695801e-02
6.249223276972770691e-02
-1.346599031239748001e-02
1.067423447966575623e-02
6.387183070182800293e-02
-2.879257127642631531e-02
1.415529474616050720e-02
2.952935546636581421e-02
-9.879440814256668091e-02
-2.562361024320125580e-02
-6.951912492513656616e-02
6.443195044994354248e-02
-6.429143249988555908e-02
9.749804739840328693e-04
-5.743533372879028320e-03
1.875494047999382019e-02
6.280514597892761230e-02
-1.536455564200878143e-02
7.353039085865020752e-02
-5.934758856892585754e-02
-1.373954466544091702e-03
6.767109036445617676e-02
6.017266958951950073e-02
-3.566431626677513123e-02
-5.779338255524635315e-02
-1.329336035996675491e-02
-7.399629056453704834e-02
-9.196463972330093384e-02
4.408237989991903305e-03
-3.438665717840194702e-02
4.076156765222549438e-02
-7.905788719654083252e-03
-5.534711480140686035e-02
-8.244787901639938354e-02
-1.011431217193603516e-03
-2.471068501472473145e-02
5.412853509187698364e-02
-8.832708746194839478e-02
-6.006103474646806717e-03
-2.635198831558227539e-02
4.676304757595062256e-02
6.186140701174736023e-02
-1.301347394473850727e-03
6.430760771036148071e-02
4.853655584156513214e-03
-2.015452273190021515e-02
4.713326320052146912e-02
4.214302636682987213e-03
1.242513954639434814e-01
-5.606055259704589844e-02
-4.598623141646385193e-02
1.190706714987754822e-02
4.129869118332862854e-02
7.424835860729217529e-02
2.864971570670604706e-02
4.843802750110626221e-02
-5.423332378268241882e-02
2.286857739090919495e-02
-5.555145069956779480e-02
-7.925126701593399048e-02
-1.649703457951545715e-02
-6.494302302598953247e-02
5.417945329099893570e-03
-7.319927960634231567e-02
-8.511910587549209595e-02
4.223921149969100952e-02
-7.363118231296539307e-02
4.812463745474815369e-02
-8.550742268562316895e-02
2.694914117455482483e-02
-2.293419092893600464e-02
-3.351483261212706566e-03
-6.370177865028381348e-02
3.464997559785842896e-02
6.289061158895492554e-02
-6.327448785305023193e-02
-4.420610517263412476e-02
-2.384461648762226105e-02
4.485859349370002747e-02
-6.489302217960357666e-02
9.352391958236694336e-02
4.077591001987457275e-02
2.845352282747626305e-03
8.056211285293102264e-03
-5.079280526842921972e-05
4.198338463902473450e-02
-2.313612774014472961e-02
4.544142633676528931e-02
1.262395363301038742e-02
-5.209856107831001282e-02
2.358489297330379486e-02
3.944292291998863220e-02
-7.832295261323451996e-03
9.217595681548118591e-03
-6.138240918517112732e-02
1.246417686343193054e-02
-1.430185604840517044e-02
6.488494575023651123e-02
2.789462171494960785e-02
-6.665359437465667725e-02
-3.243672475218772888e-02
1.995220780372619629e-02
5.451912526041269302e-03
-3.119625709950923920e-02
4.218920320272445679e-02
5.078143253922462463e-02
5.186011642217636108e-02
4.345662891864776611e-02
6.305783241987228394e-02
4.803122952580451965e-02
-8.963506668806076050e-03
-3.273833915591239929e-02
3.689711540937423706e-02
-5.061303451657295227e-02
-4.929312318563461304e-02
5.974319577217102051e-02
-1.903759874403476715e-02
6.227479875087738037e-02
2.164162322878837585e-02
9.322594106197357178e-02
5.166761949658393860e-02
3.304476290941238403e-02
-3.805415332317352295e-02
-2.945503033697605133e-02
-9.101612865924835205e-02
-6.996618211269378662e-02
-1.841702382080256939e-03
-5.100025609135627747e-02
-6.304473616182804108e-03
2.952971681952476501e-02
3.425243124365806580e-02
2.238130755722522736e-02
-4.572076350450515747e-02
-6.063457578420639038e-02
-3.812598809599876404e-02
-6.392905116081237793e-02
-8.638062514364719391e-03
-1.410977728664875031e-02
-1.279959548264741898e-02
-1.057864278554916382e-01
2.064195275306701660e-02
8.888211101293563843e-03
8.712755143642425537e-02
-3.723128139972686768e-02
-1.056882832199335098e-02
-2.307361550629138947e-02
-2.290464006364345551e-02
-1.048700418323278427e-02
-4.610778763890266418e-03
1.989533891901373863e-03
-4.872188344597816467e-02
6.531249731779098511e-02
6.840683519840240479e-03
2.571300975978374481e-02
5.030333530157804489e-03
3.500319644808769226e-02
-3.931538760662078857e-02
1.132317259907722473e-01
-2.293202560395002365e-03
-6.978699937462806702e-03
-4.868327081203460693e-02
6.918782740831375122e-02
6.038049608469009399e-02
-3.925182297825813293e-02
-3.126224130392074585e-02
3.397360444068908691e-02
-1.842030510306358337e-02
1.927987672388553619e-02
5.533000081777572632e-02
-1.976698078215122223e-02
1.907957531511783600e-02
3.657974675297737122e-02
1.754509657621383667e-02
-7.455030828714370728e-02
-2.379650995135307312e-02
-2.467471407726407051e-03
-8.234492689371109009e-02
-3.345170244574546814e-02
-5.085508525371551514e-02
-1.435710769146680832e-02
6.678470224142074585e-02
-2.217369765276089311e-04
2.686337009072303772e-02
3.370885271579027176e-03
-3.431702777743339539e-02
3.715850878506898880e-03
8.634054660797119141e-02
8.774937689304351807e-02
1.276875659823417664e-02
-5.145382508635520935e-02
7.370426505804061890e-02
2.080073347315192223e-03
3.012016415596008301e-02
4.312879219651222229e-02
-1.445364393293857574e-02
3.020358271896839142e-02
5.408657249063253403e-03
-4.403166100382804871e-02
8.616042882204055786e-02
1.838864758610725403e-02
-5.611407384276390076e-02
3.234212100505828857e-02
8.529783785343170166e-02
-9.761459194123744965e-03
3.243054077029228210e-02
