-4.092364758253097534e-02
-4.227570816874504089e-02
-6.538048386573791504e-02
4.018774256110191345e-02
-4.939319565892219543e-02
-3.741615510080009699e-04
3.573884442448616028e-02
1.031145919114351273e-02
-4.469320923089981079e-02
-1.046139653772115707e-02
2.380483411252498627e-02
-7.341347634792327881e-03
1.362310722470283508e-02
2.555396035313606262e-02
-9.077222086489200592e-03
-1.100139506161212921e-02
-1.777780614793300629e-02
-1.604649005457758904e-03
5.032469518482685089e-03
-1.312237232923507690e-02
-1.431715581566095352e-02
6.884752959012985229e-02
3.789867088198661804e-02
5.313196778297424316e-02
3.030529804527759552e-02
7.972602033987641335e-04
-2.058013901114463806e-02
4.304984956979751587e-02
5.663308780640363693e-03
-6.021134927868843079e-02
-6.043968256562948227e-03
-2.362649887800216675e-02
-2.831328660249710083e-02
3.895141929388046265e-02
-2.157999761402606964e-02
-4.704087972640991211e-02
1.685073226690292358e-02
5.248134583234786987e-02
-6.930489093065261841e-03
2.052519656717777252e-02
-6.705621629953384399e-02
-6.436063908040523529e-03
4.241602122783660889e-02
-8.549776393920183182e-04
-4.806040599942207336e-02
-2.512003481388092041e-02
-1.346192695200443268e-02
-1.973007060587406158e-02
-4.410657659173011780e-02
3.005044534802436829e-02
-5.842227488756179810e-02
-2.585311047732830048e-02
-3.049254883080720901e-03
-5.444436520338058472e-02
-2.600631490349769592e-02
1.995790563523769379e-02
5.986116454005241394e-02
-3.547738865017890930e-02
-6.397114600986242294e-03
-3.942732885479927063e-02
6.334433704614639282e-02
-4.094447568058967590e-02
-5.828152224421501160e-02
1.173787098377943039e-02
2.936384640634059906e-03
4.132207483053207397e-02
-4.505256563425064087e-02
7.517058402299880981e-02
1.626403257250785828e-02
5.154850333929061890e-02
1.190590858459472656e-02
5.865637212991714478e-02
5.913010239601135254e-02
-5.276269093155860901e-02
4.127621278166770935e-02
-6.413564831018447876e-02
7.909204810857772827e-02
-7.350636273622512817e-02
1.673862151801586151e-02
2.504929900169372559e-02
-3.724187612533569336e-02
-2.230147086083889008e-02
3.547487407922744751e-02
-2.598361670970916748e-02
7.987072318792343140e-02
1.226103957742452621e-02
6.707526743412017822e-03
-4.279050603508949280e-02
3.168145567178726196e-02
4.614462330937385559e-02
6.343268323689699173e-04
-5.230012908577919006e-02
-6.691842805594205856e-03
-6.481881439685821533e-02
5.514169484376907349e-02
-3.805595263838768005e-02
4.943759739398956299e-02
-1.916808076202869415e-02
1.394578837789595127e-03
-4.461158439517021179e-02
-4.162295162677764893e-02
3.117219544947147369e-02
8.761111646890640259e-03
1.634393818676471710e-02
-4.356173053383827209e-02
-1.401388645172119141e-02
-5.948939919471740723e-02
5.147761479020118713e-02
6.541888415813446045e-02
6.761524826288223267e-02
3.100789338350296021e-02
-3.149396553635597229e-02
1.976547017693519592e-02
6.851330399513244629e-03
3.235827386379241943e-02
-4.314406961202621460e-02
-2.903348580002784729e-02
5.615163594484329224e-02
-4.777279123663902283e-02
6.112135946750640869e-02
