8.545912057161331177e-02
3.165217861533164978e-02
4.135168716311454773e-02
6.065417081117630005e-02
4.774461314082145691e-02
2.865034714341163635e-02
7.829031907021999359e-03
-9.356885217130184174e-03
4.450751468539237976e-02
3.982295095920562744e-02
-7.281307131052017212e-02
1.438494771718978882e-01
-4.727160185575485229e-02
-6.430187076330184937e-02
2.749372646212577820e-02
9.024702757596969604e-02
8.188986778259277344e-02
-6.603656709194183350e-02
3.077114373445510864e-02
8.280837535858154297e-02
6.372938305139541626e-02
-1.734085008502006531e-02
1.531788427382707596e-02
-6.215870380401611328e-02
-2.997307479381561279e-02
4.517318680882453918e-02
-3.097115270793437958e-02
-8.590729534626007080e-02
-3.526951652020215988e-03
8.989981561899185181e-02
-1.108304504305124283e-02
2.256841212511062622e-02
1.087786033749580383e-01
-3.727378323674201965e-02
1.306729018688201904e-01
7.083977758884429932e-02
1.419703382998704910e-02
-8.187902718782424927e-02
1.001530736684799194e-01
3.148625791072845459e-02
4.046042263507843018e-02
1.038438305258750916e-01
9.318250417709350586e-02
-6.153782829642295837e-02
2.276501059532165527e-02
-6.293719261884689331e-02
-1.494921464473009109e-02
1.215101107954978943e-01
-6.187305226922035217e-02
-5.587881896644830704e-03
7.278746366500854492e-02
-8.777207881212234497e-02
5.505609884858131409e-02
-8.377308398485183716e-02
-3.277769684791564941e-02
3.166557475924491882e-02
1.884435676038265228e-02
-3.931120038032531738e-02
-1.191243063658475876e-02
-5.902799218893051147e-02
-5.100774392485618591e-02
1.106026321649551392e-01
-4.377671331167221069e-02
1.961359987035393715e-03
-4.103302210569381714e-02
8.023601025342941284e-02
8.714456111192703247e-03
3.658400848507881165e-02
5.690534412860870361e-02
-3.882620111107826233e-02
6.808643043041229248e-02
-1.996061578392982483e-02
-2.213459089398384094e-02
1.800098456442356110e-02
5.155753344297409058e-02
-7.335373666137456894e-03
4.369386285543441772e-02
9.832343086600303650e-03
1.170048117637634277e-01
-6.341191381216049194e-02
6.389433890581130981e-02
-6.741233915090560913e-02
4.108574613928794861e-02
1.058658808469772339e-01
