-9.163948148488998413e-02
-2.259693108499050140e-02
-7.787742465734481812e-02
1.037023067474365234e-01
-4.264199733734130859e-02
-1.532049570232629776e-02
1.089081689715385437e-01
5.555476248264312744e-02
-6.503456085920333862e-02
-3.259563446044921875e-02
-9.994440525770187378e-02
1.031134277582168579e-01
-8.025703579187393188e-02
-2.426982298493385315e-02
-1.794643886387348175e-02
5.985600501298904419e-02
-1.005091816186904907e-01
-5.750544741749763489e-02
7.992410659790039062e-02
2.290120813995599747e-03
2.178687788546085358e-02
-3.066922910511493683e-02
1.360445171594619751e-01
1.857048869132995605e-01
4.833923652768135071e-02
-9.309510886669158936e-02
-2.037591114640235901e-02
2.782647870481014252e-02
8.183316141366958618e-02
-9.151205420494079590e-02
-2.290361374616622925e-02
-1.436690147966146469e-02
3.814535960555076599e-02
1.123761385679244995e-01
-8.982205390930175781e-02
7.377202063798904419e-02
-6.614588201045989990e-02
-2.852693572640419006e-02
9.353245049715042114e-02
5.682726949453353882e-02
1.907931715250015259e-01
9.990796446800231934e-03
2.930850349366664886e-02
2.569789439439773560e-02
4.929858818650245667e-02
2.683704532682895660e-02
1.567053943872451782e-01
1.986117335036396980e-03
8.416441828012466431e-02
-2.790794335305690765e-02
4.296970739960670471e-02
1.274685114622116089e-01
8.386561274528503418e-02
-1.212104931473731995e-01
5.099428351968526840e-03
-7.204268127679824829e-02
9.787953644990921021e-02
-4.164779186248779297e-02
2.119078487157821655e-02
-1.511275619268417358e-01
-6.915343925356864929e-03
8.435554802417755127e-02
8.056715875864028931e-02
1.612427830696105957e-01
-9.110071510076522827e-02
1.057762354612350464e-01
1.277374923229217529e-01
3.987957537174224854e-02
7.577144354581832886e-02
3.615579009056091309e-02
9.552318602800369263e-02
-5.997890606522560120e-02
-4.048262536525726318e-02
9.840920101851224899e-04
-3.264583647251129150e-03
-7.500158250331878662e-02
-3.607286885380744934e-02
-5.314864218235015869e-02
1.147432550787925720e-01
-6.758402287960052490e-02
9.113912284374237061e-02
-7.947996258735656738e-03
7.334871590137481689e-02
6.887905299663543701e-02
3.435194492340087891e-02
-2.167412638664245605e-02
-8.564141392707824707e-02
1.579771190881729126e-01
-1.613830775022506714e-02
-7.014857977628707886e-02
4.412462562322616577e-02
4.891807958483695984e-02
7.536971825174987316e-04
-7.909968495368957520e-02
-1.495330501347780228e-02
1.102623194456100464e-01
-7.211472094058990479e-02
7.377947121858596802e-02
-3.989046066999435425e-02
-4.792813211679458618e-02
5.983532592654228210e-02
-8.751314133405685425e-02
6.522690504789352417e-02
-1.031550094485282898e-01
1.892134733498096466e-02
-4.848106577992439270e-02
5.162118002772331238e-02
3.660264983773231506e-02
-1.096317246556282043e-01
-1.601257361471652985e-02
-5.006764456629753113e-02
-4.709190502762794495e-02
-3.856727480888366699e-02
-1.563995704054832458e-02
-4.640156030654907227e-02
5.996183026582002640e-03
4.539979994297027588e-02
-5.581030249595642090e-02
-2.144532464444637299e-02
-8.436286449432373047e-02
-5.576198920607566833e-02
2.814269997179508209e-02
8.002422749996185303e-03
1.780669018626213074e-02
-1.838567107915878296e-02
4.015588015317916870e-02
-1.703045330941677094e-02
4.984217509627342224e-02
-1.147667597979307175e-02
-1.138833165168762207e-02
2.003063820302486420e-02
-7.982581108808517456e-02
-8.589154481887817383e-02
3.688082471489906311e-02
7.619777321815490723e-02
-3.026314452290534973e-02
-1.830845512449741364e-02
5.857012793421745300e-02
-6.347426772117614746e-02
1.518409140408039093e-02
1.030865218490362167e-02
-7.596283406019210815e-02
-6.418796628713607788e-02
-4.450551047921180725e-02
8.012852817773818970e-02
-2.052542567253112793e-02
-8.903598785400390625e-02
-3.856102377176284790e-02
3.872591257095336914e-02
3.920936957001686096e-02
-2.280201297253370285e-03
6.194194778800010681e-02
5.223037302494049072e-02
-3.563559055328369141e-02
5.509229749441146851e-02
-2.727675996720790863e-02
-6.137900426983833313e-02
4.925685375928878784e-02
-9.503192268311977386e-03
-3.444936871528625488e-02
-8.087719231843948364e-02
-1.832761056721210480e-02
-4.584874585270881653e-02
-1.639829762279987335e-02
2.198892831802368164e-02
5.393908824771642685e-03
-5.460538715124130249e-02
3.251433372497558594e-05
3.223548829555511475e-02
8.681267499923706055e-02
3.554148972034454346e-02
1.482401974499225616e-02
4.395624995231628418e-02
4.958505928516387939e-02
2.657647617161273956e-02
-3.598334267735481262e-02
7.286810874938964844e-02
-2.366387285292148590e-02
-2.647355571389198303e-02
4.280947148799896240e-02
-2.441305480897426605e-02
-3.548685088753700256e-02
5.454817041754722595e-02
-7.755958940833806992e-03
1.086905784904956818e-02
-5.693402886390686035e-02
-6.261925399303436279e-02
4.439341649413108826e-02
-1.613913848996162415e-02
-4.529744386672973633e-02
-9.054276347160339355e-02
-1.144926436245441437e-02
-3.968375176191329956e-02
-7.324472069740295410e-02
7.322248816490173340e-02
-2.074894681572914124e-02
-1.156099699437618256e-02
-7.797881215810775757e-02
-4.649459198117256165e-02
4.055435955524444580e-02
-8.551898598670959473e-02
6.914020329713821411e-02
5.087191238999366760e-03
-5.618800595402717590e-02
-2.709996886551380157e-02
-1.008167862892150879e-02
-9.844528511166572571e-03
6.057808920741081238e-02
4.722652584314346313e-02
-2.270951308310031891e-02
6.032816320657730103e-02
-7.620723545551300049e-02
7.649257034063339233e-02
4.607357457280158997e-02
3.407233394682407379e-03
3.833505511283874512e-02
2.103229751810431480e-03
6.634941790252923965e-03
7.636546343564987183e-02
-2.635801397264003754e-02
4.065196495503187180e-03
-4.141920804977416992e-02
-4.019606858491897583e-02
6.919332593679428101e-02
-7.156448811292648315e-02
-5.349389463663101196e-02
3.745630756020545959e-02
-4.644705355167388916e-02
6.581723690032958984e-02
-1.031004358083009720e-02
5.945581570267677307e-02
-4.837801307439804077e-02
-2.651252038776874542e-02
7.589414715766906738e-02
-7.420766353607177734e-02
-5.895817652344703674e-02
3.568120300769805908e-02
6.648600846529006958e-02
1.388747245073318481e-02
-2.372007071971893311e-02
3.076535090804100037e-02
3.305795136839151382e-03
-5.593328550457954407e-02
1.234536319971084595e-01
-9.386360645294189453e-03
-7.000558078289031982e-02
3.971915319561958313e-02
4.283357039093971252e-02
1.505257934331893921e-02
-2.695907372981309891e-03
-5.604473873972892761e-02
4.659676551818847656e-02
1.044294517487287521e-02
1.594106703996658325e-01
5.357393994927406311e-02
7.964731752872467041e-02
5.294028669595718384e-02
-6.505624204874038696e-02
-6.183037767186760902e-04
2.905343100428581238e-02
4.263008758425712585e-02
-8.508247323334217072e-03
3.608616814017295837e-02
6.990100443363189697e-02
-3.059802344068884850e-03
2.520362474024295807e-02
1.611047424376010895e-02
1.298015862703323364e-01
3.234852477908134460e-02
4.963868111371994019e-02
-7.790996134281158447e-02
-5.304579436779022217e-02
7.746976613998413086e-02
8.910329639911651611e-02
-1.028618961572647095e-02
9.955862164497375488e-02
1.200544368475675583e-02
-3.881652606651186943e-03
-6.416971236467361450e-02
2.011429704725742340e-02
1.055852547287940979e-01
9.815968573093414307e-02
-1.394108310341835022e-02
9.104829281568527222e-02
3.725919872522354126e-02
-1.131902337074279785e-01
-3.936754539608955383e-02
-1.128692179918289185e-02
-7.963721454143524170e-02
-4.873159527778625488e-02
3.495137766003608704e-02
-6.513977050781250000e-02
2.890048548579216003e-03
1.708802208304405212e-02
-1.175340339541435242e-01
6.536915153264999390e-02
-3.816994838416576385e-03
-6.387683749198913574e-02
1.032932847738265991e-02
-4.085049405694007874e-02
4.783845692873001099e-02
-2.189851924777030945e-02
-7.809839397668838501e-02
2.848987467586994171e-02
6.815824657678604126e-02
-4.298217594623565674e-02
3.614926710724830627e-02
-1.300752609968185425e-01
1.921192184090614319e-02
-7.444500923156738281e-02
7.212864607572555542e-02
9.744223952293395996e-02
-8.784203231334686279e-02
-5.281949043273925781e-02
-2.753323502838611603e-02
-3.571591153740882874e-02
2.409745939075946808e-02
9.297066926956176758e-02
-8.618842065334320068e-02
-1.021909415721893311e-01
2.280186675488948822e-02
-3.418907150626182556e-02
5.041852593421936035e-02
3.766397386789321899e-02
2.539076842367649078e-02
-9.896112978458404541e-02
8.802276104688644409e-02
-5.537290126085281372e-02
3.005208447575569153e-02
-7.393115758895874023e-02
-4.959888011217117310e-02
1.994191482663154602e-02
-2.089743356918916106e-04
-2.985885180532932281e-02
-4.831228579860180616e-04
-4.704851284623146057e-02
5.346154421567916870e-02
8.299972862005233765e-02
8.480539917945861816e-02
6.130374222993850708e-02
1.215607742778956890e-03
-2.900582365691661835e-02
8.896059356629848480e-03
-4.659695923328399658e-02
-7.088174670934677124e-02
-6.455184519290924072e-02
5.967875942587852478e-02
-3.273198381066322327e-02
-2.727758511900901794e-02
5.967595614492893219e-03
-5.949576199054718018e-02
-1.628412399441003799e-03
1.113124787807464600e-01
9.474417194724082947e-03
-5.348972231149673462e-02
4.517598450183868408e-02
3.277929499745368958e-02
9.613994508981704712e-02
-7.370316982269287109e-02
1.120200455188751221e-01
-5.586118251085281372e-02
4.392805323004722595e-02
8.081620186567306519e-02
-5.906008649617433548e-03
2.526101842522621155e-02
8.601394295692443848e-02
-2.419599518179893494e-02
9.088164567947387695e-02
-5.319227278232574463e-02
-1.067388895899057388e-02
-6.563978642225265503e-02
7.856849115341901779e-04
1.129402816295623779e-01
8.434823155403137207e-02
2.816164493560791016e-02
-8.393570780754089355e-02
3.188221901655197144e-02
6.916257087141275406e-03
2.707838080823421478e-02
3.674449026584625244e-02
-1.276269704103469849e-01
4.875381477177143097e-03
9.767222404479980469e-02
-1.404226105660200119e-02
4.886362701654434204e-02
-1.097485646605491638e-01
3.879752475768327713e-03
6.102430634200572968e-03
9.021794423460960388e-03
2.276320155942812562e-04
7.798226922750473022e-02
7.489109784364700317e-02
3.028091602027416229e-02
-2.388354018330574036e-02
-2.274632081389427185e-02
-7.498539984226226807e-02
1.479037571698427200e-02
-7.471717149019241333e-02
7.890583574771881104e-02
-5.500648543238639832e-02
6.485084444284439087e-02
5.935189872980117798e-02
3.847478702664375305e-02
4.588835313916206360e-02
-3.668637573719024658e-02
-7.837320864200592041e-02
-1.113159731030464172e-01
8.755545318126678467e-02
-4.306562617421150208e-02
2.505750022828578949e-02
-1.746455393731594086e-02
-1.296608895063400269e-01
6.684191990643739700e-03
-4.061999544501304626e-02
-6.828396022319793701e-02
-1.026697456836700439e-02
7.332140207290649414e-02
8.955478668212890625e-02
-7.133582979440689087e-02
9.067303687334060669e-02
3.608741611242294312e-02
-2.834495902061462402e-02
-3.017115034162998199e-02
-1.482867635786533356e-02
-1.908272504806518555e-02
8.469354361295700073e-02
3.810020536184310913e-02
1.922792196273803711e-02
-4.993715882301330566e-02
-1.082351654767990112e-01
8.272731304168701172e-02
1.426596194505691528e-01
-3.056388534605503082e-02
-1.350568328052759171e-02
-1.140101999044418335e-01
4.689751192927360535e-02
-7.692657411098480225e-02
8.500887453556060791e-02
2.746768109500408173e-02
-1.088225841522216797e-01
-1.289884373545646667e-02
-7.587832957506179810e-02
-1.105271130800247192e-01
6.630211323499679565e-02
1.046150699257850647e-01
-2.127543278038501740e-02
-8.765121549367904663e-02
5.723155289888381958e-02
9.470701962709426880e-02
4.703156277537345886e-02
-1.912430487573146820e-02
-1.125204488635063171e-01
-5.140704568475484848e-03
-9.309469163417816162e-02
6.622313987463712692e-03
6.873178482055664062e-02
-8.419475518167018890e-03
4.549805819988250732e-02
3.184577822685241699e-02
-4.625245556235313416e-02
6.037316843867301941e-02
-9.986390918493270874e-02
-3.218055889010429382e-02
8.063456416130065918e-02
5.414280667901039124e-02
-1.834133639931678772e-02
-9.047897905111312866e-02
8.727270364761352539e-02
-1.020451113581657410e-01
1.978447288274765015e-02
1.104010865092277527e-01
4.865684360265731812e-02
6.767489761114120483e-02
-9.040900319814682007e-02
-9.078258275985717773e-02
-5.103394761681556702e-02
1.525862142443656921e-02
-4.916519299149513245e-02
8.522189408540725708e-02
1.291042119264602661e-01
-8.115241676568984985e-02
9.314671903848648071e-02
-7.711863517761230469e-02
3.242346644401550293e-02
-2.700439095497131348e-02
-2.840237691998481750e-02
9.621802717447280884e-02
-8.081145584583282471e-02
4.067245125770568848e-02
2.898694574832916260e-02
-1.211562231183052063e-01
4.830695688724517822e-02
-9.837403148412704468e-02
1.553561538457870483e-01
-1.524754464626312256e-01
-8.462023735046386719e-02
7.298447191715240479e-02
-1.310834567993879318e-02
2.889233874157071114e-04
1.420588418841362000e-02
-5.278542172163724899e-03
-5.122579634189605713e-02
-1.399389058351516724e-01
7.022292912006378174e-02
-5.011296644806861877e-02
-4.060868918895721436e-02
-8.934462070465087891e-02
1.791395992040634155e-02
3.090322762727737427e-02
7.994973659515380859e-02
8.706510066986083984e-02
-1.089219674468040466e-01
3.048105863854289055e-03
8.706076443195343018e-02
6.476235389709472656e-02
5.950755998492240906e-02
1.151820272207260132e-01
8.809016644954681396e-02
9.297341108322143555e-03
1.441143155097961426e-01
-4.874428361654281616e-02
1.632973738014698029e-02
-5.923838913440704346e-02
-1.057178303599357605e-01
-2.230634167790412903e-02
9.253527969121932983e-03
-1.010406687855720520e-01
-4.825815930962562561e-02
1.389427334070205688e-01
4.571845009922981262e-02
8.405289053916931152e-02
-2.956080622971057892e-02
-8.497807383537292480e-02
9.192111343145370483e-02
5.399543046951293945e-02
-3.509847447276115417e-02
1.296900771558284760e-02
-1.208341196179389954e-01
-5.974551290273666382e-02
9.958517551422119141e-02
-1.220405921339988708e-01
4.558632895350456238e-02
-2.794069610536098480e-02
3.260641917586326599e-02
4.053295776247978210e-02
-7.766412198543548584e-02
-2.419406548142433167e-02
-1.441592574119567871e-01
9.182207286357879639e-02
-1.158485710620880127e-01
-9.736549854278564453e-02
-3.372070565819740295e-02
-8.162897080183029175e-02
-6.085382029414176941e-02
-1.001391485333442688e-01
1.306574195623397827e-01
1.184853017330169678e-01
7.311600446701049805e-02
-1.538469549268484116e-02
-8.423236198723316193e-03
1.267166528850793839e-02
-9.073664993047714233e-02
-1.008106246590614319e-01
-4.453825950622558594e-02
-6.817737966775894165e-02
-5.823003873229026794e-02
-7.443353533744812012e-02
-2.492498978972434998e-02
2.090460993349552155e-02
-6.500519067049026489e-02
7.127521187067031860e-02
2.439983934164047241e-02
-8.007769286632537842e-02
4.710481688380241394e-02
-1.807620674371719360e-01
-3.034980595111846924e-02
6.543006282299757004e-03
-7.238359004259109497e-02
-1.263425946235656738e-01
3.698613122105598450e-02
1.017178520560264587e-01
-1.172639131546020508e-01
-1.354254931211471558e-01
-8.337164670228958130e-02
2.971819788217544556e-02
4.997846856713294983e-02
-2.327632904052734375e-02
-2.386330813169479370e-02
2.157476693391799927e-01
6.779713928699493408e-02
7.955306768417358398e-02
8.557423204183578491e-02
3.528791666030883789e-02
-4.169329255819320679e-02
1.404093299061059952e-02
-1.774790883064270020e-02
-3.125545382499694824e-02
7.149332202970981598e-03
6.015339121222496033e-02
-3.771284595131874084e-02
-1.039955951273441315e-02
-6.394528597593307495e-02
5.241658911108970642e-02
-1.650987751781940460e-02
4.089000076055526733e-02
-6.144167855381965637e-04
-2.690904401242733002e-02
4.239854589104652405e-02
9.302373230457305908e-02
7.891461998224258423e-02
5.157577246427536011e-02
-2.457261085510253906e-02
2.901108935475349426e-02
5.522740632295608521e-02
1.177760809659957886e-01
-4.164612665772438049e-02
6.730530411005020142e-02
-2.444239519536495209e-02
-1.773159764707088470e-02
-1.146320812404155731e-02
-4.530856013298034668e-02
1.671472191810607910e-02
3.047840297222137451e-02
1.631830818951129913e-02
1.632704026997089386e-02
1.194714307785034180e-01
6.522154808044433594e-02
-2.804501354694366455e-02
4.330122098326683044e-02
-9.230929613113403320e-02
1.033599022775888443e-03
4.849508032202720642e-02
7.859887182712554932e-02
-4.364013671875000000e-02
5.575012415647506714e-02
7.080097217112779617e-03
-6.528542190790176392e-02
8.271042257547378540e-02
-4.810456931591033936e-02
3.176857018843293190e-03
5.955786257982254028e-02
3.332895413041114807e-02
7.702688127756118774e-02
-1.105518266558647156e-01
-1.481122337281703949e-02
4.879684001207351685e-02
1.323138773441314697e-01
5.325253307819366455e-02
3.398380428552627563e-02
-7.716646045446395874e-02
8.154498785734176636e-02
6.654269993305206299e-02
6.921371072530746460e-02
9.035879373550415039e-02
5.553945153951644897e-02
2.052340842783451080e-02
7.957581430673599243e-02
9.313784539699554443e-02
-6.005772575736045837e-02
-2.592519298195838928e-02
2.065431512892246246e-02
7.513196021318435669e-02
3.224548697471618652e-02
-5.945742502808570862e-02
-5.646723136305809021e-02
-8.850867301225662231e-02
-8.925991505384445190e-02
-6.341574713587760925e-03
-2.281617186963558197e-02
1.932967081665992737e-02
3.909016028046607971e-02
3.846374107524752617e-03
3.400180488824844360e-02
7.897299528121948242e-02
-9.319942444562911987e-03
-7.755538821220397949e-02
3.983188420534133911e-02
-4.652718082070350647e-02
1.986186020076274872e-02
2.728327549993991852e-02
5.717594176530838013e-02
7.318929419852793217e-04
6.768130511045455933e-02
3.761192411184310913e-02
-4.727035015821456909e-02
5.307808518409729004e-02
-3.416363894939422607e-02
-8.931247144937515259e-02
5.818279460072517395e-02
6.809211522340774536e-02
-9.055932611227035522e-02
4.740553721785545349e-02
-5.661066155880689621e-03
-3.985563293099403381e-02
-5.680716596543788910e-03
-9.517940878868103027e-02
-2.100300975143909454e-02
3.389206156134605408e-02
-6.391541659832000732e-02
7.198454439640045166e-02
6.308687478303909302e-02
3.569715470075607300e-02
-6.463851779699325562e-02
2.835505176335573196e-03
-5.828765034675598145e-02
-1.131956651806831360e-01
-1.629634015262126923e-02
-1.139096263796091080e-02
-1.058828551322221756e-03
5.220113322138786316e-02
2.127395942807197571e-02
-4.993535205721855164e-02
3.296120464801788330e-02
5.503723770380020142e-02
-8.888015151023864746e-02
-6.230276450514793396e-02
1.134335473179817200e-01
-6.732161343097686768e-02
6.074734032154083252e-02
2.808290533721446991e-02
1.161432862281799316e-01
-3.031553700566291809e-02
-1.409410778433084488e-02
1.269405186176300049e-01
-5.000577494502067566e-02
7.096216082572937012e-02
-3.253122791647911072e-02
1.664681010879576206e-03
-1.580315269529819489e-02
-2.880993706639856100e-04
-1.899473369121551514e-02
3.200225904583930969e-02
4.167874902486801147e-02
6.066567823290824890e-02
5.355199426412582397e-02
3.867565467953681946e-02
1.254224032163619995e-02
-7.275538891553878784e-02
5.367000028491020203e-02
4.716437682509422302e-02
-9.327285736799240112e-02
-1.012417227029800415e-01
2.180787175893783569e-02
-1.351924613118171692e-02
1.225650981068611145e-01
-9.895580261945724487e-02
-1.862464851001277566e-04
6.952504813671112061e-02
6.110468879342079163e-02
5.698608607053756714e-02
-1.450875774025917053e-02
-3.198171965777873993e-03
-6.080083549022674561e-02
-1.999938860535621643e-02
-6.099062040448188782e-03
-2.269161166623234749e-03
2.216394804418087006e-02
-6.322531402111053467e-02
2.208685129880905151e-02
-3.530502691864967346e-02
5.131809040904045105e-02
1.305028796195983887e-01
-6.783432513475418091e-02
-8.876096457242965698e-03
6.174866110086441040e-02
-1.435154080390930176e-01
-9.380357712507247925e-02
3.406276181340217590e-02
-4.313455894589424133e-02
2.176393754780292511e-02
2.814635261893272400e-02
-3.323499485850334167e-02
6.517644226551055908e-02
-3.195611760020256042e-02
6.945847719907760620e-02
1.861568689346313477e-01
2.270177705213427544e-03
8.740904927253723145e-02
9.443401545286178589e-02
4.264767840504646301e-02
1.128399074077606201e-01
2.496811561286449432e-02
3.496895777061581612e-03
1.029865890741348267e-01
-3.605148941278457642e-02
8.752851188182830811e-02
9.544353932142257690e-02
-7.339143753051757812e-02
4.702185094356536865e-02
-3.049777075648307800e-02
3.223450854420661926e-02
7.268554717302322388e-02
5.342484265565872192e-02
6.029994785785675049e-02
-1.050543859601020813e-01
3.245433047413825989e-02
4.751601815223693848e-02
-8.263205736875534058e-02
-4.048236459493637085e-02
-1.781221362762153149e-05
-2.985299006104469299e-02
-2.501039952039718628e-02
-7.647744566202163696e-02
1.149936541914939880e-01
3.029355406761169434e-02
1.600196026265621185e-02
-6.091270595788955688e-02
-3.690576553344726562e-02
-7.294314447790384293e-03
-9.639368951320648193e-02
-6.440681219100952148e-02
4.253706708550453186e-02
7.127891480922698975e-02
9.019813686609268188e-02
8.027849718928337097e-03
-4.093880578875541687e-02
-8.522954583168029785e-02
-7.982180453836917877e-03
4.731829464435577393e-02
-7.977477461099624634e-02
-2.788093686103820801e-02
-5.113523826003074646e-02
1.447969973087310791e-01
-8.673638105392456055e-02
1.740167289972305298e-02
1.159947812557220459e-01
-8.250531554222106934e-02
-1.253550499677658081e-01
-1.078496500849723816e-01
3.602705895900726318e-02
-1.013057529926300049e-01
1.019224151968955994e-01
4.381425306200981140e-02
5.313577130436897278e-02
-4.434652253985404968e-02
6.312277168035507202e-02
-2.561528608202934265e-02
5.346573516726493835e-02
3.627736866474151611e-02
3.077659197151660919e-02
-4.909931216388940811e-03
2.999989315867424011e-02
8.143512159585952759e-02
1.767950318753719330e-02
9.117138385772705078e-02
5.315099284052848816e-02
4.735478386282920837e-02
2.541661262512207031e-02
-8.680363744497299194e-02
-2.881416678428649902e-02
9.980323724448680878e-03
-6.203002110123634338e-02
-3.547830507159233093e-02
-5.939286667853593826e-03
-8.365336805582046509e-02
2.899304218590259552e-02
5.224175378680229187e-02
8.817596733570098877e-02
5.806344002485275269e-02
-2.280226722359657288e-02
-8.050467818975448608e-02
-6.358286738395690918e-02
-8.114302903413772583e-02
-7.216957211494445801e-02
1.852916739881038666e-02
4.271446168422698975e-02
-4.595401510596275330e-02
6.670865416526794434e-02
-1.095633767545223236e-02
9.420695155858993530e-02
-1.616596058011054993e-02
3.922459483146667480e-02
-6.649904698133468628e-02
-8.086439967155456543e-02
-2.661288529634475708e-02
3.134617954492568970e-02
2.984387055039405823e-02
5.578778684139251709e-02
8.081062138080596924e-02
3.823573142290115356e-02
-7.568617165088653564e-02
5.078307166695594788e-02
-3.235440328717231750e-02
8.678188174962997437e-02
-2.286381833255290985e-02
3.263280540704727173e-02
-9.053338319063186646e-02
-6.137358769774436951e-02
-5.603972822427749634e-03
8.205801993608474731e-02
-3.775362670421600342e-02
-5.502544343471527100e-02
6.512076407670974731e-02
9.010622650384902954e-02
-2.659101039171218872e-02
-5.109628662467002869e-02
-7.042413949966430664e-02
-2.227774262428283691e-02
-1.999804191291332245e-02
2.144037745893001556e-02
-4.200803488492965698e-02
-9.239795804023742676e-02
-8.843338489532470703e-02
-2.135225012898445129e-02
-4.644513130187988281e-02
-3.509090747684240341e-03
-8.644905686378479004e-02
6.108471425250172615e-04
1.507737766951322556e-02
5.971933156251907349e-02
6.096195802092552185e-02
-5.545364320278167725e-02
-5.766980815678834915e-03
5.586563609540462494e-03
2.853691019117832184e-02
-4.160741344094276428e-02
-3.596955910325050354e-02
-5.907529592514038086e-02
2.692136215046048164e-03
-4.885340854525566101e-02
5.970869958400726318e-02
-3.273002104833722115e-03
-1.839448697865009308e-02
4.413580149412155151e-02
-7.718389853835105896e-03
7.938911020755767822e-02
7.919671386480331421e-02
7.098182290792465210e-02
-3.479103744029998779e-02
-9.360249154269695282e-03
2.070973627269268036e-02
-2.502770908176898956e-02
2.157161757349967957e-02
3.558655455708503723e-02
3.248765692114830017e-02
-3.599262982606887817e-02
-3.062104247510433197e-02
-7.939043641090393066e-02
3.438658267259597778e-02
-5.191167443990707397e-02
-6.776677072048187256e-02
2.940518781542778015e-02
9.267525374889373779e-02
-8.487156778573989868e-02
-1.133757922798395157e-02
-4.402105137705802917e-02
-3.296141698956489563e-02
9.052522480487823486e-02
2.874155342578887939e-02
-4.249234497547149658e-02
-2.417909540235996246e-02
-7.498037815093994141e-02
6.943079829216003418e-02
-8.278921991586685181e-02
-1.155778300017118454e-02
1.124030165374279022e-02
9.669926017522811890e-02
5.402995645999908447e-02
1.247344072908163071e-02
-4.676811024546623230e-02
1.428463906049728394e-01
1.004547104239463806e-01
7.351740449666976929e-02
-7.110435515642166138e-02
-9.016483277082443237e-02
8.612552192062139511e-04
8.643013238906860352e-02
6.661079823970794678e-02
7.527068257331848145e-02
-9.218163043260574341e-02
-4.079842567443847656e-02
7.363398373126983643e-02
-5.020542442798614502e-02
4.373127594590187073e-02
-4.952998459339141846e-02
4.988512769341468811e-02
-3.156027942895889282e-02
-3.212400153279304504e-02
-3.703259304165840149e-02
3.018878214061260223e-02
1.293525844812393188e-01
1.063008010387420654e-01
-1.526036709547042847e-01
-1.776410266757011414e-02
-1.522072032094001770e-02
-1.142497807741165161e-01
-1.796499267220497131e-02
-6.966762244701385498e-02
3.327757865190505981e-02
9.874417632818222046e-02
1.566261611878871918e-02
-2.160115540027618408e-01
-3.377647325396537781e-02
-1.071505844593048096e-01
-1.927946321666240692e-02
-1.160467267036437988e-01
3.575058281421661377e-02
-6.431526690721511841e-02
4.333331249654293060e-03
-2.997253090143203735e-02
3.622415708377957344e-03
1.089291647076606750e-01
2.412331663072109222e-02
-9.344097343273460865e-04
-4.723136126995086670e-02
1.901257187128067017e-01
-7.860054075717926025e-02
2.754493057727813721e-02
6.969243288040161133e-02
8.282589912414550781e-02
-4.698660597205162048e-02
-5.368598178029060364e-02
-1.519081462174654007e-02
4.628289118409156799e-02
8.474306017160415649e-02
-8.207190781831741333e-02
-1.184089407324790955e-01
2.630994888022542000e-03
-1.150512546300888062e-01
-5.345333833247423172e-03
1.179905161261558533e-01
4.585094377398490906e-02
1.921184919774532318e-02
1.820500940084457397e-02
-3.936773166060447693e-02
6.827510148286819458e-02
8.941489458084106445e-02
-5.801702290773391724e-02
-1.500569190829992294e-02
9.406786412000656128e-02
1.480809506028890610e-02
-6.950224936008453369e-02
-3.136403858661651611e-02
-8.534368127584457397e-02
8.782884478569030762e-02
6.692357361316680908e-02
-1.257669925689697266e-01
-2.586595946922898293e-04
3.353468328714370728e-02
9.210053086280822754e-02
-9.544312953948974609e-02
-3.343398123979568481e-02
6.029473990201950073e-02
6.655972450971603394e-02
-4.921092465519905090e-02
1.234596893191337585e-01
2.427116408944129944e-02
1.209173649549484253e-01
-1.660769134759902954e-01
5.297229066491127014e-02
8.115480095148086548e-02
-1.854605972766876221e-02
2.191311307251453400e-02
2.884686226025223732e-03
-1.051336824893951416e-01
-4.363960772752761841e-02
-1.786977984011173248e-02
9.151199460029602051e-02
-1.068627238273620605e-01
5.654348060488700867e-02
1.495182365179061890e-01
-2.913205139338970184e-02
4.163634032011032104e-02
-2.623417787253856659e-02
-6.822400540113449097e-02
-5.396607518196105957e-02
-4.770084284245967865e-03
4.617793485522270203e-02
-1.335622929036617279e-02
9.897010773420333862e-02
-1.058656647801399231e-01
-4.511811211705207825e-02
9.690382517874240875e-03
3.079182282090187073e-02
-9.300166741013526917e-03
4.603943973779678345e-02
-1.326899528503417969e-01
2.016675658524036407e-02
7.398779690265655518e-02
-6.391307711601257324e-02
-5.877930298447608948e-02
1.603978686034679413e-02
-7.720401883125305176e-02
-8.805652707815170288e-02
4.642625153064727783e-02
-8.043040521442890167e-03
2.927498891949653625e-03
5.330668389797210693e-02
2.890026196837425232e-02
1.939611509442329407e-02
8.922485262155532837e-02
5.888965725898742676e-02
-7.594736665487289429e-02
-1.288919057697057724e-02
7.607731223106384277e-02
4.069791641086339951e-03
-6.729666888713836670e-02
8.255473524332046509e-02
3.527359664440155029e-02
6.845334917306900024e-02
7.242423295974731445e-02
-1.967259496450424194e-02
2.727576158940792084e-02
-2.266519330441951752e-02
8.885914832353591919e-02
-6.409049034118652344e-02
8.250709623098373413e-02
-8.286139369010925293e-02
-8.823193609714508057e-02
5.511857569217681885e-02
-6.564850360155105591e-02
-7.949490100145339966e-02
4.982060194015502930e-02
7.681357208639383316e-03
-4.848473891615867615e-02
8.639562875032424927e-02
-3.351535648107528687e-02
-8.146502077579498291e-03
-5.264617875218391418e-02
-5.885407328605651855e-02
-3.131472691893577576e-02
2.378576435148715973e-02
-3.062388300895690918e-02
5.748157948255538940e-02
9.018787182867527008e-03
-5.920667201280593872e-02
5.460514873266220093e-02
8.506868034601211548e-02
-7.587626576423645020e-02
-4.201460257172584534e-02
-8.607959747314453125e-02
1.183432061225175858e-02
4.136817157268524170e-02
-6.314041465520858765e-02
4.345262050628662109e-02
-2.207950502634048462e-02
6.854842603206634521e-02
5.660763010382652283e-02
3.403893858194351196e-02
-6.174252554774284363e-02
-6.620899587869644165e-02
-4.716943204402923584e-02
-2.752318046987056732e-02
1.267509348690509796e-02
-4.940054565668106079e-02
-7.604113221168518066e-02
-2.112695574760437012e-02
-1.085526589304208755e-02
7.848519599065184593e-04
-5.475468188524246216e-02
-1.344593614339828491e-02
-4.744815826416015625e-02
7.477439194917678833e-02
-5.495406314730644226e-02
-6.385135650634765625e-02
7.795426249504089355e-02
4.388616234064102173e-02
-9.334889054298400879e-02
-2.697350829839706421e-02
-4.972841218113899231e-02
5.335969105362892151e-02
7.356515526771545410e-02
1.123891863971948624e-02
6.196850538253784180e-02
-4.937655851244926453e-02
5.627910047769546509e-02
-3.527102991938591003e-02
5.275633931159973145e-02
-1.087657082825899124e-02
-6.143899634480476379e-02
8.869510143995285034e-02
-1.543726772069931030e-02
-1.670189551077783108e-03
4.874498769640922546e-02
-4.861373826861381531e-02
2.332202531397342682e-02
2.377723343670368195e-03
3.588050603866577148e-02
4.916471242904663086e-02
-4.057227447628974915e-02
1.179204415529966354e-02
8.496435731649398804e-02
-7.950608432292938232e-02
4.436522349715232849e-02
-7.031061220914125443e-03
-7.815747708082199097e-02
4.870394710451364517e-03
-7.022344321012496948e-02
-1.356488931924104691e-02
6.088617444038391113e-02
3.720203787088394165e-02
-2.232973277568817139e-02
7.333071529865264893e-02
4.979975894093513489e-02
1.813015528023242950e-02
-1.638628728687763214e-02
-6.959608197212219238e-02
-9.028984606266021729e-02
6.446430832147598267e-02
2.551280707120895386e-02
-4.813336953520774841e-02
-9.163072705268859863e-02
7.664825767278671265e-02
-9.342806413769721985e-03
-2.214945293962955475e-02
7.335814833641052246e-02
-5.386692658066749573e-02
8.668684959411621094e-02
-5.554186180233955383e-02
7.134968042373657227e-02
-5.180381983518600464e-02
-2.547331713140010834e-02
4.928421601653099060e-02
-1.164121180772781372e-02
2.751963213086128235e-02
-5.728227272629737854e-02
4.602541401982307434e-02
-4.531331732869148254e-02
4.965531080961227417e-02
-5.855541303753852844e-02
3.171545639634132385e-02
-7.901249825954437256e-02
-1.470585633069276810e-02
7.238996028900146484e-02
-4.589107632637023926e-02
-4.017453640699386597e-02
9.599251672625541687e-03
-6.402389705181121826e-02
-6.568374484777450562e-02
6.586898118257522583e-02
-6.025104969739913940e-02
1.751908473670482635e-02
-6.486237049102783203e-02
-6.408865004777908325e-02
-4.610639065504074097e-02
3.985846787691116333e-02
6.070306524634361267e-02
7.294904440641403198e-02
4.702231287956237793e-02
-7.652737200260162354e-02
1.433161739259958267e-02
1.918689161539077759e-02
-9.075333178043365479e-02
4.263622686266899109e-02
5.249674618244171143e-02
-1.946603320538997650e-02
-6.143365055322647095e-02
-1.411388069391250610e-02
-3.517911210656166077e-02
2.909085154533386230e-02
-7.868176698684692383e-02
-6.740615516901016235e-02
6.702240556478500366e-02
2.073847688734531403e-02
-7.189463078975677490e-02
5.951961502432823181e-02
-7.673531025648117065e-02
-6.415459513664245605e-02
-6.948024034500122070e-02
3.344747424125671387e-02
-4.653692245483398438e-02
-7.804779708385467529e-02
-4.631099104881286621e-02
-1.971962489187717438e-02
7.511977851390838623e-02
4.740598425269126892e-02
1.749967597424983978e-02
-9.215158224105834961e-02
6.307700276374816895e-02
-7.182817161083221436e-02
-7.704603672027587891e-02
6.103190034627914429e-02
-1.036581862717866898e-02
6.996421143412590027e-03
5.995249003171920776e-02
-8.045795373618602753e-03
-2.569077722728252411e-02
4.815268889069557190e-02
-7.610969990491867065e-02
-1.582730002701282501e-02
-6.969980895519256592e-02
-6.712279468774795532e-02
-4.972473531961441040e-02
1.066467352211475372e-02
-2.156062051653862000e-03
-8.744918555021286011e-02
-5.986815690994262695e-02
6.950495392084121704e-02
-2.005075290799140930e-02
3.488751873373985291e-02
-2.682621777057647705e-02
3.818510472774505615e-02
-6.141278892755508423e-02
-9.715359658002853394e-03
8.481022715568542480e-02
-7.887694239616394043e-02
-6.172087416052818298e-02
8.262818306684494019e-02
8.714604377746582031e-02
-8.627145737409591675e-02
7.393205165863037109e-02
1.129538286477327347e-02
1.305434107780456543e-02
-3.329528868198394775e-02
-1.538117043673992157e-02
-1.127680111676454544e-02
-5.796144157648086548e-02
-6.714966893196105957e-02
-7.675578445196151733e-02
8.214301615953445435e-02
7.202490419149398804e-02
-1.617830432951450348e-02
8.752766251564025879e-02
5.010613799095153809e-02
1.764322072267532349e-02
4.982673376798629761e-02
-3.536868095397949219e-02
-8.633366785943508148e-03
6.909841299057006836e-02
-5.955684557557106018e-02
-1.016204878687858582e-01
-5.963198095560073853e-02
-9.941016882658004761e-02
8.491799980401992798e-02
5.896917730569839478e-02
-4.180050641298294067e-02
1.366976182907819748e-03
3.334525739774107933e-03
1.441532969474792480e-01
-8.584903180599212646e-02
3.219889849424362183e-02
-2.021397836506366730e-02
-8.830760419368743896e-02
-7.646690309047698975e-02
5.028501898050308228e-02
4.980926960706710815e-02
7.472006976604461670e-02
-6.446050852537155151e-02
4.368038475513458252e-02
2.752745151519775391e-02
6.158335879445075989e-02
8.110758662223815918e-02
7.843805849552154541e-02
-1.520555932074785233e-03
1.336413919925689697e-01
-1.333442050963640213e-02
-5.147284828126430511e-03
1.065960600972175598e-01
5.366908758878707886e-02
-1.469398140907287598e-01
4.318651184439659119e-02
-4.251075536012649536e-02
-4.918197542428970337e-02
-3.268776834011077881e-02
4.944404214620590210e-02
7.054727524518966675e-02
3.831429407000541687e-02
-2.978183142840862274e-02
4.061996564269065857e-02
-1.813528835773468018e-01
-1.273749172687530518e-01
4.960858449339866638e-02
-9.588794410228729248e-02
1.429533399641513824e-02
6.028568744659423828e-02
-9.153299033641815186e-02
1.477631330490112305e-01
3.272353112697601318e-02
-1.400845684111118317e-02
-5.062286928296089172e-02
-5.744231119751930237e-02
1.245879828929901123e-01
-7.069202139973640442e-03
1.008693203330039978e-01
8.962026238441467285e-02
-7.896995544433593750e-02
6.067954748868942261e-02
1.196601316332817078e-01
-1.111281961202621460e-01
-2.447860687971115112e-02
1.094579026103019714e-01
-1.391218453645706177e-01
-4.194999486207962036e-02
5.094629898667335510e-02
-7.850886136293411255e-02
8.014766126871109009e-02
1.093275696039199829e-01
4.692625999450683594e-02
-4.069226980209350586e-02
1.074047088623046875e-01
-1.181477680802345276e-01
4.359654616564512253e-03
-9.283490478992462158e-03
-1.214944291859865189e-02
4.497364535927772522e-02
-2.482011914253234863e-02
-1.014574244618415833e-01
-7.235155254602432251e-02
-1.070617884397506714e-02
3.943717479705810547e-02
8.359108120203018188e-02
-6.415710598230361938e-02
-7.518088817596435547e-02
1.461423188447952271e-01
3.832154721021652222e-02
6.877712905406951904e-02
-7.150263339281082153e-02
1.176428701728582382e-02
1.304941028356552124e-01
1.163218263536691666e-02
-4.413557052612304688e-02
1.330542266368865967e-01
6.325890868902206421e-02
-1.043415591120719910e-01
4.441444575786590576e-02
-9.711875766515731812e-02
-5.094977095723152161e-03
4.000778868794441223e-02
1.272580176591873169e-01
1.036339029669761658e-01
-3.350392356514930725e-02
1.665719784796237946e-02
2.288132905960083008e-02
3.862903267145156860e-02
8.574743568897247314e-02
1.744859851896762848e-02
2.291676588356494904e-02
3.537175059318542480e-02
1.663828045129776001e-01
-1.086816564202308655e-01
7.367282640188932419e-03
-4.014177829958498478e-04
-4.449051991105079651e-02
5.373526737093925476e-02
-2.445553801953792572e-02
6.880625337362289429e-02
1.897189579904079437e-02
7.291051745414733887e-02
3.645582124590873718e-02
1.374813616275787354e-01
-6.668221205472946167e-02
-5.644110590219497681e-02
-4.185350611805915833e-02
-3.537002205848693848e-02
4.327110573649406433e-02
7.897120714187622070e-02
2.256143838167190552e-03
4.570499435067176819e-02
-7.064366340637207031e-02
4.465036094188690186e-02
-7.056137174367904663e-02
-4.429975152015686035e-02
-1.198750454932451248e-02
3.244692459702491760e-02
-7.975226640701293945e-02
-3.581751510500907898e-02
2.575896494090557098e-02
3.780420869588851929e-02
1.409422885626554489e-02
7.251149415969848633e-02
-1.656909100711345673e-02
3.352581709623336792e-02
9.462241083383560181e-02
-1.159136667847633362e-01
8.866015821695327759e-03
-2.887222729623317719e-02
9.009225666522979736e-02
1.368022803217172623e-02
-8.928658068180084229e-02
9.636500477790832520e-02
-7.933821529150009155e-02
-1.721081696450710297e-02
8.496882766485214233e-02
-7.437113672494888306e-02
1.178025603294372559e-01
-1.641534641385078430e-02
-4.255660343915224075e-03
-3.311869502067565918e-02
2.432837150990962982e-02
-6.392160803079605103e-02
3.286970034241676331e-02
5.709619820117950439e-02
2.744063362479209900e-02
-3.774157166481018066e-02
-3.520154953002929688e-02
1.040488015860319138e-02
-5.976986885070800781e-02
6.650957465171813965e-02
8.913588523864746094e-02
5.648374184966087341e-02
8.757362142205238342e-03
-2.715891227126121521e-02
3.953318111598491669e-03
1.042996197938919067e-01
1.167990937829017639e-01
8.543436229228973389e-02
-1.110010147094726562e-01
5.903017520904541016e-02
1.328922435641288757e-02
-7.943218201398849487e-02
-6.482953578233718872e-02
2.706712111830711365e-02
8.757600933313369751e-02
-1.299780756235122681e-01
-7.475890684872865677e-03
2.686303295195102692e-02
8.421097882091999054e-03
-6.424777954816818237e-02
1.085934266448020935e-01
-7.613690942525863647e-02
4.844822362065315247e-02
7.657810300588607788e-02
4.128528386354446411e-02
-3.976767882704734802e-02
-9.114138036966323853e-02
-1.556898700073361397e-03
1.083194613456726074e-01
1.470437049865722656e-01
6.224180757999420166e-02
-1.389868259429931641e-01
2.762128040194511414e-02
-2.477317349985241890e-03
-1.256942451000213623e-01
-3.787893056869506836e-02
-6.354532390832901001e-02
-4.427202418446540833e-02
6.821570545434951782e-02
8.096804469823837280e-02
-2.099426276981830597e-02
-6.886556744575500488e-02
-3.748421370983123779e-02
3.886859491467475891e-02
-5.904287844896316528e-02
4.805759713053703308e-02
4.062952473759651184e-02
-3.072335943579673767e-02
1.063562333583831787e-01
1.093229278922080994e-01
-5.814893171191215515e-02
5.575786903500556946e-02
8.630705624818801880e-02
1.784128695726394653e-02
1.927624270319938660e-02
-9.264772385358810425e-02
-4.631914198398590088e-02
1.041454970836639404e-01
5.917970463633537292e-02
6.493828259408473969e-03
2.085323259234428406e-02
3.707811236381530762e-02
-3.812692314386367798e-02
1.588553488254547119e-01
6.822964549064636230e-02
2.558286115527153015e-02
9.734617546200752258e-03
1.103363707661628723e-01
-6.143355742096900940e-03
-7.706405967473983765e-02
-5.527439527213573456e-03
4.621976241469383240e-02
-8.149597048759460449e-02
4.616800229996442795e-03
7.180853933095932007e-02
1.555041596293449402e-02
2.513842284679412842e-02
-5.790992826223373413e-02
3.697937726974487305e-02
-7.767330855131149292e-02
-2.048801816999912262e-02
4.286856949329376221e-02
7.559332996606826782e-02
8.616267889738082886e-02
-5.992713943123817444e-02
-1.105491071939468384e-02
-6.480897217988967896e-02
-5.445495620369911194e-02
-7.580027729272842407e-02
1.424150075763463974e-02
-1.045875530689954758e-02
3.926387801766395569e-02
-1.072810497134923935e-02
-6.251804530620574951e-02
-8.521784842014312744e-02
-6.811305135488510132e-02
-7.260953634977340698e-02
4.116349667310714722e-02
-5.935905035585165024e-03
-4.193572327494621277e-02
-3.188544139266014099e-02
-8.069854974746704102e-02
-3.816384822130203247e-02
-1.381570100784301758e-02
1.541708409786224365e-02
-4.917865246534347534e-02
8.382054418325424194e-02
5.606091395020484924e-02
-2.135725505650043488e-02
3.895631432533264160e-02
-2.087284438312053680e-02
3.203028813004493713e-02
8.613098412752151489e-03
-4.530714824795722961e-02
-9.149331599473953247e-02
-8.465218544006347656e-02
-8.842304348945617676e-02
7.282491028308868408e-02
-7.463624328374862671e-02
-2.125093527138233185e-02
-5.069945007562637329e-02
4.890766739845275879e-02
-2.040420472621917725e-02
2.452674508094787598e-02
-8.443266898393630981e-02
-7.454662024974822998e-02
5.321338400244712830e-02
5.960639938712120056e-02
4.464035853743553162e-02
-4.794745147228240967e-02
4.097374156117439270e-02
-1.351325865834951401e-02
-2.447324059903621674e-02
5.376447364687919617e-02
1.741711236536502838e-02
-3.409219905734062195e-02
7.143885642290115356e-02
-2.004822157323360443e-02
-3.498627338558435440e-03
6.129926443099975586e-02
-6.747268140316009521e-02
8.701884187757968903e-03
-5.795720964670181274e-03
-7.478751242160797119e-02
-1.753566414117813110e-02
-2.546797040849924088e-03
6.371880322694778442e-02
6.018489599227905273e-02
-6.373019516468048096e-02
1.659085974097251892e-02
-2.214724011719226837e-02
-8.824048936367034912e-02
7.166428864002227783e-02
2.543340250849723816e-02
-8.259140886366367340e-03
1.907286420464515686e-02
9.490803815424442291e-03
7.951690256595611572e-02
3.320196270942687988e-02
3.266571089625358582e-02
2.576597034931182861e-03
-1.299375947564840317e-02
-2.039559694821946323e-05
1.157001312822103500e-02
-4.029905796051025391e-02
6.555815786123275757e-02
6.391049828380346298e-03
8.271302282810211182e-02
-6.990943104028701782e-02
8.135969936847686768e-02
8.413025736808776855e-02
-2.232981473207473755e-02
6.608927249908447266e-02
7.985471934080123901e-02
-5.701059848070144653e-02
7.578828837722539902e-03
3.152672946453094482e-02
-9.202242642641067505e-02
6.853552162647247314e-02
3.392072860151529312e-03
-2.495632320642471313e-02
-8.377346396446228027e-02
7.231739908456802368e-02
-8.732671290636062622e-02
-3.849276155233383179e-02
8.449722081422805786e-02
1.894783228635787964e-02
-6.604673713445663452e-02
-6.415334343910217285e-02
-7.368398457765579224e-02
-7.127456367015838623e-02
2.145378291606903076e-02
-1.201396659016609192e-01
8.435947448015213013e-02
7.306491583585739136e-02
-3.175721317529678345e-02
-6.243120878934860229e-02
2.812618575990200043e-02
-4.393989220261573792e-02
4.601398110389709473e-02
-8.834026008844375610e-02
-4.588382318615913391e-02
-1.609068661928176880e-01
3.003653325140476227e-02
1.803784444928169250e-02
6.209950149059295654e-02
8.391410857439041138e-02
-1.025217846035957336e-01
-2.791027352213859558e-02
5.805179476737976074e-02
6.012256443500518799e-02
1.790610887110233307e-02
8.021576330065727234e-03
-5.190021917223930359e-02
5.319876968860626221e-02
3.111568279564380646e-02
-2.329867891967296600e-02
3.990133479237556458e-02
-6.908654421567916870e-02
4.377626627683639526e-02
6.883487105369567871e-02
1.169047784060239792e-02
6.771155446767807007e-02
8.453875035047531128e-02
-1.606565900146961212e-02
-3.916076570749282837e-02
2.674689143896102905e-02
1.335709542036056519e-01
-2.276949025690555573e-02
2.589380554854869843e-02
2.530336566269397736e-02
-6.905446201562881470e-02
-3.795908391475677490e-02
8.219213038682937622e-02
-1.069949008524417877e-02
1.428602784872055054e-01
8.058366179466247559e-02
-8.260969817638397217e-02
1.195031125098466873e-02
-7.114332169294357300e-02
4.721092432737350464e-02
-2.788526192307472229e-02
8.715946227312088013e-02
6.619530171155929565e-02
-5.347341671586036682e-02
2.980211935937404633e-02
1.801249384880065918e-02
6.832378357648849487e-02
6.614071875810623169e-02
-5.367511138319969177e-02
-7.441628724336624146e-02
-1.811516843736171722e-02
1.743473298847675323e-02
1.014142930507659912e-01
-7.300079613924026489e-02
-6.331455707550048828e-02
1.128939688205718994e-01
-2.656770683825016022e-02
5.168030411005020142e-02
-8.406232297420501709e-02
-9.802470356225967407e-02
-4.386250302195549011e-02
4.006362706422805786e-02
-1.044607460498809814e-01
4.535916075110435486e-02
-4.750835895538330078e-02
-1.326518654823303223e-01
1.759837009012699127e-02
1.045183539390563965e-01
5.493615567684173584e-02
1.203962415456771851e-01
1.932060532271862030e-02
-3.910109028220176697e-02
8.470254391431808472e-02
-1.622600108385086060e-01
-4.722433909773826599e-02
6.433536857366561890e-02
-4.553534090518951416e-02
8.391653001308441162e-02
6.946011632680892944e-02
1.860146224498748779e-02
-4.112506285309791565e-02
6.449802964925765991e-02
-1.276856753975152969e-02
-1.466174796223640442e-02
-6.554312538355588913e-03
6.968728452920913696e-02
2.105051279067993164e-02
-8.014230988919734955e-03
6.012362241744995117e-02
7.064182311296463013e-02
-7.862078398466110229e-02
4.200129583477973938e-02
-3.182215988636016846e-02
1.017220616340637207e-01
7.312592351809144020e-04
3.617792204022407532e-02
-8.066672831773757935e-02
-3.793330490589141846e-02
6.676676124334335327e-02
1.723597571253776550e-02
-7.928931154310703278e-03
-1.210234314203262329e-01
-5.653109773993492126e-02
-4.146105051040649414e-02
-7.784701883792877197e-02
-2.531809918582439423e-02
4.719101265072822571e-02
-6.183817610144615173e-02
3.057592362165451050e-02
-8.813074231147766113e-02
7.960642874240875244e-02
-5.143598467111587524e-02
-5.067392066121101379e-02
-6.756406277418136597e-02
6.954377889633178711e-02
6.147319823503494263e-02
2.248387783765792847e-02
-5.394607782363891602e-03
3.589312359690666199e-02
-6.103490595705807209e-04
3.588100150227546692e-02
8.453608304262161255e-02
2.974316105246543884e-02
-2.485939767211675644e-03
4.397308081388473511e-02
1.138695925474166870e-01
1.173275038599967957e-01
-3.238508477807044983e-02
4.202844866085797548e-04
4.364334419369697571e-02
-1.602044142782688141e-02
1.339119672775268555e-01
5.829640105366706848e-02
-8.316822350025177002e-02
1.274357922375202179e-02
-3.273075073957443237e-02
-5.398969352245330811e-02
4.595252126455307007e-02
8.192843943834304810e-02
-3.548664227128028870e-02
7.425228506326675415e-02
-1.473944541066884995e-02
5.701861903071403503e-02
-4.717779229395091534e-04
5.522678047418594360e-02
-2.332619950175285339e-02
2.107159420847892761e-02
2.452285401523113251e-02
9.032560884952545166e-02
9.154330939054489136e-03
-9.257070720195770264e-02
-2.921268157660961151e-02
5.210575461387634277e-02
-4.312422126531600952e-03
1.406445726752281189e-02
8.604326099157333374e-02
-7.954505831003189087e-02
1.740376949310302734e-01
7.851265370845794678e-02
7.927119731903076172e-02
-1.152189821004867554e-02
3.653511777520179749e-02
9.790650568902492523e-03
-7.220968604087829590e-02
6.904099881649017334e-02
1.668735966086387634e-02
-1.307849958539009094e-02
-5.325333029031753540e-02
-1.746397651731967926e-02
-5.816018953919410706e-02
-1.320748180150985718e-01
2.234774455428123474e-02
7.147938013076782227e-02
8.442158252000808716e-02
1.389379333704710007e-02
-1.043113023042678833e-01
-2.024610899388790131e-02
2.218739502131938934e-02
-4.616586863994598389e-02
2.788853831589221954e-02
-2.615667879581451416e-02
-1.090535074472427368e-01
2.619219571352005005e-02
-1.635062322020530701e-02
-5.697093531489372253e-02
-1.740767247974872589e-02
1.012438442558050156e-02
-6.542948633432388306e-02
-1.335800886154174805e-01
7.390278577804565430e-02
-1.372953876852989197e-02
5.286401137709617615e-02
4.300331696867942810e-02
-3.116063401103019714e-02
-5.485469941049814224e-03
8.788917213678359985e-02
-4.925758019089698792e-02
8.795014023780822754e-02
-8.675853163003921509e-02
1.157399415969848633e-01
-3.574905544519424438e-02
2.011830545961856842e-02
-9.085942059755325317e-02
-6.698236614465713501e-02
5.312650650739669800e-02
1.831862516701221466e-02
-1.703922450542449951e-02
6.674006115645170212e-03
1.223734170198440552e-01
-2.461644262075424194e-02
7.291685044765472412e-02
4.275613278150558472e-02
4.768630117177963257e-02
1.105006039142608643e-01
5.253425613045692444e-02
-4.566946532577276230e-03
5.828630179166793823e-02
-5.572203546762466431e-02
-6.112178042531013489e-02
2.938417345285415649e-02
9.010858833789825439e-02
-2.707468159496784210e-02
-1.153209283947944641e-01
1.449230685830116272e-02
4.556196928024291992e-02
-2.330147288739681244e-02
-1.422955244779586792e-01
3.712730109691619873e-02
-4.564982280135154724e-02
-4.701692238450050354e-02
2.294523082673549652e-02
-3.627878800034523010e-02
-4.327688738703727722e-02
8.870180696249008179e-02
-1.948711276054382324e-01
-1.275471597909927368e-02
3.835758566856384277e-02
-8.088125288486480713e-02
-5.145640298724174500e-02
1.347857713699340820e-01
-5.014745984226465225e-03
7.915652543306350708e-02
3.211430832743644714e-02
-2.606790699064731598e-02
8.478032052516937256e-02
-1.026290059089660645e-01
1.152031347155570984e-01
-4.892893135547637939e-02
7.913870364427566528e-02
-9.649138152599334717e-02
3.345275670289993286e-02
4.376395419239997864e-02
8.179606497287750244e-02
-7.350283861160278320e-02
-9.689851850271224976e-02
3.965699672698974609e-02
6.954344362020492554e-02
1.217712387442588806e-01
6.326411664485931396e-02
2.561228349804878235e-02
6.593687087297439575e-02
-1.944959163665771484e-02
-9.313596040010452271e-02
6.195467710494995117e-02
1.876636780798435211e-02
-3.936998918652534485e-02
7.770940101181622595e-06
-2.361157909035682678e-02
-7.347531616687774658e-02
9.823409467935562134e-02
6.121638044714927673e-02
-1.355793327093124390e-01
7.584848254919052124e-02
1.663433909416198730e-01
-1.181076616048812866e-01
6.649513542652130127e-02
1.147265136241912842e-01
7.800490409135818481e-02
-5.430908128619194031e-02
1.278605125844478607e-02
5.338805913925170898e-02
4.621176794171333313e-02
-5.489660892635583878e-03
-5.789694935083389282e-02
6.015892699360847473e-02
-5.516583845019340515e-02
-1.860976964235305786e-01
-5.047836899757385254e-02
6.530354730784893036e-03
-3.448704257607460022e-02
-7.545087952166795731e-03
-7.442871481180191040e-02
9.404504299163818359e-02
-1.483548153191804886e-02
-2.537635713815689087e-02
-7.760148495435714722e-02
-9.699537605047225952e-02
-9.740012139081954956e-02
5.324829369783401489e-02
1.230433396995067596e-02
1.669861562550067902e-02
-1.754921078681945801e-01
-1.148961633443832397e-01
2.789592556655406952e-02
-2.316030487418174744e-02
9.491013735532760620e-02
-1.067989468574523926e-01
7.637559622526168823e-02
-1.181055530905723572e-01
6.777832284569740295e-03
3.739469498395919800e-02
-9.228384494781494141e-02
3.985624387860298157e-02
-4.422583058476448059e-02
-2.115450985729694366e-02
4.335054755210876465e-02
9.155641496181488037e-02
-7.493633776903152466e-02
1.042771041393280029e-01
9.189961105585098267e-02
-9.845662117004394531e-02
9.314185380935668945e-02
7.928477227687835693e-02
8.076347410678863525e-02
6.169943511486053467e-02
6.717649102210998535e-02
1.013590022921562195e-01
3.248935565352439880e-03
7.014223933219909668e-02
-7.479251921176910400e-02
-5.435699224472045898e-02
1.066125407814979553e-01
1.365830302238464355e-01
-6.803930550813674927e-02
4.197873920202255249e-02
8.943031728267669678e-02
6.980592757463455200e-02
1.492858584970235825e-02
-8.942388743162155151e-02
3.566433489322662354e-02
3.656606376171112061e-02
-9.159342199563980103e-02
-6.279189139604568481e-02
8.541822433471679688e-02
7.361941039562225342e-02
1.314335614442825317e-01
-9.405095875263214111e-02
-1.321640014648437500e-01
-4.298560321331024170e-02
-1.481344085186719894e-02
-2.877361606806516647e-03
6.508354842662811279e-02
1.028077080845832825e-01
5.598335340619087219e-02
-5.627049505710601807e-02
-6.831888109445571899e-02
7.640319317579269409e-02
3.219104558229446411e-02
-5.465409532189369202e-02
-9.400838613510131836e-02
6.476746057160198689e-04
-1.524968594312667847e-01
-7.385124266147613525e-02
-8.058699220418930054e-02
1.093315109610557556e-01
-3.215535730123519897e-02
-1.965465396642684937e-02
-1.052957624197006226e-01
1.159542351961135864e-01
5.149350687861442566e-02
-2.046297639608383179e-01
1.823683828115463257e-01
-8.889341354370117188e-02
-1.382072716951370239e-01
2.342390641570091248e-02
-2.235884312540292740e-03
-3.600469976663589478e-02
-5.257793888449668884e-02
5.000560358166694641e-02
-4.142576828598976135e-02
-6.074187532067298889e-02
-3.428293392062187195e-02
-1.165599301457405090e-01
9.691873565316200256e-03
1.917553693056106567e-02
1.870528981089591980e-02
5.043576657772064209e-02
-3.364374488592147827e-02
-8.408854901790618896e-02
8.149760216474533081e-02
4.987433180212974548e-02
1.455524116754531860e-01
6.336511671543121338e-02
8.947206079028546810e-04
-1.695255376398563385e-02
6.940347701311111450e-02
1.041371449828147888e-01
3.615920245647430420e-02
8.939800411462783813e-02
8.863793313503265381e-02
7.738389819860458374e-02
-6.028623506426811218e-02
2.325109019875526428e-02
-8.938726037740707397e-02
-7.224307954311370850e-02
-6.915578991174697876e-02
-8.750145882368087769e-02
-3.988073021173477173e-02
-5.432188883423805237e-02
9.323500096797943115e-02
1.028793156147003174e-01
1.512890495359897614e-02
-8.416036516427993774e-02
-4.414197430014610291e-02
1.211816631257534027e-02
1.004773676395416260e-01
-1.172090414911508560e-02
5.111493542790412903e-02
4.859850183129310608e-02
-3.440954908728599548e-02
1.112154126167297363e-02
5.380258709192276001e-02
5.277597159147262573e-02
-1.646562665700912476e-02
1.510051172226667404e-02
-4.599661752581596375e-02
-1.016040071845054626e-01
-7.437507808208465576e-02
7.921398617327213287e-03
1.084674671292304993e-01
5.780108273029327393e-02
1.199292019009590149e-01
5.359665304422378540e-02
4.223794490098953247e-02
7.681988924741744995e-02
1.120029315352439880e-01
-3.634626790881156921e-02
8.447824418544769287e-02
4.761882126331329346e-03
2.683319710195064545e-02
-1.089733541011810303e-01
2.916119806468486786e-02
-1.027102321386337280e-01
4.337977617979049683e-02
1.556353177875280380e-02
-1.164200156927108765e-01
-4.953708499670028687e-02
-6.887331604957580566e-02
-1.040477603673934937e-01
2.401578612625598907e-02
-3.133635036647319794e-04
1.425446867942810059e-01
-5.365478992462158203e-02
1.068019866943359375e-01
7.407352328300476074e-02
-5.868429318070411682e-02
1.321728527545928955e-01
-8.831652253866195679e-02
2.804850228130817413e-02
-8.812692761421203613e-02
1.230220571160316467e-01
6.618590652942657471e-02
4.232669621706008911e-02
1.842638105154037476e-02
1.776090636849403381e-02
8.137689530849456787e-02
1.083433553576469421e-01
3.381784632802009583e-02
-1.187056005001068115e-01
3.747578710317611694e-02
3.925669565796852112e-02
-1.121592745184898376e-01
6.833221763372421265e-02
-4.743783921003341675e-02
5.246765166521072388e-02
-1.262303441762924194e-02
-1.330020837485790253e-02
1.554836798459291458e-02
-5.048534646630287170e-02
7.090941071510314941e-02
-2.497925888746976852e-03
3.694152459502220154e-02
-4.384731501340866089e-02
5.975054576992988586e-03
-5.866873078048229218e-03
8.881755173206329346e-02
-7.979775965213775635e-02
-3.848047181963920593e-02
3.703907132148742676e-02
8.224333822727203369e-02
3.274000063538551331e-02
-2.523536793887615204e-03
2.226999588310718536e-02
1.216141358017921448e-01
-1.379552483558654785e-01
-4.780057072639465332e-02
-7.702080905437469482e-02
-5.844888463616371155e-02
7.498766481876373291e-02
6.511324644088745117e-02
-1.598194800317287445e-02
-4.754178971052169800e-02
-7.051539421081542969e-02
-8.525380492210388184e-02
5.613072309643030167e-03
-1.793047599494457245e-02
6.125409156084060669e-02
-1.663893833756446838e-02
-5.784074962139129639e-02
7.875925075495615602e-05
-7.608953863382339478e-02
-3.298204019665718079e-02
8.165174722671508789e-02
-9.688957035541534424e-02
9.434193372726440430e-02
-5.524734500795602798e-03
-5.531576648354530334e-02
3.598117083311080933e-02
-2.030079253017902374e-02
6.257415283471345901e-03
2.758499421179294586e-02
-6.159703060984611511e-02
1.016044393181800842e-01
-3.099300339818000793e-02
9.533092379570007324e-03
-4.423512518405914307e-02
4.792796820402145386e-02
9.526178240776062012e-02
1.497705583460628986e-03
-1.179905310273170471e-01
1.576301604509353638e-01
-1.726404391229152679e-02
-5.632389336824417114e-02
-9.074222296476364136e-02
-3.784632310271263123e-02
-1.947818137705326080e-02
4.322278127074241638e-02
3.761363029479980469e-02
9.500548243522644043e-02
-5.064487457275390625e-02
8.969012647867202759e-02
-4.017132893204689026e-02
-5.529004335403442383e-02
-1.988581195473670959e-02
-1.026322972029447556e-02
6.455559283494949341e-02
3.881434351205825806e-02
1.973654702305793762e-02
-3.138766437768936157e-02
-7.191141694784164429e-02
-1.757262460887432098e-02
1.457948833703994751e-01
-8.848781138658523560e-02
-8.525847643613815308e-02
1.011631041765213013e-01
-1.071609333157539368e-01
-2.098311111330986023e-02
6.550629436969757080e-02
5.686526373028755188e-02
4.582038521766662598e-02
3.875669464468955994e-02
-2.303146570920944214e-02
5.727626010775566101e-02
2.297750301659107208e-02
-5.843038111925125122e-02
-2.552819997072219849e-02
-9.146622568368911743e-02
9.179230779409408569e-02
-6.818483024835586548e-02
-2.272936981171369553e-03
-5.334083922207355499e-03
7.201649993658065796e-02
3.235428035259246826e-02
1.090657785534858704e-01
6.455960124731063843e-02
-4.517334047704935074e-03
-5.054145306348800659e-02
1.333832927048206329e-02
4.319721832871437073e-02
-5.800376180559396744e-03
6.647860258817672729e-02
-2.270233444869518280e-02
6.273441761732101440e-02
-4.885079711675643921e-02
6.469409167766571045e-02
1.331744939088821411e-01
2.053806371986865997e-02
3.855673223733901978e-02
1.716352626681327820e-02
3.125341609120368958e-02
1.754814237356185913e-01
3.158820793032646179e-02
1.053150072693824768e-01
-7.279039826244115829e-03
2.403615601360797882e-02
7.151210308074951172e-02
8.889533579349517822e-03
-3.781942278146743774e-02
1.571000926196575165e-02
-8.843912929296493530e-02
-5.865167081356048584e-02
2.114014700055122375e-02
-3.913733363151550293e-02
6.689866632223129272e-02
4.431252554059028625e-02
1.057191416621208191e-01
2.716231532394886017e-02
1.559910736978054047e-02
-4.665431380271911621e-02
4.206385090947151184e-02
1.456543058156967163e-02
6.971018016338348389e-02
5.631154775619506836e-02
-6.225538626313209534e-02
1.190905719995498657e-01
-7.411007583141326904e-02
5.974448099732398987e-02
-5.876995250582695007e-02
6.791074573993682861e-02
7.999666035175323486e-02
1.805287227034568787e-02
3.198491176590323448e-03
-2.636292017996311188e-02
4.007612913846969604e-02
2.407067455351352692e-02
-5.519975721836090088e-02
-4.966299235820770264e-02
-7.735332846641540527e-02
-8.396799117326736450e-02
-4.364512115716934204e-02
-8.187530934810638428e-02
-9.723893553018569946e-02
1.959522254765033722e-03
2.001919783651828766e-02
-2.131326496601104736e-02
1.059164665639400482e-02
-7.936678081750869751e-02
-4.786356166005134583e-02
6.501906365156173706e-02
2.825130149722099304e-02
3.526749089360237122e-02
5.223066359758377075e-02
1.561750750988721848e-02
-8.863338083028793335e-02
5.525572597980499268e-02
2.354634366929531097e-02
4.133602604269981384e-02
-7.740093022584915161e-02
-1.844087243080139160e-02
5.986490845680236816e-02
2.820416353642940521e-03
7.981005311012268066e-02
4.218956455588340759e-02
-2.652379497885704041e-02
7.904932647943496704e-02
8.057110756635665894e-02
-8.278496563434600830e-02
2.438348717987537384e-03
-2.041248371824622154e-03
2.210557833313941956e-02
-1.125972345471382141e-02
-6.477822363376617432e-02
-2.919953502714633942e-02
-7.002528011798858643e-02
-3.446424845606088638e-03
-6.846733391284942627e-02
5.113184824585914612e-02
1.037973314523696899e-01
8.320007473230361938e-03
-2.777424408122897148e-03
-4.271248355507850647e-02
-1.096244826912879944e-01
3.002561442553997040e-02
8.374962955713272095e-03
1.006475277245044708e-02
8.428292721509933472e-02
-9.738568961620330811e-02
-8.142780512571334839e-02
-2.485565468668937683e-02
1.166398674249649048e-01
-6.702399998903274536e-02
-4.310915991663932800e-02
4.533196799457073212e-03
-8.597782254219055176e-02
3.612678125500679016e-02
1.326695829629898071e-02
7.257293909788131714e-02
8.134610950946807861e-02
2.320561185479164124e-02
6.441306322813034058e-02
-9.226009249687194824e-02
7.604312896728515625e-02
2.312001213431358337e-02
-7.387965172529220581e-02
-1.077569574117660522e-01
-2.810413762927055359e-02
7.955428212881088257e-02
8.902959525585174561e-02
-9.021846204996109009e-02
7.546836137771606445e-02
-8.027017116546630859e-02
-9.203220903873443604e-02
6.868313066661357880e-04
1.967999525368213654e-02
4.023413360118865967e-02
-1.622584611177444458e-01
-6.906596571207046509e-02
4.361919313669204712e-02
-3.525774925947189331e-02
-3.051308356225490570e-02
-7.458338513970375061e-04
-8.419557660818099976e-02
2.908986434340476990e-02
-1.637725718319416046e-02
2.247719466686248779e-02
6.810840219259262085e-02
1.925802789628505707e-02
8.370729535818099976e-02
5.139870196580886841e-02
6.628824025392532349e-02
-1.375547610223293304e-02
-5.024894326925277710e-02
4.149095714092254639e-02
-2.508966252207756042e-02
1.398324500769376755e-02
1.712879398837685585e-03
3.597289323806762695e-02
-7.686639670282602310e-03
2.249889634549617767e-02
7.444589585065841675e-02
-4.302300885319709778e-02
-1.136542763561010361e-02
6.890392303466796875e-02
-2.523754164576530457e-02
8.927059918642044067e-02
-2.631160989403724670e-02
5.795090645551681519e-02
4.241552576422691345e-02
-3.827484324574470520e-02
-4.443102329969406128e-02
-4.604770243167877197e-02
3.607204928994178772e-02
-9.185201488435268402e-03
-5.416410788893699646e-02
1.862058229744434357e-02
4.380579292774200439e-02
-4.703140631318092346e-02
2.596596069633960724e-02
-1.014083158224821091e-02
-2.292491868138313293e-02
-2.881973236799240112e-02
-4.088956862688064575e-02
-3.432812169194221497e-02
8.849245309829711914e-02
-2.871143817901611328e-02
7.850317284464836121e-03
8.166804909706115723e-02
3.742437064647674561e-02
4.196650162339210510e-02
-1.207709033042192459e-02
4.070733860135078430e-02
-4.363950341939926147e-02
-1.267919316887855530e-02
-2.088258229196071625e-02
8.733648806810379028e-03
-7.922569662332534790e-02
-1.663863100111484528e-02
-6.120772287249565125e-02
-2.868560887873172760e-02
-5.875267833471298218e-02
-5.419556796550750732e-02
-1.900416053831577301e-02
-3.885425999760627747e-02
4.675699863582849503e-03
-1.203161478042602539e-01
2.940037287771701813e-02
4.091674461960792542e-02
4.320082440972328186e-02
4.285328462719917297e-02
3.327474370598793030e-02
-3.649803623557090759e-02
-4.222647845745086670e-02
-7.609612494707107544e-02
6.686846166849136353e-02
-2.273222245275974274e-02
-7.509526610374450684e-02
-6.109057366847991943e-02
9.338923543691635132e-02
3.161246329545974731e-02
3.355605900287628174e-02
-1.576510630548000336e-02
8.303393842652440071e-04
-2.434742450714111328e-02
-7.892653346061706543e-03
-8.882749825716018677e-03
7.071190327405929565e-02
-4.050278663635253906e-02
-4.008500277996063232e-02
3.363532572984695435e-02
7.486146688461303711e-02
5.050124973058700562e-02
-4.376666247844696045e-02
7.070515304803848267e-02
-8.130160160362720490e-03
1.155231334269046783e-02
-3.683353960514068604e-02
1.880733482539653778e-02
9.087113291025161743e-02
6.003154441714286804e-02
-6.554099172353744507e-02
1.057529821991920471e-02
-2.329544164240360260e-02
-2.365028299391269684e-02
3.632397577166557312e-02
4.009406268596649170e-02
4.471317306160926819e-02
5.229719728231430054e-02
6.260943412780761719e-02
-6.515268236398696899e-02
7.059299387037754059e-03
4.538313485682010651e-03
5.883675068616867065e-02
-7.598065584897994995e-02
-6.298521161079406738e-02
-7.197613827884197235e-03
-7.156336307525634766e-02
1.935191638767719269e-02
6.135227903723716736e-02
1.436949474737048149e-03
2.214344404637813568e-02
-7.287762314081192017e-02
5.195542052388191223e-02
-5.799710378050804138e-02
7.125723175704479218e-03
-1.812626235187053680e-02
7.506104558706283569e-02
7.878630608320236206e-02
1.969100162386894226e-02
6.510886549949645996e-02
-7.133211195468902588e-02
3.270848467946052551e-02
2.343280427157878876e-02
2.601358667016029358e-02
5.254366621375083923e-02
1.475479919463396072e-03
-5.958271399140357971e-02
6.606909632682800293e-02
-2.251677028834819794e-02
3.249105066061019897e-02
-2.991773188114166260e-02
5.110170319676399231e-02
-9.443262219429016113e-02
-5.823491141200065613e-02
-5.941350385546684265e-02
-1.852808706462383270e-02
-1.374559663236141205e-02
2.703385800123214722e-02
-7.237650454044342041e-02
6.946852803230285645e-02
-4.101482778787612915e-02
-7.247570902109146118e-02
8.662582188844680786e-02
4.683173075318336487e-02
-5.320832133293151855e-03
-5.770063027739524841e-03
5.291080474853515625e-02
-4.362020641565322876e-02
7.586540281772613525e-02
6.532476097345352173e-02
7.533820718526840210e-02
-7.884114235639572144e-02
1.871411316096782684e-02
-1.009191200137138367e-02
-5.235036462545394897e-02
-1.156127732247114182e-02
2.765591442584991455e-02
-1.702440902590751648e-02
-5.335950106382369995e-02
6.109184399247169495e-02
6.212329864501953125e-02
-5.356524512171745300e-02
-6.205344572663307190e-02
5.964705348014831543e-02
1.929593086242675781e-02
7.309859246015548706e-02
2.336382493376731873e-02
-9.173502027988433838e-02
6.198890134692192078e-02
7.504001259803771973e-02
-2.473614923655986786e-02
6.083197146654129028e-02
2.885485440492630005e-02
-1.426637731492519379e-02
5.822881311178207397e-02
-4.873499646782875061e-02
6.567057222127914429e-02
-4.379570856690406799e-02
-8.647902309894561768e-02
-1.297438424080610275e-02
-7.670848816633224487e-02
3.541091457009315491e-02
-8.211577683687210083e-02
-6.382534652948379517e-02
-5.081857368350028992e-02
4.555014148354530334e-02
-4.244582355022430420e-02
-4.961108043789863586e-02
4.408481344580650330e-02
6.544090062379837036e-02
6.821250915527343750e-02
7.200428843498229980e-02
8.593104034662246704e-02
2.652749419212341309e-02
-1.185967959463596344e-02
2.103457972407341003e-02
-8.514598757028579712e-02
4.022764414548873901e-02
9.746380150318145752e-03
-2.850631438195705414e-02
-9.327401220798492432e-02
-2.327089384198188782e-02
-1.922800764441490173e-02
-2.361794002354145050e-02
6.033058464527130127e-02
-5.482104793190956116e-02
1.106192264705896378e-02
-3.560222685337066650e-02
-5.275972932577133179e-02
-5.355065688490867615e-02
-6.058051064610481262e-02
-8.122958242893218994e-02
5.420226603746414185e-03
-6.988306343555450439e-02
-5.225107818841934204e-02
-4.567282646894454956e-02
-2.678163349628448486e-02
-8.512469381093978882e-02
-2.468745596706867218e-02
-3.924113884568214417e-02
-6.685716658830642700e-02
-2.499553747475147247e-02
-7.273239642381668091e-02
-2.175784856081008911e-02
8.491428196430206299e-02
6.710442155599594116e-02
8.237151801586151123e-02
7.091287523508071899e-02
3.653894364833831787e-02
-1.208857633173465729e-02
-4.683083668351173401e-02
-8.660224825143814087e-02
-3.143367543816566467e-02
7.318025920540094376e-03
2.912412770092487335e-02
-5.522323772311210632e-02
5.434570834040641785e-02
9.736048430204391479e-02
1.430683583021163940e-02
8.257076144218444824e-02
3.900183737277984619e-02
-8.189667761325836182e-02
-9.663815796375274658e-02
-5.543408915400505066e-02
-8.700992166996002197e-02
-1.133347512222826481e-03
8.811631798744201660e-02
-3.152339160442352295e-02
3.288081847131252289e-03
-5.588888749480247498e-02
6.513340771198272705e-02
-1.002839114516973495e-02
3.847209364175796509e-02
9.947825968265533447e-02
1.546823047101497650e-02
3.288029879331588745e-02
1.283264439553022385e-02
-5.737240612506866455e-02
1.291149947792291641e-02
-4.071182012557983398e-02
4.957528412342071533e-02
9.484563767910003662e-02
1.677408069372177124e-02
3.442542254924774170e-02
-3.282343596220016479e-02
6.218421831727027893e-02
-6.387147307395935059e-02
9.504516422748565674e-02
7.770396769046783447e-02
8.080495148897171021e-02
5.802445113658905029e-02
1.184678748250007629e-01
-6.532848626375198364e-02
5.961044877767562866e-02
3.667373955249786377e-02
7.105523347854614258e-02
2.241673646494746208e-03
-3.370937332510948181e-02
-5.475996062159538269e-02
4.286586493253707886e-02
9.423607587814331055e-02
1.076358556747436523e-02
-5.471428390592336655e-03
-4.395665600895881653e-02
4.624522104859352112e-02
-6.383117288351058960e-02
-1.087992116808891296e-01
8.789094537496566772e-02
4.563832283020019531e-02
-2.958401665091514587e-02
8.962975442409515381e-02
-2.551633492112159729e-02
-1.003590449690818787e-01
8.250544220209121704e-02
-2.217266522347927094e-02
6.338669359683990479e-02
-6.096466258168220520e-02
2.328750304877758026e-02
-4.075220972299575806e-02
-6.792864948511123657e-02
-1.001868918538093567e-01
-3.563291206955909729e-02
6.452248897403478622e-03
-5.630858615040779114e-02
3.440850600600242615e-02
8.521158248186111450e-02
-6.588252633810043335e-02
-2.922875434160232544e-02
4.117552191019058228e-02
9.801223874092102051e-02
8.692414313554763794e-02
1.929372362792491913e-02
-5.061247199773788452e-02
6.148270890116691589e-02
4.942063987255096436e-02
-3.853293508291244507e-02
-6.889360398054122925e-02
-5.282578244805335999e-02
-1.624671369791030884e-02
2.618749812245368958e-02
8.985392004251480103e-02
-8.731967210769653320e-02
-1.384467352181673050e-03
-7.065783441066741943e-02
2.998634986579418182e-02
3.916125744581222534e-02
9.420239180326461792e-02
8.621092140674591064e-02
-8.155699074268341064e-02
-4.780230298638343811e-02
-5.644240975379943848e-02
-1.798203215003013611e-02
4.301847517490386963e-02
-1.897289603948593140e-02
5.918389931321144104e-02
-7.575500756502151489e-02
8.649982511997222900e-02
1.000455841422080994e-01
-6.685672700405120850e-02
-6.553424149751663208e-02
-9.252144396305084229e-02
-7.306677848100662231e-02
5.197463091462850571e-03
-1.121754720807075500e-01
-6.945876032114028931e-02
4.237163439393043518e-02
-2.183157391846179962e-02
5.187958106398582458e-02
1.407523006200790405e-01
-5.348343402147293091e-02
2.689710259437561035e-02
4.365958645939826965e-02
-6.696667522192001343e-02
-6.314244866371154785e-02
2.953480742871761322e-02
-6.097718700766563416e-02
4.794724285602569580e-03
-4.766101762652397156e-02
8.841984719038009644e-02
4.609343037009239197e-02
-6.181542202830314636e-02
-5.726173520088195801e-02
5.477379634976387024e-02
6.238704919815063477e-02
8.412018418312072754e-02
4.152755439281463623e-02
7.091480772942304611e-03
-6.709662824869155884e-02
-7.984413951635360718e-02
-7.350826263427734375e-02
-3.012873930856585503e-03
3.964569047093391418e-02
-4.358146712183952332e-02
-6.967698037624359131e-02
2.198870107531547546e-02
-6.965359300374984741e-02
9.166126139461994171e-03
5.056698620319366455e-02
-7.212937623262405396e-02
6.553170271217823029e-03
8.763946592807769775e-02
-4.918746277689933777e-02
-3.951288387179374695e-02
8.095611631870269775e-02
-8.751234412193298340e-02
-3.524928167462348938e-02
9.284715354442596436e-02
2.269726060330867767e-02
-3.750851750373840332e-02
-1.699980162084102631e-02
4.949308559298515320e-02
1.091056317090988159e-01
-3.571258485317230225e-02
7.988109439611434937e-02
-3.364258259534835815e-02
1.034510806202888489e-01
-8.881735056638717651e-02
-9.026327729225158691e-02
-1.221915706992149353e-02
-1.941272802650928497e-02
-5.246344581246376038e-02
1.738111674785614014e-02
9.600705379853025079e-05
6.735101807862520218e-03
6.220213696360588074e-02
1.680595241487026215e-02
-3.663932532072067261e-02
-6.338959187269210815e-02
8.898202329874038696e-02
4.325262829661369324e-02
6.373260915279388428e-02
1.125491186976432800e-01
-6.044257432222366333e-02
7.684270292520523071e-02
-7.435119152069091797e-02
-5.729071795940399170e-02
3.308458998799324036e-02
5.290066078305244446e-02
7.950358837842941284e-02
-8.563923835754394531e-02
-6.126835569739341736e-02
-7.597056031227111816e-02
2.335910312831401825e-02
4.598579183220863342e-02
4.736716672778129578e-02
-8.382790535688400269e-02
1.912553608417510986e-02
1.060840412974357605e-01
-5.413683503866195679e-02
2.901868708431720734e-02
2.384602092206478119e-02
-8.583494275808334351e-02
2.994190528988838196e-02
6.844006478786468506e-02
-3.324250131845474243e-02
3.632881119847297668e-02
-8.395865559577941895e-02
3.311363980174064636e-02
-4.619962070137262344e-03
3.640193492174148560e-02
9.836789965629577637e-02
3.133238479495048523e-02
8.287753164768218994e-02
-6.822101026773452759e-02
8.109916746616363525e-02
4.172796383500099182e-02
7.066502422094345093e-02
-1.091008447110652924e-02
4.732526838779449463e-02
-1.039411723613739014e-01
6.807354092597961426e-02
-9.658031165599822998e-02
-1.636794768273830414e-02
-4.345592111349105835e-02
4.239495843648910522e-02
-2.730845473706722260e-02
-6.614467501640319824e-02
-1.243556961417198181e-01
-6.946147419512271881e-03
1.139811053872108459e-01
4.949593171477317810e-02
6.421837210655212402e-02
-1.930184289813041687e-02
-9.273739904165267944e-02
3.358056396245956421e-02
-3.596775233745574951e-02
5.690347403287887573e-02
-1.448417548090219498e-02
5.853716284036636353e-02
-4.877672344446182251e-02
-7.428450882434844971e-02
6.414726376533508301e-02
5.657575652003288269e-02
-8.262328058481216431e-02
3.497653454542160034e-02
-1.729844696819782257e-02
-7.625738531351089478e-02
-2.800485491752624512e-02
7.058475166559219360e-02
7.324113696813583374e-02
-3.050856478512287140e-02
-3.979334980249404907e-02
-6.505810469388961792e-02
1.343308389186859131e-02
9.134577214717864990e-02
2.663090452551841736e-02
-7.090631872415542603e-02
-7.755285501480102539e-02
5.426558107137680054e-02
-4.113757237792015076e-02
6.493413448333740234e-02
-4.697620868682861328e-02
2.005284652113914490e-02
3.661807999014854431e-02
8.358956128358840942e-02
-2.736252918839454651e-02
-7.244974374771118164e-02
-6.931576877832412720e-02
-7.323648780584335327e-02
-1.231545861810445786e-02
8.992239087820053101e-02
7.060568034648895264e-02
3.035303950309753418e-02
-6.337721645832061768e-02
3.822788596153259277e-02
-6.317807734012603760e-02
6.250026077032089233e-02
6.347949802875518799e-02
-1.540637225843966007e-03
5.126135423779487610e-02
3.932785987854003906e-02
2.766575431451201439e-03
-5.005893483757972717e-02
-4.076325893402099609e-02
-3.060492873191833496e-02
-3.649927675724029541e-02
6.492858380079269409e-02
3.779278323054313660e-02
-7.707295566797256470e-02
-2.773442119359970093e-02
7.962244004011154175e-02
-5.243751034140586853e-02
2.441563829779624939e-02
-6.113740801811218262e-02
7.112801074981689453e-02
4.880033433437347412e-02
3.270022943615913391e-02
-6.954818964004516602e-02
-6.336925178766250610e-02
7.403037045150995255e-03
8.450156450271606445e-02
-7.990916818380355835e-02
6.386502087116241455e-02
-1.333583332598209381e-02
5.866143107414245605e-02
-1.057407259941101074e-02
3.256753087043762207e-02
2.194924466311931610e-02
-2.712266705930233002e-02
-8.976643532514572144e-02
2.932113409042358398e-02
6.787762790918350220e-02
8.801604621112346649e-03
-2.232391946017742157e-02
-1.739031076431274414e-02
7.342086732387542725e-02
-5.924629792571067810e-02
1.171957887709140778e-02
-8.037351816892623901e-02
6.532574445009231567e-02
-8.967847377061843872e-02
-3.595090284943580627e-02
1.484201289713382721e-02
-6.839424371719360352e-02
-8.277484029531478882e-02
-6.520161777734756470e-02
2.131743170320987701e-02
7.949053496122360229e-02
1.448486838489770889e-02
-1.679549179971218109e-02
7.530719786882400513e-02
-2.164061367511749268e-02
6.555154919624328613e-02
8.868699520826339722e-02
-7.850625365972518921e-02
4.842429421842098236e-03
2.038383670151233673e-02
-1.620256900787353516e-02
-8.777782320976257324e-02
-1.771365106105804443e-02
4.667047411203384399e-02
2.461618743836879730e-02
-3.964959084987640381e-02
3.756689652800559998e-02
-5.515065416693687439e-02
9.299215860664844513e-03
4.502919688820838928e-02
2.076489478349685669e-02
-2.633468620479106903e-02
8.579710870981216431e-02
-7.169061899185180664e-02
-5.683793872594833374e-02
-5.727212131023406982e-02
-7.240530103445053101e-02
-1.277346815913915634e-02
-4.366892576217651367e-02
2.233577147126197815e-02
1.456083450466394424e-02
-5.626056343317031860e-02
-4.685605317354202271e-02
-2.934049069881439209e-02
7.444177567958831787e-02
1.259133964776992798e-01
1.296177506446838379e-01
6.069611012935638428e-02
1.130316685885190964e-02
-5.518881604075431824e-02
-1.316850259900093079e-02
-2.723738737404346466e-02
-2.726421225816011429e-03
3.267407789826393127e-02
7.409263402223587036e-02
7.252310961484909058e-02
-7.300457358360290527e-02
-1.099767163395881653e-02
-5.541713908314704895e-02
-3.290973603725433350e-02
8.517287671566009521e-02
6.768066436052322388e-03
-1.156210992485284805e-02
3.008611267432570457e-03
-9.561991691589355469e-02
6.251530349254608154e-02
8.498025685548782349e-02
-6.478931754827499390e-02
-1.082910895347595215e-01
-4.297244548797607422e-02
1.208867784589529037e-02
1.238916143774986267e-01
3.610134869813919067e-02
1.362332422286272049e-02
-4.537232592701911926e-02
2.455814927816390991e-02
-1.420443803071975708e-01
3.601387888193130493e-02
-6.166062131524085999e-02
-9.431018261238932610e-04
-1.261075735092163086e-01
-2.319951914250850677e-02
7.868162542581558228e-02
-2.427546679973602295e-02
7.012557983398437500e-02
-4.502529278397560120e-02
1.318813115358352661e-01
2.564781717956066132e-02
7.183086127042770386e-02
-3.305383399128913879e-02
9.089521318674087524e-02
-2.690595015883445740e-02
6.800840049982070923e-02
-9.036688506603240967e-02
-5.211891978979110718e-02
-2.407610230147838593e-02
-6.844276096671819687e-03
8.321280032396316528e-02
-4.198523238301277161e-02
3.633940592408180237e-02
-4.753465950489044189e-02
8.095785230398178101e-02
6.407415866851806641e-02
-6.967848539352416992e-02
6.328357011079788208e-02
1.002684831619262695e-01
3.329708427190780640e-02
-5.153701454401016235e-02
-1.183602213859558105e-02
-5.124737694859504700e-02
-5.410860851407051086e-02
4.608485847711563110e-02
7.062125205993652344e-02
-3.366768360137939453e-02
1.426982134580612183e-01
9.639267809689044952e-03
-2.527407929301261902e-02
2.227829210460186005e-02
-2.909011021256446838e-02
-1.821718737483024597e-02
-6.817074865102767944e-02
-1.157132759690284729e-01
3.268458321690559387e-02
4.142994061112403870e-02
1.047808378934860229e-01
2.186688594520092010e-02
-6.827304023317992687e-04
-7.226339727640151978e-02
-3.570220246911048889e-02
1.636708527803421021e-01
7.835198938846588135e-02
2.918616309762001038e-02
-4.685079306364059448e-02
7.621043175458908081e-02
3.225412592291831970e-02
-5.343971401453018188e-02
-6.094341725111007690e-02
-4.578075930476188660e-02
-8.496082387864589691e-03
7.318846881389617920e-02
-9.948366880416870117e-02
-8.274716325104236603e-03
-3.003374673426151276e-02
1.841164194047451019e-02
-1.042164638638496399e-01
2.680260315537452698e-02
5.376299098134040833e-02
-5.469255149364471436e-02
1.436813455075025558e-02
-3.047283180058002472e-02
9.593911468982696533e-02
-7.685407251119613647e-02
-5.232640728354454041e-02
-5.610144510865211487e-02
1.010807976126670837e-02
7.716699689626693726e-02
1.470005214214324951e-01
1.398584842681884766e-01
-7.531981915235519409e-02
-7.211990654468536377e-02
1.303676050156354904e-02
-1.192444041371345520e-01
-2.689336612820625305e-02
-4.348767176270484924e-02
8.757208287715911865e-02
8.358666300773620605e-02
9.372349828481674194e-03
-3.259522840380668640e-02
-2.913872944191098213e-03
3.101691976189613342e-02
3.266514465212821960e-02
7.467732578516006470e-02
-8.154657483100891113e-02
1.200695484876632690e-01
-1.779390126466751099e-02
6.158778816461563110e-02
-5.149187892675399780e-02
2.809728868305683136e-02
2.127292752265930176e-02
-7.902196049690246582e-02
1.025069206953048706e-01
-4.484919458627700806e-02
2.222566865384578705e-02
-2.377291396260261536e-02
-1.652779877185821533e-01
4.656230658292770386e-02
7.467249780893325806e-02
-2.031408250331878662e-01
3.902829810976982117e-02
-5.527676269412040710e-02
2.790103107690811157e-02
3.787345066666603088e-02
-1.308932602405548096e-01
-8.378178626298904419e-02
4.700556024909019470e-02
-4.534640908241271973e-02
-9.712734073400497437e-02
-6.392477452754974365e-02
-3.029756434261798859e-02
3.333795443177223206e-02
-3.857284784317016602e-02
2.048499649390578270e-03
-6.847942620515823364e-02
2.819329267367720604e-03
3.112930245697498322e-02
4.970280826091766357e-02
-2.852263487875461578e-02
1.554429680109024048e-01
-3.892718628048896790e-02
4.556399956345558167e-02
2.836507745087146759e-02
7.940170355141162872e-03
4.226849973201751709e-02
8.725161850452423096e-02
8.433563262224197388e-02
-3.748096153140068054e-02
-3.713851049542427063e-02
2.003055810928344727e-02
8.083842694759368896e-02
-6.882197409868240356e-02
-6.613323837518692017e-02
2.507011638954281807e-03
2.175332792103290558e-02
8.886636234819889069e-03
-1.074468134902417660e-03
-7.386353611946105957e-02
3.607779741287231445e-02
-3.533734753727912903e-02
7.831969857215881348e-02
-5.347675830125808716e-02
-8.377791196107864380e-02
1.390696875751018524e-02
7.446140795946121216e-02
-4.508655518293380737e-02
7.052622735500335693e-02
-4.108795523643493652e-02
-8.757603168487548828e-02
1.968171261250972748e-02
-7.444491982460021973e-02
-4.657935351133346558e-02
-1.379317836835980415e-03
1.762139983475208282e-02
-8.182495832443237305e-02
7.587285246700048447e-03
4.348779097199440002e-03
-4.060514643788337708e-02
-2.750414423644542694e-02
-7.393993437290191650e-02
-8.810554444789886475e-02
1.247535925358533859e-02
5.800580978393554688e-02
-3.650024905800819397e-02
5.872905720025300980e-03
1.170685514807701111e-01
-1.496658772230148315e-01
8.425422757863998413e-02
-1.015782207250595093e-01
8.888681232929229736e-02
-5.129447951912879944e-02
7.002283632755279541e-02
-4.346937686204910278e-02
-2.845422737300395966e-02
-2.931483276188373566e-02
-1.258905604481697083e-02
-2.690788730978965759e-02
7.103727012872695923e-02
6.730303168296813965e-02
-4.288485273718833923e-02
-7.167951017618179321e-02
-6.590845435857772827e-02
4.123795777559280396e-02
8.136940002441406250e-02
-1.306412070989608765e-01
4.961848631501197815e-02
2.653731591999530792e-02
3.496237844228744507e-02
8.427619934082031250e-02
6.554128974676132202e-02
-4.571473971009254456e-02
-1.447080969810485840e-01
-1.496255248785018921e-01
-4.184317216277122498e-02
1.346725821495056152e-01
-6.040493398904800415e-02
3.260266035795211792e-02
3.104565897956490517e-03
7.394487410783767700e-02
-6.041387096047401428e-02
1.932743191719055176e-02
7.397583127021789551e-02
7.983747869729995728e-02
1.461041718721389771e-02
9.706564992666244507e-02
-2.701407670974731445e-02
-2.527047134935855865e-02
-8.697655797004699707e-02
-4.769906029105186462e-02
1.981299184262752533e-02
-4.588473215699195862e-02
-2.883028425276279449e-02
-4.154638200998306274e-02
-3.519517928361892700e-02
1.020726487040519714e-01
-2.772852964699268341e-02
1.100974273867905140e-03
-4.161000996828079224e-02
-9.967559576034545898e-02
-9.935376048088073730e-02
8.039033971726894379e-03
2.818330377340316772e-02
-7.870077341794967651e-02
-2.205827739089727402e-03
-5.135991051793098450e-02
-4.066789988428354263e-03
-7.628042995929718018e-02
5.713633261620998383e-03
-8.635703474283218384e-02
-4.278243333101272583e-02
8.862262219190597534e-02
-4.237250983715057373e-02
-3.468491882085800171e-02
-7.642281241714954376e-03
3.675898537039756775e-02
4.667023569345474243e-02
-3.578134253621101379e-02
3.416012227535247803e-02
3.644979372620582581e-02
5.019236356019973755e-02
1.313383225351572037e-02
-1.904589869081974030e-02
-4.687396809458732605e-02
-3.502717940136790276e-03
8.409315347671508789e-02
1.959953643381595612e-02
-2.718617953360080719e-02
6.844565272331237793e-02
-9.375523775815963745e-02
1.628823392093181610e-02
-3.314721956849098206e-02
-1.059906370937824249e-02
-1.086732279509305954e-02
1.086200177669525146e-01
3.322647139430046082e-02
2.765979385003447533e-03
-1.469120010733604431e-02
-3.224828746169805527e-03
5.655984953045845032e-02
1.868286053650081158e-03
-3.834057599306106567e-02
7.979538291692733765e-02
-7.492015510797500610e-02
-7.128193229436874390e-02
2.578679285943508148e-02
4.383371025323867798e-02
7.266612350940704346e-02
-3.508222103118896484e-02
3.132755309343338013e-02
-4.024986550211906433e-02
5.547907948493957520e-02
6.310181319713592529e-02
6.473851948976516724e-02
2.169435471296310425e-02
-4.661681875586509705e-02
-6.351114809513092041e-02
9.240867570042610168e-03
7.522332668304443359e-02
-5.616421252489089966e-02
-2.947715297341346741e-02
-5.811114981770515442e-02
5.774128437042236328e-02
-1.581894699484109879e-03
-3.273682668805122375e-02
-4.493646323680877686e-02
3.336998447775840759e-02
-8.689674735069274902e-02
5.789188295602798462e-02
3.052922710776329041e-02
6.629618257284164429e-02
9.972710907459259033e-02
-2.052936237305402756e-03
-2.236334793269634247e-02
-7.898405939340591431e-02
-7.571969181299209595e-02
7.029508799314498901e-02
-9.522005915641784668e-02
1.393295079469680786e-02
-6.050697714090347290e-02
3.042785078287124634e-02
3.691782010719180107e-03
5.550342798233032227e-02
-1.121341483667492867e-04
-1.654693856835365295e-02
-1.188318990170955658e-02
-5.465367063879966736e-02
-1.965291425585746765e-02
2.029564231634140015e-02
4.163583740592002869e-02
7.610163092613220215e-02
-6.629426497966051102e-03
1.630587317049503326e-02
6.360197067260742188e-02
9.582795202732086182e-03
2.735581994056701660e-02
-7.275451719760894775e-02
-3.614421188831329346e-02
-5.500894784927368164e-02
1.176857724785804749e-01
7.488314062356948853e-02
-5.933934450149536133e-02
4.779662936925888062e-02
-6.289695203304290771e-02
1.403684541583061218e-02
1.014768406748771667e-01
4.140536487102508545e-02
-7.128546386957168579e-02
-5.294728092849254608e-03
-8.403927832841873169e-02
6.748890876770019531e-02
1.360412836074829102e-01
-4.149638488888740540e-02
1.008131168782711029e-02
-1.609987393021583557e-02
-1.031393185257911682e-01
6.817660480737686157e-02
8.890423178672790527e-02
-1.940558431670069695e-03
-2.857665158808231354e-02
-6.388784199953079224e-02
1.481889840215444565e-02
1.194296553730964661e-01
5.962099879980087280e-02
-1.352705713361501694e-02
1.030158549547195435e-01
1.816829666495323181e-02
-2.162164542824029922e-03
-7.415793091058731079e-02
4.153458401560783386e-02
-8.496657013893127441e-03
4.639942944049835205e-02
-6.480229645967483521e-02
-9.410078078508377075e-02
7.067376375198364258e-02
1.258586347103118896e-02
8.015903830528259277e-02
-6.494971364736557007e-02
-1.034387797117233276e-01
5.238680168986320496e-03
-6.985615938901901245e-02
-1.481316331773996353e-02
-4.873260855674743652e-02
-6.437303870916366577e-02
-1.128988638520240784e-01
-7.880681753158569336e-02
-8.601876348257064819e-02
7.722713053226470947e-02
-4.955123737454414368e-02
5.430284887552261353e-02
3.350737690925598145e-02
-2.213674597442150116e-02
8.474737405776977539e-02
7.547839730978012085e-02
-1.678020507097244263e-01
2.528163604438304901e-02
4.856194928288459778e-02
-1.790363714098930359e-02
7.023818045854568481e-02
-3.967937082052230835e-02
-4.048248380422592163e-02
-1.181987896561622620e-01
-4.436386376619338989e-02
-6.097386032342910767e-02
4.021894186735153198e-03
3.240512311458587646e-02
-5.203548818826675415e-02
9.146067313849925995e-03
7.272582501173019409e-02
1.019809842109680176e-01
7.680462300777435303e-02
-2.365625090897083282e-02
1.095892395824193954e-02
-6.665337830781936646e-02
5.812937766313552856e-02
-4.871824383735656738e-02
1.601688936352729797e-02
6.746235489845275879e-02
5.906154587864875793e-02
-7.823885232210159302e-02
1.745474897325038910e-02
-6.196943297982215881e-02
7.812269777059555054e-02
1.102859228849411011e-01
-9.292899630963802338e-03
-9.394770860671997070e-02
2.768843248486518860e-02
8.268351852893829346e-02
-5.741874501109123230e-02
-6.438819319009780884e-02
-1.851389184594154358e-02
6.366588920354843140e-02
-4.204789921641349792e-02
6.723150610923767090e-02
4.111156240105628967e-02
1.057914420962333679e-01
2.180924080312252045e-02
2.351271919906139374e-02
7.136229425668716431e-02
-7.597676943987607956e-03
-1.575836688280105591e-01
8.923787623643875122e-02
-3.915740549564361572e-02
6.802272051572799683e-02
-2.573635242879390717e-02
-7.988435775041580200e-02
1.475963089615106583e-02
-4.408139362931251526e-02
-7.756941765546798706e-02
1.381697207689285278e-01
4.966267198324203491e-02
3.674976155161857605e-02
4.646079987287521362e-02
7.495773583650588989e-02
-2.102402411401271820e-02
1.116496995091438293e-01
-5.800464004278182983e-02
6.836824119091033936e-02
-4.854154586791992188e-02
-1.551636494696140289e-03
-5.438922345638275146e-02
-9.218097478151321411e-02
-4.138873144984245300e-02
2.923294529318809509e-02
5.579922720789909363e-02
5.822927504777908325e-02
5.586006864905357361e-02
-7.335509173572063446e-03
-8.774828165769577026e-02
8.478037267923355103e-02
-5.174837075173854828e-03
-6.953343003988265991e-02
9.127571433782577515e-02
-9.590962529182434082e-02
-5.330241098999977112e-02
-3.694769740104675293e-02
-2.385261282324790955e-02
7.646745070815086365e-03
-3.218812122941017151e-02
1.216610241681337357e-02
8.782307803630828857e-02
4.412164911627769470e-02
-7.138051837682723999e-02
9.181484580039978027e-02
6.225036829710006714e-02
-2.780103124678134918e-02
-1.260174345225095749e-02
-2.806665189564228058e-02
4.610590636730194092e-02
4.712584614753723145e-02
1.053015887737274170e-02
6.345892697572708130e-02
-2.360114268958568573e-02
3.710880409926176071e-03
-4.190068691968917847e-02
8.283469825983047485e-02
-5.556310340762138367e-02
7.982791215181350708e-02
4.113014787435531616e-02
-1.335672102868556976e-03
9.442926943302154541e-02
-1.043495088815689087e-01
3.556536883115768433e-02
-4.816716536879539490e-02
-2.440450526773929596e-02
-7.823791354894638062e-02
-7.259663194417953491e-02
3.028521127998828888e-02
-4.508172348141670227e-02
3.523669438436627388e-03
2.395462943241000175e-03
-4.264850541949272156e-02
-3.140732645988464355e-02
1.001561805605888367e-01
-1.910220598801970482e-03
5.586917698383331299e-02
-3.852972993627190590e-03
5.573277920484542847e-02
-6.048719212412834167e-02
9.508839994668960571e-02
5.604894249700009823e-04
1.200433149933815002e-01
4.254089295864105225e-02
8.124432712793350220e-02
-9.821766614913940430e-02
-6.785295158624649048e-02
-1.150379981845617294e-02
-4.513429850339889526e-02
-1.668705232441425323e-02
-7.104314863681793213e-02
6.854189187288284302e-02
6.550191342830657959e-02
4.145455732941627502e-02
1.457346137613058090e-03
-1.015898138284683228e-01
1.786200329661369324e-02
1.253685802221298218e-01
-4.263393580913543701e-02
-1.017413847148418427e-02
3.036732785403728485e-03
3.568464890122413635e-02
-5.165065824985504150e-02
-4.022938758134841919e-02
-6.257883459329605103e-02
4.551658779382705688e-02
-6.117524113506078720e-03
-9.317792207002639771e-02
-7.086140662431716919e-02
-1.876015885500237346e-04
3.664374724030494690e-02
3.144802153110504150e-02
-5.335186421871185303e-02
7.718596607446670532e-02
-8.351752161979675293e-02
-3.751229122281074524e-02
-4.840332642197608948e-02
-9.753387421369552612e-02
1.003227829933166504e-01
-6.108651310205459595e-02
-1.592657156288623810e-02
-6.970085669308900833e-03
7.184464484453201294e-02
8.383688330650329590e-02
-7.259976863861083984e-02
1.710718870162963867e-02
-3.122606128454208374e-02
1.266390923410654068e-02
-7.500451058149337769e-02
6.583432108163833618e-02
-9.321440756320953369e-02
2.641838416457176208e-02
-4.199458286166191101e-03
4.486744478344917297e-02
2.055549249053001404e-02
1.201570965349674225e-02
-9.490583837032318115e-02
-2.044443227350711823e-02
-6.183401867747306824e-02
1.167004704475402832e-01
2.876973338425159454e-02
-1.057081148028373718e-01
1.614613533020019531e-01
-1.899363100528717041e-02
3.171760216355323792e-02
-7.903728634119033813e-02
-7.648612558841705322e-02
-3.762537240982055664e-02
4.549608752131462097e-02
3.062704112380743027e-03
7.473335415124893188e-02
9.699404239654541016e-02
-1.950606107711791992e-01
-3.595965355634689331e-02
-1.192716881632804871e-02
2.432490512728691101e-02
5.357061699032783508e-02
5.901078507304191589e-02
1.096132993698120117e-01
-6.323955953121185303e-02
-8.937336504459381104e-03
-1.536294072866439819e-01
-2.269437245558947325e-04
-1.083775088191032410e-01
4.411306977272033691e-02
-8.662599325180053711e-02
-1.119926050305366516e-01
5.745417624711990356e-02
6.192941591143608093e-02
7.694605737924575806e-02
-1.477907150983810425e-01
-1.615789602510631084e-03
5.501594394445419312e-02
9.298539720475673676e-03
-7.624734193086624146e-03
3.055845201015472412e-02
2.995917387306690216e-02
4.332892224192619324e-02
9.143102914094924927e-02
1.407783180475234985e-01
2.489749155938625336e-02
2.935213036835193634e-02
-9.482544660568237305e-02
-5.932171270251274109e-02
2.346237376332283020e-02
-5.181478336453437805e-02
2.571111358702182770e-02
-9.000626951456069946e-02
8.234012126922607422e-02
2.102353610098361969e-02
5.588636267930269241e-03
-4.180811718106269836e-02
1.209268495440483093e-01
-1.038191318511962891e-01
-2.040150575339794159e-02
7.158701866865158081e-02
6.539415568113327026e-02
4.232277721166610718e-02
9.577623009681701660e-02
-1.384219340980052948e-02
1.650677062571048737e-02
1.491750939749181271e-03
6.347915530204772949e-02
1.398795936256647110e-02
7.917536795139312744e-02
-2.588077820837497711e-02
6.713116168975830078e-02
5.039756745100021362e-02
-2.360722981393337250e-03
1.484512239694595337e-01
1.102876886725425720e-01
1.739013195037841797e-02
-8.989591151475906372e-02
3.735766187310218811e-02
7.097960263490676880e-02
-9.804676473140716553e-02
9.610234946012496948e-02
-2.605955861508846283e-02
3.582868725061416626e-02
5.024186894297599792e-02
9.438522160053253174e-03
4.439809173345565796e-02
-6.470490247011184692e-02
-1.309752017259597778e-01
8.318912982940673828e-02
-5.515682697296142578e-02
5.021880567073822021e-02
-4.845188930630683899e-03
3.792105987668037415e-02
5.368673428893089294e-02
-5.363826826214790344e-02
-1.302046701312065125e-02
8.561771363019943237e-02
1.464156210422515869e-01
-6.581406295299530029e-02
-1.311888098716735840e-01
6.007045134902000427e-02
7.848346233367919922e-02
4.745859280228614807e-02
4.748491570353507996e-02
-4.676084592938423157e-02
1.390985995531082153e-01
-7.499933987855911255e-02
4.929947853088378906e-02
8.102270215749740601e-02
-4.850628972053527832e-02
-9.182170778512954712e-02
-1.462931483983993530e-01
-9.019435942173004150e-02
-4.874042421579360962e-02
7.172247022390365601e-02
1.146828010678291321e-02
-7.577838003635406494e-02
-7.822902500629425049e-02
-1.833977550268173218e-02
-6.106404215097427368e-02
1.035679131746292114e-02
-5.337527953088283539e-03
-9.366165101528167725e-02
3.568583726882934570e-02
6.869300454854965210e-02
9.015857428312301636e-02
-6.023915484547615051e-02
7.117541134357452393e-02
7.393661141395568848e-02
3.170356899499893188e-02
1.584508828818798065e-02
4.002571105957031250e-02
5.152549967169761658e-02
-4.507449269294738770e-02
8.965440094470977783e-02
-7.906361669301986694e-02
-4.867437481880187988e-02
-9.081252664327621460e-02
3.011063206940889359e-03
3.024610131978988647e-02
9.785778075456619263e-02
-4.251940920948982239e-02
-1.941547170281410217e-02
2.389426343142986298e-02
6.030816212296485901e-02
3.466716408729553223e-02
-5.676303431391716003e-02
-1.546768937259912491e-02
-2.505734004080295563e-02
4.336554929614067078e-02
1.547473948448896408e-02
1.671275496482849121e-02
-4.117607325315475464e-02
-2.527703344821929932e-02
-1.374228391796350479e-02
-5.005310475826263428e-02
-8.034578710794448853e-02
-1.147732418030500412e-02
-3.864495083689689636e-02
-6.859077513217926025e-02
-8.983219973742961884e-03
-3.381963446736335754e-02
3.588356077671051025e-02
8.643309026956558228e-02
3.235541656613349915e-02
-5.358228087425231934e-02
8.705960959196090698e-02
-4.405952617526054382e-02
1.661148965358734131e-01
6.788793951272964478e-02
-5.464361608028411865e-02
5.089398846030235291e-02
6.168340798467397690e-03
4.101019725203514099e-02
1.644440554082393646e-02
-7.832083851099014282e-02
-6.769464910030364990e-02
-2.945096977055072784e-02
4.316104575991630554e-02
2.962941071018576622e-03
1.593891531229019165e-02
-1.756952852010726929e-01
-6.870746728964149952e-04
3.766664490103721619e-02
-7.056808099150657654e-03
-1.758223958313465118e-02
1.119035203009843826e-02
5.593512207269668579e-02
1.145189180970191956e-01
7.609812170267105103e-02
3.308087214827537537e-02
5.086991190910339355e-02
1.030786707997322083e-01
5.754280090332031250e-02
-9.859107434749603271e-02
1.421588286757469177e-02
2.090584672987461090e-02
3.659118339419364929e-02
-7.287282496690750122e-02
1.786602847278118134e-02
-1.446302384138107300e-01
-3.084102459251880646e-02
-2.024157159030437469e-02
1.859807968139648438e-02
2.009881101548671722e-02
1.517391651868820190e-01
8.219356089830398560e-02
7.729496806859970093e-02
3.007539175450801849e-02
1.418913435190916061e-02
5.833280831575393677e-02
-1.288283020257949829e-01
2.036158367991447449e-02
6.655196845531463623e-02
3.493302315473556519e-02
-1.094066444784402847e-02
-7.437417656183242798e-02
5.527451634407043457e-02
3.395164757966995239e-02
8.190444856882095337e-02
8.285696059465408325e-02
-1.032914444804191589e-01
-1.329487562179565430e-01
6.834714114665985107e-02
-4.294156283140182495e-02
1.008806675672531128e-01
1.062751859426498413e-01
9.857352823019027710e-02
-2.687819488346576691e-02
6.616643071174621582e-02
-6.830748170614242554e-02
-1.287728399038314819e-01
5.279891565442085266e-02
-8.489492349326610565e-03
2.041669189929962158e-02
8.020292222499847412e-02
-5.575387179851531982e-02
1.118029803037643433e-01
2.779707312583923340e-02
-6.223079934716224670e-02
-7.537519186735153198e-02
-2.033831737935543060e-02
-1.152485758066177368e-01
-1.582292839884757996e-02
9.160873293876647949e-02
-8.995476365089416504e-02
1.069753840565681458e-01
4.101607203483581543e-02
-6.357365101575851440e-02
-9.856202453374862671e-02
-9.308059513568878174e-02
4.706820845603942871e-02
-8.597014099359512329e-02
-1.796150393784046173e-02
5.534576624631881714e-02
8.883485943078994751e-02
3.154804557561874390e-02
1.205886378884315491e-01
1.058460846543312073e-01
8.085826039314270020e-02
-1.074006557464599609e-01
1.996696181595325470e-02
6.118744611740112305e-03
1.347524346783757210e-03
-6.114419177174568176e-02
-4.824795201420783997e-02
9.693627804517745972e-02
-6.088606268167495728e-02
6.546463072299957275e-02
8.319048583507537842e-02
5.304805468767881393e-03
1.300374604761600494e-02
-3.618928603827953339e-03
-8.154071867465972900e-02
3.847482055425643921e-02
3.658907487988471985e-02
1.296187043190002441e-01
-1.367400884628295898e-01
2.507315948605537415e-02
5.858084931969642639e-02
-5.397965200245380402e-03
8.506348729133605957e-02
-6.748365610837936401e-02
9.764413535594940186e-02
-9.203128516674041748e-02
4.983558878302574158e-02
-8.153761923313140869e-02
-5.897487979382276535e-03
3.422341868281364441e-02
-5.492894724011421204e-02
6.972309201955795288e-02
4.593832418322563171e-02
5.136219039559364319e-02
-2.076529897749423981e-02
-6.592641770839691162e-02
-3.090474009513854980e-02
-8.291036635637283325e-02
3.077711723744869232e-02
-1.218423470854759216e-01
-3.734858706593513489e-02
4.025274142622947693e-02
1.360798478126525879e-01
-2.156976377591490746e-03
3.327267244458198547e-02
-4.900189116597175598e-02
8.846801519393920898e-02
8.260811120271682739e-02
-1.522146724164485931e-02
6.637404859066009521e-02
1.544505823403596878e-02
-1.187909021973609924e-01
3.049442544579505920e-03
-5.303855985403060913e-03
-4.159938544034957886e-02
5.621631443500518799e-02
-6.627414375543594360e-02
-9.212462604045867920e-02
-8.839106559753417969e-02
-9.899254143238067627e-02
-4.139596223831176758e-02
1.085309088230133057e-01
-1.280591189861297607e-01
7.574720680713653564e-02
-5.912255495786666870e-02
-3.735584765672683716e-02
-1.453543640673160553e-02
