-8.190338313579559326e-02
-8.633986115455627441e-02
6.604913622140884399e-03
-7.973572611808776855e-02
-2.153148800134658813e-01
7.930330187082290649e-02
-4.906641691923141479e-02
2.652162313461303711e-02
2.923604249954223633e-01
1.007430553436279297e-01
9.987412951886653900e-03
1.762966513633728027e-01
2.488576620817184448e-02
6.126499921083450317e-02
1.070530992001295090e-02
1.080027148127555847e-01
2.804284393787384033e-01
2.310903072357177734e-01
6.659410893917083740e-02
-4.643756523728370667e-02
5.447082221508026123e-02
-2.618130110204219818e-02
-2.146779149770736694e-01
-2.349520325660705566e-01
-2.395603060722351074e-02
2.384563833475112915e-01
1.761544495820999146e-01
5.174090713262557983e-02
1.138823255896568298e-01
-1.514507085084915161e-01
-8.235006779432296753e-02
1.521326303482055664e-01
-2.183800041675567627e-01
-1.193730458617210388e-01
-3.589422255754470825e-02
-2.286867611110210419e-02
9.623382985591888428e-02
-1.167206466197967529e-01
-3.787609562277793884e-02
3.277820721268653870e-02
1.475034356117248535e-01
6.895051896572113037e-02
-1.780919730663299561e-01
-5.222221463918685913e-02
-1.906869858503341675e-01
5.246682092547416687e-02
7.630972564220428467e-02
-6.974177062511444092e-02
-7.199846953153610229e-02
9.621855802834033966e-03
1.696573197841644287e-01
-6.036740727722644806e-03
8.321632444858551025e-02
1.467108428478240967e-01
2.490810900926589966e-01
-8.368248492479324341e-02
-3.712546080350875854e-02
-1.926522105932235718e-01
2.746814861893653870e-02
-7.492638379335403442e-02
5.722359567880630493e-02
1.669556647539138794e-01
-2.242299029603600502e-03
6.885643582791090012e-03
2.575114555656909943e-02
-9.394763410091400146e-02
9.277606755495071411e-02
-2.269967794418334961e-01
-1.890814453363418579e-01
-2.079495787620544434e-01
1.744034141302108765e-01
1.332145482301712036e-01
-1.285634487867355347e-01
4.087674617767333984e-02
2.004232406616210938e-01
4.473481327295303345e-02
9.420704841613769531e-02
-1.586237996816635132e-01
-5.083568394184112549e-02
3.996512666344642639e-02
1.244664862751960754e-01
-9.407445043325424194e-02
1.231198981404304504e-01
6.965748965740203857e-02
-9.146369248628616333e-02
5.200982838869094849e-02
-2.617088556289672852e-01
-1.728806495666503906e-01
4.091220200061798096e-01
-1.189798489212989807e-01
-1.743179112672805786e-01
-5.739284679293632507e-02
1.983665227890014648e-01
3.179484233260154724e-02
-3.261796757578849792e-02
-9.514839202165603638e-02
2.297068089246749878e-01
-7.547529041767120361e-02
8.121097832918167114e-02
-1.423381268978118896e-01
1.777356714010238647e-01
1.687404811382293701e-01
-7.306089252233505249e-02
-3.872604295611381531e-02
-6.926409900188446045e-03
-9.773341566324234009e-02
5.588511377573013306e-02
-1.192088704556226730e-02
5.771475285291671753e-02
-2.722612768411636353e-02
4.242905229330062866e-02
2.418778091669082642e-02
-1.361152343451976776e-02
3.159772977232933044e-02
-3.376353159546852112e-02
2.809108234941959381e-02
-1.199544072151184082e-01
-8.315460383892059326e-02
6.069765239953994751e-02
-5.835361033678054810e-02
-1.291899709030985832e-03
-1.017845571041107178e-01
-1.013249605894088745e-01
8.314516395330429077e-02
-4.298807308077812195e-02
2.329420745372772217e-01
-3.293032199144363403e-02
4.321621730923652649e-02
-6.877864245325326920e-03
1.138327643275260925e-01
3.864720091223716736e-02
-2.047173529863357544e-01
-9.970420598983764648e-02
8.787541836500167847e-02
1.506746411323547363e-01
-3.243963420391082764e-02
-1.055596917867660522e-01
-2.190440744161605835e-01
-1.078401356935501099e-01
-2.614462748169898987e-03
1.638201773166656494e-01
1.170994788408279419e-01
-1.650377810001373291e-01
5.687239021062850952e-02
2.569522261619567871e-01
-1.398185938596725464e-01
-1.088269650936126709e-01
-9.434122592210769653e-03
-1.667774468660354614e-02
7.579090446233749390e-02
-3.141524270176887512e-02
1.248601675033569336e-01
-6.122758984565734863e-02
1.362738907337188721e-01
-1.708837598562240601e-01
1.840157061815261841e-01
-5.334313027560710907e-03
1.368772238492965698e-01
-3.537324368953704834e-01
-1.630267947912216187e-01
7.431527972221374512e-02
1.638206243515014648e-01
-2.422303706407546997e-02
1.749485731124877930e-01
-3.784983418881893158e-04
2.430694736540317535e-02
-3.358093798160552979e-01
2.593783140182495117e-01
1.279504895210266113e-01
-9.999727457761764526e-02
-1.011087000370025635e-01
-1.371754705905914307e-01
-2.273009717464447021e-01
1.305975615978240967e-01
-1.194665208458900452e-01
-1.166713889688253403e-02
-5.525837093591690063e-02
-9.036365896463394165e-03
7.572470605373382568e-02
1.773041635751724243e-01
-5.823222175240516663e-02
-3.570935130119323730e-02
-8.662603795528411865e-02
2.449305355548858643e-01
2.776721119880676270e-01
-1.855726838111877441e-01
-2.784388661384582520e-01
1.190698817372322083e-01
1.009006798267364502e-01
5.110945180058479309e-02
6.101108342409133911e-02
-4.669034481048583984e-02
-1.916434802114963531e-02
-1.205365806818008423e-01
1.649059802293777466e-01
-5.514159798622131348e-03
8.953844755887985229e-02
2.395966090261936188e-02
3.102374635636806488e-02
-2.674810290336608887e-01
2.376701682806015015e-01
7.618938386440277100e-02
1.355950534343719482e-01
5.571063607931137085e-02
-5.309467390179634094e-02
1.533134561032056808e-02
-6.642326712608337402e-02
-1.124119609594345093e-01
-3.565683215856552124e-02
1.339816898107528687e-01
2.894281148910522461e-01
-2.055879123508930206e-02
-7.265457510948181152e-02
-1.842814385890960693e-01
4.438351094722747803e-02
2.006643861532211304e-01
5.461326334625482559e-03
-1.572468429803848267e-01
2.862441539764404297e-01
-1.299431547522544861e-02
-9.687936305999755859e-02
-3.652836754918098450e-02
-1.200459375977516174e-01
-2.362335100769996643e-02
1.670804023742675781e-01
-1.515797823667526245e-01
1.264096349477767944e-01
-1.354421377182006836e-01
-4.224810749292373657e-02
2.138321399688720703e-01
-8.415267616510391235e-02
-4.567696899175643921e-02
-4.913697019219398499e-02
1.804225146770477295e-01
-2.166022360324859619e-01
-9.280564635992050171e-02
2.008518427610397339e-01
-3.347146809101104736e-01
2.138835191726684570e-01
-2.774066105484962463e-02
7.444612681865692139e-02
-6.767682731151580811e-02
2.489123493432998657e-02
1.515556722879409790e-01
-1.216694042086601257e-01
-6.447249650955200195e-02
-2.595148682594299316e-01
9.677812457084655762e-03
2.436569631099700928e-01
9.242714196443557739e-02
5.629933252930641174e-02
-4.621743410825729370e-02
1.334768831729888916e-01
-3.542578220367431641e-02
-1.757015287876129150e-02
5.296638235449790955e-02
-2.211234904825687408e-02
1.658621430397033691e-01
-1.814193874597549438e-01
-2.815322077367454767e-04
-9.413509815931320190e-02
-9.757908061146736145e-03
2.246213145554065704e-03
-6.129341572523117065e-02
-1.501175761222839355e-01
-7.311630249023437500e-02
1.182780563831329346e-01
-7.378854602575302124e-02
1.898387521505355835e-01
-8.676685392856597900e-02
9.461659193038940430e-02
-6.170060113072395325e-02
4.104055091738700867e-02
-2.818082831799983978e-02
1.127258911728858948e-01
-7.784166838973760605e-03
5.838214978575706482e-02
-1.965653300285339355e-01
-3.714139014482498169e-02
5.639868229627609253e-02
-2.026652395725250244e-01
1.283511370420455933e-01
-1.836323291063308716e-01
6.614043563604354858e-02
-1.216981634497642517e-01
5.698165856301784515e-03
2.222027927637100220e-01
-1.453730277717113495e-02
-3.896753862500190735e-02
1.898016408085823059e-02
-4.615384712815284729e-02
3.079474270343780518e-01
-1.412256658077239990e-01
-3.510569781064987183e-02
-1.793437600135803223e-01
-1.057737469673156738e-01
-2.944641560316085815e-02
1.682825386524200439e-02
-4.575549811124801636e-02
1.763574182987213135e-01
9.900001436471939087e-02
-1.856071501970291138e-02
-5.449021235108375549e-02
-8.186917752027511597e-02
-3.054218888282775879e-01
1.813178211450576782e-01
6.190610304474830627e-02
-9.825073927640914917e-02
-6.343389861285686493e-03
-7.320548593997955322e-02
7.998916506767272949e-02
-3.091413155198097229e-02
-3.426547050476074219e-01
-8.917059749364852905e-03
8.486458659172058105e-02
-5.053277313709259033e-02
-7.353685796260833740e-02
-1.068055257201194763e-01
6.759612262248992920e-02
1.684045344591140747e-01
-2.663148567080497742e-02
-1.208154782652854919e-01
-2.231753431260585785e-02
-9.848858462646603584e-04
1.153461858630180359e-01
1.363862305879592896e-01
-2.534555643796920776e-02
-6.325285881757736206e-02
1.127656735479831696e-02
1.597883105278015137e-01
-8.683075010776519775e-02
9.431802481412887573e-02
-1.383200138807296753e-01
8.720523118972778320e-02
1.888256967067718506e-01
2.278477102518081665e-01
-1.326782107353210449e-01
-6.246824935078620911e-02
1.996648758649826050e-01
1.780871152877807617e-01
1.817166060209274292e-01
-4.690290987491607666e-02
1.941725611686706543e-01
7.355892658233642578e-02
-9.086961299180984497e-02
1.465657632797956467e-02
1.498918421566486359e-02
-2.674586176872253418e-01
7.965392619371414185e-02
-1.053754612803459167e-01
1.916048824787139893e-01
-9.030027687549591064e-02
-2.440347373485565186e-01
-1.073921099305152893e-01
1.227651536464691162e-01
1.753767430782318115e-01
3.321130573749542236e-02
1.449174806475639343e-02
1.174014806747436523e-02
2.250820100307464600e-01
6.498489528894424438e-02
2.026218175888061523e-02
1.718152500689029694e-02
-5.102385580539703369e-02
1.509866118431091309e-01
-1.263952255249023438e-01
-1.880125254392623901e-01
-2.298264503479003906e-01
1.888065487146377563e-01
-2.373972907662391663e-02
1.839873045682907104e-01
-4.081819206476211548e-02
7.960743270814418793e-03
-9.855104610323905945e-03
-1.527707129716873169e-01
-7.917866855859756470e-02
-7.769783586263656616e-02
-3.185251355171203613e-02
-1.024241223931312561e-01
8.349824696779251099e-02
1.765987649559974670e-02
-1.720692776143550873e-02
-7.533858716487884521e-02
-5.547698587179183960e-02
3.521022945642471313e-02
7.727260887622833252e-02
2.897984087467193604e-01
-1.744264177978038788e-02
-7.263980805873870850e-02
1.317197680473327637e-01
5.208688229322433472e-02
5.299749597907066345e-02
2.173569351434707642e-01
-2.073970437049865723e-01
-4.799027740955352783e-02
1.362832784652709961e-01
-1.173739805817604065e-01
-3.318680822849273682e-02
-4.123526066541671753e-02
-5.575861036777496338e-02
1.863744482398033142e-02
-1.094974949955940247e-01
-1.992920935153961182e-01
2.366100251674652100e-01
2.218164205551147461e-01
1.364654749631881714e-01
5.893903225660324097e-02
7.203854620456695557e-02
2.033099159598350525e-02
1.561846137046813965e-01
-2.055999785661697388e-01
2.568981051445007324e-01
5.522022838704288006e-04
-1.146758347749710083e-01
1.011079549789428711e-02
-2.231142222881317139e-01
-8.198156207799911499e-02
9.789036214351654053e-02
9.121801704168319702e-02
-7.379187643527984619e-02
-6.430677324533462524e-02
1.137059368193149567e-02
-1.327924579381942749e-01
6.514371931552886963e-02
2.983411401510238647e-02
-1.276252716779708862e-01
-7.302977144718170166e-02
6.423384696245193481e-02
1.577367484569549561e-01
-7.188840955495834351e-02
9.864853322505950928e-02
-3.197482228279113770e-01
-2.097962200641632080e-01
8.636280149221420288e-02
-2.359948009252548218e-01
-1.607345938682556152e-01
-6.258510053157806396e-02
1.589795649051666260e-01
-2.304640114307403564e-01
-7.317998260259628296e-02
-1.956656873226165771e-01
-5.723733454942703247e-02
1.142320632934570312e-01
1.154859922826290131e-02
-1.651412434875965118e-02
1.739825308322906494e-01
7.233952730894088745e-02
1.592120975255966187e-01
-2.434922903776168823e-01
-1.122246906161308289e-01
3.851627409458160400e-01
1.552883684635162354e-01
1.183494180440902710e-01
4.073626548051834106e-02
-2.419356405735015869e-01
1.027771234512329102e-01
-5.060125142335891724e-02
-6.067753955721855164e-02
-1.000099629163742065e-02
-8.097072131931781769e-03
1.690875887870788574e-01
-5.355548486113548279e-02
2.827780842781066895e-01
-1.374411396682262421e-02
3.246631100773811340e-02
1.134993582963943481e-01
7.449044287204742432e-02
2.918846346437931061e-02
-1.003419831395149231e-01
-1.126401647925376892e-01
-4.297916293144226074e-01
-1.180165912955999374e-02
1.815476119518280029e-01
-7.591538131237030029e-02
1.606877297163009644e-01
1.478924602270126343e-01
1.224356144666671753e-01
9.829985350370407104e-02
1.529584825038909912e-01
9.954996407032012939e-02
5.622439552098512650e-03
-1.010066866874694824e-01
9.038874879479408264e-03
-7.298903656192123890e-04
2.986866235733032227e-01
1.617952883243560791e-01
1.801034621894359589e-02
1.099971160292625427e-01
-2.422754332656040788e-04
-8.829702436923980713e-02
2.084525674581527710e-01
3.636811394244432449e-03
1.391723304986953735e-01
-7.667446881532669067e-02
-8.747945725917816162e-02
3.674525022506713867e-02
-1.498892009258270264e-01
8.278471976518630981e-02
-8.358887583017349243e-02
1.676258742809295654e-01
-1.329987198114395142e-01
-2.472565472126007080e-01
2.834923379123210907e-02
-2.396305948495864868e-01
-2.946356236934661865e-01
-1.028853654861450195e-01
-3.136117383837699890e-02
1.426719427108764648e-01
-2.043457776308059692e-01
9.173679351806640625e-02
-2.260885536670684814e-01
9.657859802246093750e-03
3.407620266079902649e-02
-3.570840507745742798e-02
-4.051787033677101135e-02
2.573714554309844971e-01
1.135128960013389587e-01
2.480285242199897766e-02
-9.668397158384323120e-02
-1.228751689195632935e-01
-2.169772088527679443e-01
-2.046914994716644287e-01
-6.360309571027755737e-02
-1.227888464927673340e-01
7.748515810817480087e-03
-2.766434289515018463e-02
-1.024587079882621765e-01
-1.400677710771560669e-01
-9.498314559459686279e-02
1.736658066511154175e-01
-2.638519406318664551e-01
4.104728810489177704e-03
1.905645877122879028e-01
1.297752652317285538e-02
-8.213975280523300171e-02
2.700086832046508789e-01
2.013044506311416626e-01
5.732762068510055542e-02
1.412207335233688354e-01
-2.048904262483119965e-02
8.849313855171203613e-02
7.674496620893478394e-02
-3.320760652422904968e-02
1.145684495568275452e-01
-3.437419887632131577e-03
1.956456005573272705e-01
9.353228844702243805e-03
6.558638811111450195e-02
-1.539255678653717041e-01
1.783943921327590942e-01
7.947462052106857300e-02
1.949588358402252197e-01
-1.085788384079933167e-02
1.052501052618026733e-01
2.209107875823974609e-01
6.370933353900909424e-02
1.618605554103851318e-01
2.178800255060195923e-01
-1.415821164846420288e-01
-2.301575988531112671e-02
-2.172511965036392212e-01
-2.324992269277572632e-01
-3.408381342887878418e-02
1.177221238613128662e-01
1.791741698980331421e-01
1.307411491870880127e-01
4.687140136957168579e-02
-8.937095105648040771e-02
-5.818830430507659912e-02
5.946017429232597351e-02
1.945606172084808350e-01
-2.856733202934265137e-01
8.981616795063018799e-02
2.375259548425674438e-01
9.993327409029006958e-02
-2.030728608369827271e-01
-4.362856224179267883e-02
-4.458246007561683655e-02
1.817917674779891968e-01
-4.502807557582855225e-02
6.426907330751419067e-02
-1.123910248279571533e-01
4.239154458045959473e-01
-1.623916625976562500e-02
-2.730661630630493164e-02
9.109441936016082764e-02
1.980858668684959412e-02
1.263079941272735596e-01
-1.593194752931594849e-01
1.076493263244628906e-01
4.871712625026702881e-02
4.344974085688591003e-02
-3.024077974259853363e-02
-5.222363397479057312e-02
2.430198639631271362e-01
9.419354796409606934e-02
-2.369697391986846924e-01
3.984754905104637146e-02
4.370309412479400635e-02
1.874327212572097778e-01
1.356800943613052368e-01
5.311306938529014587e-02
4.322194680571556091e-02
1.955893822014331818e-02
-1.650452166795730591e-01
-1.346253901720046997e-01
9.098273515701293945e-02
-2.911181934177875519e-02
-4.583897441625595093e-02
-1.032365337014198303e-01
7.679720968008041382e-02
-4.467868711799383163e-03
8.503712713718414307e-02
8.824116736650466919e-02
-1.002901196479797363e-01
-1.298693418502807617e-01
-1.588525176048278809e-01
5.963845178484916687e-03
3.257395327091217041e-01
-4.465515539050102234e-02
-1.905023604631423950e-01
-1.498220581561326981e-02
-2.243557572364807129e-01
5.918796360492706299e-02
-1.482599526643753052e-01
-4.536027833819389343e-02
-1.443001907318830490e-03
4.430507868528366089e-02
-2.161835283041000366e-01
-3.282222151756286621e-02
4.902680963277816772e-02
1.446303538978099823e-02
1.899135112762451172e-01
1.431179698556661606e-02
1.512616965919733047e-02
-4.204830899834632874e-02
1.018449664115905762e-01
9.743287414312362671e-02
-2.602641582489013672e-01
-6.073265895247459412e-02
-1.422095391899347305e-02
-2.073081582784652710e-01
1.528784185647964478e-01
-2.469298988580703735e-01
-2.775093317031860352e-01
2.770659625530242920e-01
1.677765250205993652e-01
2.184790931642055511e-02
9.266311675310134888e-02
-3.099484741687774658e-01
-5.169589444994926453e-02
4.902347549796104431e-02
2.486039139330387115e-02
-1.966811120510101318e-01
1.734983734786510468e-02
-4.748648032546043396e-02
-6.911584734916687012e-02
4.270349442958831787e-02
-5.523351579904556274e-02
8.571288734674453735e-02
-9.093710035085678101e-02
-1.290986090898513794e-01
9.694668650627136230e-02
-1.670222282409667969e-01
-1.590189039707183838e-01
1.751510053873062134e-01
-1.890120059251785278e-01
3.208700940012931824e-02
8.915995061397552490e-02
8.695413917303085327e-02
5.549557134509086609e-02
-2.245480120182037354e-01
3.000951707363128662e-01
5.277905240654945374e-02
5.244284402579069138e-03
2.026580423116683960e-01
1.622870622668415308e-04
-2.160572819411754608e-02
9.528934210538864136e-02
6.910207122564315796e-02
-2.252284735441207886e-01
-1.041290387511253357e-01
-5.401213094592094421e-02
2.733775787055492401e-02
5.248597636818885803e-02
1.021648664027452469e-02
1.791861653327941895e-01
3.526701033115386963e-02
3.547293832525610924e-03
3.149454295635223389e-01
1.966875642538070679e-01
-1.966712437570095062e-02
-5.380518734455108643e-03
-4.595329612493515015e-02
2.315301597118377686e-01
4.999842494726181030e-02
5.555290356278419495e-02
-1.533903926610946655e-01
-2.173840403556823730e-01
1.115432679653167725e-01
-1.078640520572662354e-01
1.436436176300048828e-01
-1.051985323429107666e-01
3.171200305223464966e-02
-9.394408017396926880e-02
-7.364965230226516724e-02
-2.999169230461120605e-01
-8.770607411861419678e-02
2.193090133368968964e-02
1.403679698705673218e-01
2.272639572620391846e-01
-2.169201821088790894e-01
2.606196403503417969e-01
-7.968723028898239136e-02
-1.406902968883514404e-01
-3.734575212001800537e-02
-2.657807469367980957e-01
9.931132942438125610e-02
-1.184973418712615967e-01
1.515848636627197266e-01
3.314203396439552307e-02
-1.429911851882934570e-01
-1.914307475090026855e-01
7.345923036336898804e-02
-1.991327106952667236e-02
-3.252897411584854126e-02
-4.403007030487060547e-02
1.628131270408630371e-01
5.091353133320808411e-02
1.630233377218246460e-01
-3.080624900758266449e-02
-6.586998701095581055e-02
4.440339282155036926e-02
2.653513550758361816e-01
7.280306518077850342e-02
4.600014165043830872e-02
-4.455103352665901184e-02
1.156087592244148254e-01
2.784881293773651123e-01
2.400140278041362762e-02
1.618553698062896729e-01
1.838538050651550293e-01
-1.971676349639892578e-01
1.657656133174896240e-01
8.608902245759963989e-02
-9.935851208865642548e-03
1.750833988189697266e-01
8.706847578287124634e-02
4.146669805049896240e-02
-1.714216321706771851e-01
5.490764044225215912e-03
4.054856672883033752e-02
1.748267561197280884e-01
-1.774002052843570709e-02
-8.754667825996875763e-03
-1.843065172433853149e-01
2.147919386625289917e-01
-9.362258762121200562e-02
1.227357238531112671e-01
-1.125575080513954163e-01
1.225547771900892258e-02
-1.434172242879867554e-01
1.628395766019821167e-01
-4.960825294256210327e-02
1.833850741386413574e-01
-9.777490794658660889e-02
-9.112318605184555054e-02
-7.494613528251647949e-02
-1.533509939908981323e-01
2.676427830010652542e-03
-1.469842791557312012e-01
6.947717815637588501e-02
6.786884367465972900e-02
6.050582043826580048e-03
-9.121099859476089478e-02
-2.058662027120590210e-01
-5.352209508419036865e-02
-5.050764605402946472e-02
-7.591196149587631226e-02
-4.236012324690818787e-02
1.057631224393844604e-01
-1.905087381601333618e-01
-5.552875995635986328e-02
-5.807429924607276917e-02
-9.954030811786651611e-02
-3.002609871327877045e-02
2.554300427436828613e-01
1.795316934585571289e-01
6.051723659038543701e-02
2.435357682406902313e-02
-1.908972710371017456e-01
3.707010298967361450e-02
1.479162182658910751e-02
-4.945134371519088745e-02
5.918329954147338867e-02
-2.483136355876922607e-01
-1.406269371509552002e-01
-1.062210798263549805e-01
-3.095086850225925446e-02
8.566060662269592285e-02
4.076385498046875000e-01
9.736166684888303280e-04
1.359613053500652313e-02
-2.467097193002700806e-01
8.586299419403076172e-02
-4.959752038121223450e-02
-1.483899652957916260e-01
5.452484823763370514e-03
-2.646547555923461914e-02
5.013380944728851318e-02
-1.517204940319061279e-01
1.313941031694412231e-01
-8.393099904060363770e-02
5.637702718377113342e-02
-1.614730246365070343e-02
3.594284877181053162e-02
5.995201691985130310e-02
-1.072405353188514709e-01
-1.039580330252647400e-01
7.650060206651687622e-02
1.379315853118896484e-01
-1.583180129528045654e-01
6.054569035768508911e-02
1.972108781337738037e-01
-3.523955643177032471e-01
3.107225336134433746e-02
4.254288505762815475e-03
-1.225929632782936096e-01
8.030106313526630402e-03
5.402613896876573563e-03
1.228912845253944397e-01
-5.543516948819160461e-02
-6.481434404850006104e-02
3.549670875072479248e-01
2.041741907596588135e-01
-1.424326896667480469e-01
3.523662686347961426e-02
3.064422607421875000e-01
7.692584395408630371e-02
-1.528200954198837280e-01
